svm_type c_svc
kernel_type linear
nr_class 2
total_sv 176
rho 3.4136
label 1 0
nr_sv 83 93
SV
4065.987368045918 1:0.0105143 2:0.0288411 3:0.0109701 4:0.0310547 5:0.0130534 6:0.0185547 7:0.0146484 8:0.0185547 9:0.0588216 10:0.0295247 11:0.0867513 12:0.0284831 13:0.0432943 14:0.0202148 15:0.0283854 16:0.0208984 17:0.0543294 18:0.201725 19:0.0561849 20:0.176335 21:0.0404948 22:0.0969727 23:0.0378581 24:0.0848307 25:0.0232096 26:0.0669596 27:0.0198242 28:0.0432943 29:0.0192383 30:0.0295247 31:0.0122721 32:0.023112 33:0.00569661 34:0.011556 35:0.00957031 36:0.0121745 37:0.0121094 38:0.0145833 39:0.0158854 40:0.0124674 41:0.00836589 42:0.0132487 43:0.0112956 44:0.0103516 45:0.0188802 46:0.022168 47:0.0251302 48:0.0233073 49:0.0196289 50:0.0579102 51:0.0280599 52:0.0588542 53:0.0330729 54:0.0561198 55:0.0347656 56:0.0623047 57:0.009375 58:0.0258789 59:0.0155273 60:0.0155924 61:0.0190755 62:0.0435872 63:0.0177409 64:0.0151042 65:0.019987 66:0.0726563 67:0.0193685 68:0.0720703 69:0.0244141 70:0.0324219 71:0.0257813 72:0.0367513 73:0.0427083 74:0.0422852 75:0.036556 76:0.047819 77:0.0485677 78:0.0169596 79:0.044694 80:0.0327799 81:0.0845703 82:0.338997 83:0.0874674 84:0.301953 85:0.0387695 86:0.117969 87:0.0354167 88:0.104492 89:0.0257813 90:0.0805013 91:0.0277018 92:0.0818359 93:0.0182617 94:0.0202799 95:0.0122721 96:0.022819 97:0.00501302 98:0.0151367 99:0.00761719 100:0.0191406 101:0.0124349 102:0.0172852 103:0.0213867 104:0.0271159 105:0.0160482 106:0.0166341 107:0.0123047 108:0.0177409 109:0.0244466 110:0.0169271 111:0.0333984 112:0.0286458 113:0.0210612 114:0.0869141 115:0.0293294 116:0.0913411 117:0.0222005 118:0.0602865 119:0.0243164 120:0.0631836 121:0.00784505 122:0.0253906 123:0.0143555 124:0.027181 125:0.0117187 126:0.0141602 127:0.0231445 128:0.0173828 129:0.0216797 130:0.017806 131:0.0163086 132:0.0150716 133:0.0162435 134:0.0155273 135:0.0221029 136:0.0199544 137:0.0183919 138:0.0236328 139:0.014974 140:0.0133138 141:0.0188802 142:0.0279297 143:0.0195638 144:0.0250326 145:0.0254557 146:0.075651 147:0.0256185 148:0.0649414 149:0.027832 150:0.0548828 151:0.0337565 152:0.0661458 153:0.011849 154:0.0250326 155:0.0127279 156:0.0186523 157:0.0130208 158:0.0195638 159:0.0120443 160:0.0200846 161:0.0234049 162:0.0249023 163:0.0272786 164:0.0240234 165:0.0358073 166:0.0447591 167:0.0488607 168:0.0412435 169:0.0321615 170:0.0397135 171:0.0475586 172:0.0250651 173:0.0611979 174:0.0714193 175:0.0945312 176:0.059082 177:0.0426432 178:0.122103 179:0.0443685 180:0.138021 181:0.0833333 182:0.140072 183:0.0892253 184:0.194271 185:0.0171875 186:0.0333008 187:0.0315104 188:0.0271484 189:0.0337891 190:0.039974 191:0.0469076 192:0.0438477 193:0.0144206 194:0.0227539 195:0.00852865 196:0.019043 197:0.0117839 198:0.0161458 199:0.0136068 200:0.018457 201:0.0137044 202:0.0188477 203:0.0100586 204:0.0163737 205:0.0143555 206:0.013444 207:0.0132813 208:0.0169596 209:0.0400065 210:0.106641 211:0.0316406 212:0.0866862 213:0.023112 214:0.058138 215:0.0225911 216:0.0588216 217:0.0110026 218:0.020931 219:0.0108398 220:0.0212565 221:0.0100911 222:0.0140951 223:0.00791016 224:0.0166341 225:0.0125 226:0.0266602 227:0.0155599 228:0.0241862 229:0.0208659 230:0.0357096 231:0.0277344 232:0.0332031 233:0.0221029 234:0.0288411 235:0.0399414 236:0.0248047 237:0.0589193 238:0.0472331 239:0.0663086 240:0.0436198 241:0.0375326 242:0.141341 243:0.0442057 244:0.147493 245:0.0571289 246:0.149023 247:0.0564453 248:0.155469 249:0.0142578 250:0.0301758 251:0.0241211 252:0.0355469 253:0.0217773 254:0.0336914 255:0.0302409 256:0.0347005 
1563.398969257674 1:0.0104818 2:0.0306641 3:0.0129557 4:0.0282552 5:0.0132487 6:0.0152018 7:0.0173177 8:0.0190104 9:0.0617839 10:0.0344401 11:0.0796875 12:0.0249349 13:0.0424479 14:0.0155599 15:0.0255534 16:0.0205078 17:0.052832 18:0.196289 19:0.0505859 20:0.17653 21:0.0385417 22:0.0805664 23:0.033724 24:0.0808919 25:0.0280599 26:0.0715495 27:0.0214193 28:0.050944 29:0.0188151 30:0.0285156 31:0.0130859 32:0.0211914 33:0.0055013 34:0.0127279 35:0.00826823 36:0.0104818 37:0.0100586 38:0.011849 39:0.0145508 40:0.0127604 41:0.00764974 42:0.0141602 43:0.0125977 44:0.011263 45:0.0180013 46:0.0202148 47:0.0228841 48:0.0204102 49:0.0208984 50:0.0587891 51:0.0270833 52:0.0581706 53:0.0350586 54:0.0570964 55:0.0331706 56:0.0617839 57:0.00999349 58:0.0250977 59:0.0166016 60:0.0170898 61:0.0162435 62:0.0371419 63:0.0169922 64:0.0161133 65:0.0224609 66:0.0690104 67:0.0223307 68:0.0748047 69:0.0276693 70:0.0381185 71:0.0279622 72:0.0378255 73:0.0387695 74:0.046582 75:0.0329102 76:0.0473633 77:0.0599284 78:0.0176758 79:0.0453125 80:0.0341797 81:0.0816732 82:0.348568 83:0.085026 84:0.302962 85:0.040625 86:0.110612 87:0.0382161 88:0.103255 89:0.0265299 90:0.0826497 91:0.0210612 92:0.073112 93:0.0186198 94:0.0211589 95:0.0111003 96:0.0237305 97:0.00572917 98:0.0160807 99:0.00800781 100:0.0179688 101:0.0115234 102:0.0180339 103:0.0211263 104:0.0263997 105:0.0132813 106:0.0160156 107:0.00843099 108:0.0167643 109:0.0240885 110:0.0171224 111:0.0338867 112:0.0260417 113:0.0211263 114:0.0903971 115:0.0295898 116:0.0970703 117:0.0234049 118:0.0614258 119:0.0259766 120:0.0635091 121:0.00680339 122:0.0228841 123:0.0142253 124:0.0263346 125:0.0106445 126:0.0125651 127:0.0240885 128:0.0180339 129:0.0198568 130:0.0167969 131:0.0151693 132:0.0165039 133:0.0157552 134:0.016569 135:0.0198893 136:0.020931 137:0.0170573 138:0.0250651 139:0.0166667 140:0.0178711 141:0.0180013 142:0.0256185 143:0.0184245 144:0.0219076 145:0.0279297 146:0.0746745 147:0.0297526 148:0.0634115 149:0.0266276 150:0.0515951 151:0.0310872 152:0.0647135 153:0.0130208 154:0.0219401 155:0.0134115 156:0.0202148 157:0.0120117 158:0.0180664 159:0.0120443 160:0.0192383 161:0.0244792 162:0.0249023 163:0.0265951 164:0.0198568 165:0.0359701 166:0.0456055 167:0.0437826 168:0.0395833 169:0.0316732 170:0.0355143 171:0.0473958 172:0.0277669 173:0.0663411 174:0.0858073 175:0.0885742 176:0.0625326 177:0.0419596 178:0.122038 179:0.0460612 180:0.121419 181:0.0876302 182:0.146745 183:0.103581 184:0.189909 185:0.0174479 186:0.0322591 187:0.0317383 188:0.0265625 189:0.0325195 190:0.0449544 191:0.0470703 192:0.0458333 193:0.013737 194:0.023112 195:0.0116211 196:0.0180013 197:0.0116862 198:0.0153971 199:0.0120117 200:0.0153971 201:0.0117187 202:0.0183268 203:0.00950521 204:0.0176758 205:0.0155273 206:0.013737 207:0.0119141 208:0.0145182 209:0.0382487 210:0.10931 211:0.0364583 212:0.0854818 213:0.0264974 214:0.0577799 215:0.0216797 216:0.0556966 217:0.0115234 218:0.0220378 219:0.0116211 220:0.0235352 221:0.00992839 222:0.0135417 223:0.0078776 224:0.0164062 225:0.0128255 226:0.0249349 227:0.0181966 228:0.0238281 229:0.0239583 230:0.0352539 231:0.0323242 232:0.0376302 233:0.023112 234:0.0296224 235:0.0407552 236:0.0285482 237:0.0576823 238:0.0446615 239:0.0723958 240:0.0430339 241:0.0387044 242:0.144792 243:0.0467122 244:0.149805 245:0.0576823 246:0.151921 247:0.0560872 248:0.152995 249:0.0135417 250:0.0329102 251:0.0256185 252:0.0334635 253:0.0240885 254:0.0310872 255:0.0286784 256:0.0390299 
2598.639098167231 1:0.0119792 2:0.0298828 3:0.0131836 4:0.0313802 5:0.0125326 6:0.0155924 7:0.0171549 8:0.0157227 9:0.0629232 10:0.0241536 11:0.0930339 12:0.0259766 13:0.0368164 14:0.0149414 15:0.0275391 16:0.0203125 17:0.0601563 18:0.185579 19:0.0473633 20:0.167969 21:0.0420898 22:0.089388 23:0.0325846 24:0.0742187 25:0.0313802 26:0.0719076 27:0.0189128 28:0.0518555 29:0.0203776 30:0.0277018 31:0.00999349 32:0.0188151 33:0.00595703 34:0.00996094 35:0.00784505 36:0.0113932 37:0.00973307 38:0.0113607 39:0.0158854 40:0.0132161 41:0.00986328 42:0.010319 43:0.0114909 44:0.0108398 45:0.0198568 46:0.0174805 47:0.0214844 48:0.0203776 49:0.021224 50:0.0543945 51:0.0261719 52:0.0536458 53:0.0296224 54:0.0523112 55:0.0370443 56:0.0573893 57:0.00895182 58:0.0191081 59:0.0166341 60:0.0152669 61:0.0158203 62:0.066569 63:0.0167643 64:0.0170573 65:0.0235677 66:0.0676107 67:0.0211589 68:0.0784505 69:0.0245117 70:0.0392253 71:0.0277018 72:0.0409505 73:0.0458659 74:0.0460286 75:0.0371745 76:0.0436523 77:0.0513021 78:0.0170898 79:0.0424479 80:0.0275065 81:0.0764323 82:0.309115 83:0.0821289 84:0.294368 85:0.041276 86:0.121452 87:0.0347005 88:0.100749 89:0.0277669 90:0.0727539 91:0.0222982 92:0.0789388 93:0.0162435 94:0.0213542 95:0.0124023 96:0.0225586 97:0.00507813 98:0.0156576 99:0.00777995 100:0.0142578 101:0.0129883 102:0.0169922 103:0.0192708 104:0.0260417 105:0.0125977 106:0.0147786 107:0.0103516 108:0.0158203 109:0.0297852 110:0.0211914 111:0.0398438 112:0.0263672 113:0.0176758 114:0.0830078 115:0.0308594 116:0.0803711 117:0.022168 118:0.0591471 119:0.0259766 120:0.064974 121:0.0069987 122:0.0230469 123:0.0124349 124:0.0274089 125:0.00947266 126:0.0135742 127:0.0267253 128:0.0161133 129:0.0206055 130:0.0161784 131:0.0155273 132:0.015918 133:0.0170573 134:0.0127604 135:0.0227539 136:0.0183594 137:0.0155924 138:0.021224 139:0.0137695 140:0.0157552 141:0.0202799 142:0.0247721 143:0.0155273 144:0.0230794 145:0.0298503 146:0.0650065 147:0.0241536 148:0.0593424 149:0.0288411 150:0.0523112 151:0.0333984 152:0.0676107 153:0.0108398 154:0.0196615 155:0.0144857 156:0.0183919 157:0.0136068 158:0.0157227 159:0.0131185 160:0.018457 161:0.0237305 162:0.0267578 163:0.0243815 164:0.0189128 165:0.0411133 166:0.0502604 167:0.0490234 168:0.0431641 169:0.0288411 170:0.0455729 171:0.0417318 172:0.0336914 173:0.0557943 174:0.0914714 175:0.0644857 176:0.0650716 177:0.0502604 178:0.129036 179:0.0507161 180:0.133464 181:0.0987956 182:0.16263 183:0.102865 184:0.204329 185:0.0177083 186:0.0397461 187:0.0273763 188:0.0291992 189:0.0373698 190:0.0495443 191:0.0459961 192:0.0466471 193:0.0131836 194:0.0230469 195:0.012207 196:0.0188151 197:0.00983073 198:0.0153646 199:0.0135091 200:0.0166341 201:0.0112305 202:0.0190755 203:0.00843099 204:0.0152344 205:0.0186849 206:0.0135742 207:0.0152344 208:0.0157552 209:0.0388997 210:0.1014 211:0.0313802 212:0.0871419 213:0.0221029 214:0.0545573 215:0.021582 216:0.0576172 217:0.00973307 218:0.0208659 219:0.0111003 220:0.0203776 221:0.00839844 222:0.0103516 223:0.00927734 224:0.0150391 225:0.0141602 226:0.0260417 227:0.0205729 228:0.0280273 229:0.0213867 230:0.0397461 231:0.0332357 232:0.0408854 233:0.0214193 234:0.0302083 235:0.0373698 236:0.0298503 237:0.0599609 238:0.0494792 239:0.0626302 240:0.0500977 241:0.0420573 242:0.149186 243:0.0546875 244:0.164779 245:0.0588542 246:0.157259 247:0.0639323 248:0.147135 249:0.0136068 250:0.0328776 251:0.0257487 252:0.0359049 253:0.0235026 254:0.031901 255:0.0324544 256:0.0417643 
183.1127792975228 1:0.529883 2:0.0348307 3:0.0323568 4:0.028776 5:0.0341146 6:0.024707 7:0.0170898 8:0.0111328 9:0.0878581 10:0.0394857 11:0.0791016 12:0.0391276 13:0.0790039 14:0.0301107 15:0.0388021 16:0.0223307 17:0.0263346 18:0.0845703 19:0.0342122 20:0.0736654 21:0.0281576 22:0.0631185 23:0.0187826 24:0.0385417 25:0.028125 26:0.0315755 27:0.0323242 28:0.0260742 29:0.0318359 30:0.025944 31:0.0145833 32:0.0154297 33:0.00664063 34:0.0114583 35:0.00895182 36:0.00738932 37:0.0153646 38:0.00882161 39:0.00716146 40:0.00572917 41:0.017513 42:0.0112956 43:0.0206055 44:0.00986328 45:0.0351888 46:0.0207031 47:0.0238281 48:0.0150716 49:0.00898438 50:0.0402344 51:0.014681 52:0.0383138 53:0.0143229 54:0.0205729 55:0.0104167 56:0.0259766 57:0.00761719 58:0.013737 59:0.0105469 60:0.00878906 61:0.0226562 62:0.0126953 63:0.0103516 64:0.00745443 65:0.0301758 66:0.0317057 67:0.0391927 68:0.038151 69:0.0330078 70:0.0244792 71:0.0267253 72:0.0242187 73:0.135742 74:0.0631185 75:0.0861979 76:0.073763 77:0.0679362 78:0.0310547 79:0.057487 80:0.0478516 81:0.0416016 82:0.124089 83:0.0805013 84:0.152441 85:0.0338216 86:0.0992188 87:0.0327799 88:0.0882812 89:0.0347005 90:0.0374023 91:0.0473633 92:0.049707 93:0.0291016 94:0.0351237 95:0.0276367 96:0.0291341 97:0.00576172 98:0.00716146 99:0.0103516 100:0.0156901 101:0.0193685 102:0.0167643 103:0.015625 104:0.0253906 105:0.0271484 106:0.0405924 107:0.0218424 108:0.0149414 109:0.0407878 110:0.0246419 111:0.0444336 112:0.0277995 113:0.0109701 114:0.0460937 115:0.0199544 116:0.0565755 117:0.0115234 118:0.0348633 119:0.0141927 120:0.0385742 121:0.0124023 122:0.0221354 123:0.0178711 124:0.0223307 125:0.0204753 126:0.0127279 127:0.0324219 128:0.0139974 129:0.0239583 130:0.0463542 131:0.0347982 132:0.0174479 133:0.0285807 134:0.0121094 135:0.0163411 136:0.00979818 137:0.0254883 138:0.0179688 139:0.0172201 140:0.0151693 141:0.0327474 142:0.0234049 143:0.0211914 144:0.0122396 145:0.0169271 146:0.0482096 147:0.0139323 148:0.0428385 149:0.0192383 150:0.0232747 151:0.0131836 152:0.0221029 153:0.0225911 154:0.0154297 155:0.0140299 156:0.0166992 157:0.0144531 158:0.0093099 159:0.00667318 160:0.00983073 161:0.0141602 162:0.0371419 163:0.0255208 164:0.0148763 165:0.0614258 166:0.0433594 167:0.0518555 168:0.0503906 169:0.0331055 170:0.0206055 171:0.0341797 172:0.0214844 173:0.0944336 174:0.103809 175:0.0818034 176:0.0561849 177:0.0273763 178:0.116602 179:0.0337891 180:0.158659 181:0.113737 182:0.222168 183:0.133398 184:0.514355 185:0.0257813 186:0.0244466 187:0.0277344 188:0.0449219 189:0.0494141 190:0.0369792 191:0.0494792 192:0.0538411 193:0.0110026 194:0.012793 195:0.0200846 196:0.0174154 197:0.0126628 198:0.00820312 199:0.00986328 200:0.0125 201:0.016276 202:0.0157227 203:0.022819 204:0.0218424 205:0.0238932 206:0.0138021 207:0.0189453 208:0.0135417 209:0.0181966 210:0.065918 211:0.0183919 212:0.0624023 213:0.0137695 214:0.0364258 215:0.0104167 216:0.033138 217:0.00924479 218:0.00992839 219:0.0117187 220:0.0161784 221:0.0107422 222:0.00911458 223:0.00963542 224:0.00895182 225:0.00810547 226:0.0114909 227:0.0244141 228:0.0251628 229:0.0297852 230:0.0420573 231:0.0369792 232:0.0563477 233:0.0226562 234:0.0141602 235:0.0448242 236:0.0232747 237:0.0713216 238:0.0527018 239:0.0807943 240:0.036556 241:0.0143555 242:0.0985026 243:0.025293 244:0.15485 245:0.0535482 246:0.233203 247:0.0521159 248:0.285124 249:0.00804036 250:0.0116211 251:0.0155273 252:0.0419922 253:0.0181641 254:0.0206055 255:0.0250977 256:0.0311849 
379.3450746272394 1:0.0188477 2:0.0291992 3:0.033431 4:0.0354492 5:0.0245117 6:0.0205404 7:0.030013 8:0.0294271 9:0.0852214 10:0.0585938 11:0.0741211 12:0.0431315 13:0.0570312 14:0.041276 15:0.0426107 16:0.0486979 17:0.0401042 18:0.0716797 19:0.051237 20:0.0651693 21:0.0429362 22:0.0364909 23:0.0444987 24:0.0340495 25:0.0274414 26:0.0475586 27:0.0260417 28:0.03125 29:0.0361979 30:0.0418294 31:0.0215169 32:0.0280273 33:0.0112956 34:0.0164062 35:0.0169271 36:0.0125 37:0.021224 38:0.0177409 39:0.0252279 40:0.0136393 41:0.0196289 42:0.0315755 43:0.0248047 44:0.0236328 45:0.035026 46:0.0486328 47:0.0409831 48:0.0305664 49:0.0267904 50:0.0296875 51:0.030013 52:0.0226562 53:0.0486979 54:0.0270833 55:0.0354818 56:0.0183919 57:0.0232422 58:0.0321615 59:0.0241536 60:0.0168945 61:0.0379232 62:0.0362956 63:0.0234701 64:0.0138021 65:0.0401693 66:0.0560221 67:0.0626628 68:0.0611003 69:0.0306966 70:0.0223633 71:0.0438151 72:0.0304362 73:0.0940755 74:0.0889323 75:0.0761719 76:0.0970703 77:0.0555664 78:0.0347982 79:0.0547852 80:0.0573242 81:0.0705078 82:0.116146 83:0.126204 84:0.105957 85:0.0448242 86:0.0604167 87:0.0576172 88:0.0475586 89:0.034375 90:0.0499023 91:0.0473307 92:0.0524089 93:0.0262044 94:0.025651 95:0.0245443 96:0.0272461 97:0.0117839 98:0.0238607 99:0.0192057 100:0.0227214 101:0.0252604 102:0.0290365 103:0.0302734 104:0.0308594 105:0.0269531 106:0.0407227 107:0.0234049 108:0.0498698 109:0.0358724 110:0.0421224 111:0.0436523 112:0.0451497 113:0.0306966 114:0.0414063 115:0.0511719 116:0.0382161 117:0.0366536 118:0.0329427 119:0.0331706 120:0.0299154 121:0.0188151 122:0.0379232 123:0.0416016 124:0.0421224 125:0.0211589 126:0.0248698 127:0.024707 128:0.0191406 129:0.0276693 130:0.0454753 131:0.0297201 132:0.0258789 133:0.0300781 134:0.0288086 135:0.0208659 136:0.0278971 137:0.0280273 138:0.0429036 139:0.0239583 140:0.0275065 141:0.0275065 142:0.0510742 143:0.0245117 144:0.050651 145:0.0314128 146:0.0297526 147:0.030599 148:0.023112 149:0.0448893 150:0.0188477 151:0.0409831 152:0.0249349 153:0.0225586 154:0.0223958 155:0.0196615 156:0.0199219 157:0.0258789 158:0.0253581 159:0.0214193 160:0.0254557 161:0.0267253 162:0.0376302 163:0.0239909 164:0.0269857 165:0.0673177 166:0.0600586 167:0.0481445 168:0.0431966 169:0.0351563 170:0.0449219 171:0.0444987 172:0.0342122 173:0.0930664 174:0.0797526 175:0.0989258 176:0.0548828 177:0.045638 178:0.0645182 179:0.0443359 180:0.0791016 181:0.139355 182:0.0918945 183:0.0787435 184:0.106999 185:0.0303711 186:0.0346029 187:0.0394206 188:0.0404622 189:0.0632487 190:0.0453451 191:0.0454102 192:0.0461914 193:0.0288737 194:0.0332357 195:0.0249349 196:0.0253581 197:0.0215495 198:0.0190104 199:0.0151693 200:0.0179036 201:0.0230794 202:0.0383464 203:0.0169271 204:0.0411458 205:0.0217122 206:0.0339844 207:0.0183919 208:0.0385091 209:0.0601563 210:0.0370443 211:0.0565104 212:0.0304362 213:0.0376302 214:0.0217448 215:0.0309245 216:0.0226562 217:0.0263672 218:0.0213542 219:0.0277344 220:0.030306 221:0.0215495 222:0.0163086 223:0.018099 224:0.0220378 225:0.0125651 226:0.0182617 227:0.0188477 228:0.0301432 229:0.0335286 230:0.0481771 231:0.0295898 232:0.0551432 233:0.0213542 234:0.034668 235:0.0337565 236:0.0513346 237:0.0648763 238:0.0520182 239:0.0738932 240:0.05625 241:0.0334635 242:0.0350911 243:0.0456055 244:0.0686198 245:0.0588867 246:0.0719401 247:0.0504557 248:0.103939 249:0.0136068 250:0.0249349 251:0.0308594 252:0.0492839 253:0.0245768 254:0.0302734 255:0.0272461 256:0.0401693 
135.3606972296235 1:0.0227865 2:0.0346029 3:0.0375 4:0.0363932 5:0.0278971 6:0.0211263 7:0.0250326 8:0.0260417 9:0.0870768 10:0.0634766 11:0.0744141 12:0.0451172 13:0.0536784 14:0.0468424 15:0.0371419 16:0.0461589 17:0.0417969 18:0.0723958 19:0.0509115 20:0.0583333 21:0.0460286 22:0.0360026 23:0.0427409 24:0.0329102 25:0.0310872 26:0.0488281 27:0.0289388 28:0.0335612 29:0.0375 30:0.044043 31:0.0200846 32:0.0262695 33:0.0102539 34:0.0158854 35:0.0166667 36:0.0130208 37:0.0201823 38:0.0195312 39:0.020931 40:0.0123698 41:0.0207357 42:0.0309896 43:0.0230143 44:0.0244792 45:0.0339844 46:0.0494792 47:0.0354167 48:0.0301758 49:0.0289714 50:0.0277344 51:0.0324544 52:0.0181966 53:0.0495443 54:0.0259766 55:0.0332357 56:0.014974 57:0.020931 58:0.0298828 59:0.0212891 60:0.0170898 61:0.0393555 62:0.0337891 63:0.0216797 64:0.0142253 65:0.0439453 66:0.0557292 67:0.0680013 68:0.0680664 69:0.0340169 70:0.028418 71:0.0390951 72:0.0331055 73:0.0979167 74:0.0883789 75:0.0750977 76:0.0893555 77:0.0612956 78:0.0387044 79:0.0579427 80:0.0589518 81:0.0717773 82:0.102865 83:0.135189 84:0.107096 85:0.0444336 86:0.0641927 87:0.0630208 88:0.0465169 89:0.036556 90:0.0491536 91:0.0526042 92:0.0558919 93:0.0265299 94:0.0295898 95:0.0239583 96:0.0276367 97:0.0112305 98:0.0210938 99:0.0189128 100:0.0235677 101:0.0290039 102:0.0282227 103:0.0257487 104:0.0310547 105:0.0234375 106:0.0346029 107:0.0230794 108:0.0507813 109:0.0326172 110:0.0422526 111:0.0393229 112:0.0469727 113:0.0292643 114:0.0374023 115:0.0529297 116:0.039974 117:0.0333984 118:0.0323242 119:0.0320312 120:0.0296875 121:0.0169596 122:0.0336263 123:0.0382812 124:0.0428385 125:0.0183919 126:0.0253906 127:0.0218099 128:0.0185221 129:0.0281901 130:0.0450195 131:0.0288737 132:0.0235352 133:0.0285807 134:0.0276367 135:0.0193685 136:0.0272461 137:0.0291341 138:0.0389323 139:0.0239583 140:0.0301432 141:0.0273763 142:0.0513997 143:0.027181 144:0.0438151 145:0.0332031 146:0.0303711 147:0.0288737 148:0.0235352 149:0.0461263 150:0.0186198 151:0.0342122 152:0.0238281 153:0.0229818 154:0.0230794 155:0.021224 156:0.020931 157:0.0232096 158:0.0242839 159:0.0167643 160:0.0246094 161:0.0252279 162:0.0380534 163:0.0267253 164:0.0281901 165:0.0701497 166:0.0682943 167:0.0491536 168:0.044043 169:0.034375 170:0.0453451 171:0.0439453 172:0.0357747 173:0.0999349 174:0.0928385 175:0.0972331 176:0.0589193 177:0.0505859 178:0.0642578 179:0.0464844 180:0.0750977 181:0.149935 182:0.093457 183:0.0824544 184:0.107878 185:0.0291992 186:0.0352214 187:0.0402344 188:0.0437826 189:0.0590495 190:0.0468424 191:0.0442383 192:0.0454427 193:0.0268555 194:0.0299805 195:0.0254232 196:0.0217122 197:0.0204753 198:0.0194987 199:0.0139323 200:0.016862 201:0.0239909 202:0.0338542 203:0.0197266 204:0.0442057 205:0.0191732 206:0.0302734 207:0.0206706 208:0.0352214 209:0.055599 210:0.0329102 211:0.0568685 212:0.0301758 213:0.0361979 214:0.0178385 215:0.0305339 216:0.0198568 217:0.022526 218:0.0184896 219:0.025944 220:0.0255208 221:0.0197917 222:0.0163086 223:0.0182617 224:0.0207031 225:0.0138021 226:0.0164062 227:0.0204427 228:0.0321289 229:0.0288086 230:0.0456706 231:0.0301432 232:0.0544596 233:0.0227539 234:0.0348307 235:0.0322591 236:0.0553711 237:0.0656901 238:0.0561198 239:0.0753255 240:0.0575195 241:0.0333008 242:0.0306966 243:0.0501302 244:0.0624023 245:0.0617839 246:0.0713542 247:0.0560547 248:0.100358 249:0.0138346 250:0.0224935 251:0.0355469 252:0.0474284 253:0.0250326 254:0.0330404 255:0.030957 256:0.0429362 
483.0959994089613 1:0.0256836 2:0.0432292 3:0.0271484 4:0.0365885 5:0.030957 6:0.0277995 7:0.022526 8:0.027474 9:0.0869466 10:0.0465169 11:0.071875 12:0.0377604 13:0.0577474 14:0.0351888 15:0.0355143 16:0.0293294 17:0.0485352 18:0.121224 19:0.0544271 20:0.113542 21:0.0444336 22:0.0689779 23:0.0424805 24:0.0584635 25:0.0313151 26:0.0562826 27:0.0326172 28:0.0416341 29:0.029069 30:0.0420573 31:0.0200195 32:0.0294922 33:0.0115234 34:0.0192057 35:0.013444 36:0.0178385 37:0.0140951 38:0.0177409 39:0.0167969 40:0.0159505 41:0.015918 42:0.0193034 43:0.0161133 44:0.0123698 45:0.0257161 46:0.0239258 47:0.0225586 48:0.0160156 49:0.0273437 50:0.0544922 51:0.0297201 52:0.0477214 53:0.0337891 54:0.0472005 55:0.0296224 56:0.0393229 57:0.011849 58:0.0302409 59:0.014681 60:0.0202799 61:0.0233724 62:0.0337891 63:0.0157878 64:0.0167643 65:0.0346354 66:0.0666341 67:0.0392578 68:0.0711914 69:0.0259115 70:0.0354492 71:0.0323893 72:0.0354818 73:0.0829102 74:0.062793 75:0.0636719 76:0.0676758 77:0.0559896 78:0.0352214 79:0.0529948 80:0.0357422 81:0.0756836 82:0.201139 83:0.0936849 84:0.18431 85:0.0442708 86:0.0972656 87:0.0475586 88:0.0830404 89:0.0375977 90:0.064974 91:0.0403971 92:0.0696615 93:0.0252604 94:0.0362956 95:0.0309896 96:0.034668 97:0.00843099 98:0.0166341 99:0.0119141 100:0.0224284 101:0.0168294 102:0.022819 103:0.0219401 104:0.0271159 105:0.0214844 106:0.021875 107:0.0156576 108:0.0215495 109:0.0373372 110:0.0290365 111:0.0365234 112:0.0226888 113:0.025293 114:0.0627279 115:0.0369466 116:0.0790365 117:0.0253581 118:0.0502279 119:0.0288737 120:0.0586263 121:0.0109701 122:0.0303385 123:0.0200846 124:0.035612 125:0.0183919 126:0.0232096 127:0.0299805 128:0.0248372 129:0.028125 130:0.0338867 131:0.024707 132:0.0245443 133:0.0233398 134:0.0176107 135:0.0229492 136:0.0188151 137:0.0174154 138:0.0309245 139:0.0145508 140:0.0170247 141:0.0228516 142:0.034375 143:0.0208333 144:0.0277669 145:0.027474 146:0.0559896 147:0.0259115 148:0.052832 149:0.0252604 150:0.0407552 151:0.0284831 152:0.0516927 153:0.0146159 154:0.0211914 155:0.0139323 156:0.0233073 157:0.0131185 158:0.0256836 159:0.00891927 160:0.024349 161:0.0304036 162:0.0437826 163:0.0380534 164:0.0318359 165:0.0591797 166:0.0512044 167:0.0677083 168:0.0431641 169:0.0361003 170:0.0372396 171:0.043457 172:0.0265625 173:0.0908203 174:0.086263 175:0.124154 176:0.0689128 177:0.0391602 178:0.0932617 179:0.0435547 180:0.103125 181:0.0732422 182:0.100618 183:0.0826172 184:0.130241 185:0.0181641 186:0.0288411 187:0.0284505 188:0.0295573 189:0.0492188 190:0.0464193 191:0.0543945 192:0.0425456 193:0.0195312 194:0.031901 195:0.0180339 196:0.0265951 197:0.0134766 198:0.0183594 199:0.0124023 200:0.0163737 201:0.0151693 202:0.0198242 203:0.0136393 204:0.0197917 205:0.0189453 206:0.0184896 207:0.0217773 208:0.0178385 209:0.0501628 210:0.0711263 211:0.039974 212:0.0683594 213:0.0298828 214:0.0467122 215:0.0244141 216:0.0410807 217:0.0152995 218:0.0208333 219:0.0160482 220:0.0254232 221:0.0157227 222:0.0187174 223:0.0107422 224:0.0195312 225:0.0155273 226:0.0238932 227:0.0234701 228:0.0228841 229:0.0285156 230:0.0367187 231:0.0386393 232:0.0309896 233:0.030306 234:0.0257161 235:0.033138 236:0.0277669 237:0.0668945 238:0.0524089 239:0.0858073 240:0.055957 241:0.0335286 242:0.0788737 243:0.0506185 244:0.0942383 245:0.0431641 246:0.0949219 247:0.0568034 248:0.0967122 249:0.0125 250:0.0216146 251:0.0324544 252:0.0371419 253:0.030957 254:0.0341797 255:0.0437174 256:0.0374023 
1210.422491271886 1:0.0253906 2:0.0384115 3:0.0295573 4:0.0347982 5:0.0241211 6:0.0186523 7:0.0179036 8:0.0187826 9:0.0791992 10:0.0427083 11:0.0661458 12:0.0303385 13:0.0544596 14:0.0265625 15:0.0390625 16:0.021582 17:0.0374349 18:0.157813 19:0.0454427 20:0.136491 21:0.0295573 22:0.0663737 23:0.03125 24:0.0682292 25:0.0300781 26:0.0463216 27:0.0234375 28:0.033138 29:0.0219401 30:0.0346354 31:0.0125977 32:0.022819 33:0.00647786 34:0.0138021 35:0.0106445 36:0.0120768 37:0.0125651 38:0.0125651 39:0.0113281 40:0.0139974 41:0.0135091 42:0.0152669 43:0.0172852 44:0.00891927 45:0.025651 46:0.0214193 47:0.0281576 48:0.0131836 49:0.0173503 50:0.0652344 51:0.025944 52:0.0638346 53:0.0226562 54:0.0474935 55:0.0241211 56:0.0455078 57:0.0111654 58:0.0227539 59:0.00917969 60:0.016276 61:0.0195638 62:0.0253255 63:0.0119141 64:0.0128906 65:0.0346354 66:0.0560547 67:0.0408854 68:0.0569987 69:0.0248698 70:0.0277018 71:0.0264974 72:0.0298503 73:0.100944 74:0.0783854 75:0.0643229 76:0.0599935 77:0.0519531 78:0.0271484 79:0.0532552 80:0.0273763 81:0.0696615 82:0.27015 83:0.0847656 84:0.236491 85:0.0347331 86:0.104199 87:0.0401693 88:0.0907878 89:0.0351888 90:0.059375 91:0.0335937 92:0.0559896 93:0.0243815 94:0.0292969 95:0.0292318 96:0.0289388 97:0.00569661 98:0.0171549 99:0.00992839 100:0.0191732 101:0.012207 102:0.0172526 103:0.0148438 104:0.0206055 105:0.0236654 106:0.0260091 107:0.0159831 108:0.0157227 109:0.0340169 110:0.0287109 111:0.0409831 112:0.0197917 113:0.0212891 114:0.072526 115:0.0349935 116:0.0852214 117:0.016862 118:0.0511719 119:0.0232096 120:0.0492188 121:0.0125651 122:0.0236979 123:0.0140951 124:0.0239258 125:0.0219727 126:0.0220378 127:0.0399414 128:0.0209635 129:0.0250651 130:0.0312174 131:0.0231771 132:0.0193685 133:0.0230794 134:0.0182617 135:0.0223633 136:0.0181966 137:0.0284831 138:0.0259115 139:0.0204753 140:0.0125 141:0.0267904 142:0.0307943 143:0.0276042 144:0.019401 145:0.023763 146:0.0650391 147:0.0222656 148:0.0540039 149:0.0204427 150:0.0408529 151:0.0230794 152:0.0487956 153:0.0180664 154:0.0205729 155:0.0147461 156:0.0216797 157:0.0112305 158:0.0194987 159:0.00947266 160:0.0184896 161:0.0256185 162:0.0378255 163:0.041276 164:0.0335286 165:0.0494141 166:0.0569987 167:0.069987 168:0.0525391 169:0.0390299 170:0.0395833 171:0.0534831 172:0.0255208 173:0.103841 174:0.0967773 175:0.163997 176:0.0809245 177:0.0363607 178:0.0905273 179:0.0565104 180:0.0922526 181:0.0764323 182:0.114876 183:0.113118 184:0.130957 185:0.0147461 186:0.0291667 187:0.0254557 188:0.0305339 189:0.049707 190:0.059375 191:0.0608398 192:0.0563802 193:0.0145833 194:0.0253906 195:0.0153971 196:0.0202799 197:0.0100586 198:0.0152344 199:0.00813802 200:0.0130534 201:0.022168 202:0.0159505 203:0.0183268 204:0.0141927 205:0.0189128 206:0.0118815 207:0.0190755 208:0.0139323 209:0.0364583 210:0.084668 211:0.0388021 212:0.0726888 213:0.0226888 214:0.0567383 215:0.0239583 216:0.0451497 217:0.0120117 218:0.0208333 219:0.0122721 220:0.0208984 221:0.0144857 222:0.0150716 223:0.0107747 224:0.019401 225:0.0141276 226:0.0229492 227:0.0264974 228:0.0232096 229:0.024056 230:0.0336914 231:0.0433919 232:0.0395508 233:0.0292969 234:0.0215169 235:0.0361979 236:0.0226888 237:0.0652344 238:0.0481445 239:0.0951172 240:0.0543945 241:0.0326497 242:0.102441 243:0.0495768 244:0.097526 245:0.0538411 246:0.122852 247:0.0733073 248:0.123796 249:0.0118815 250:0.0227865 251:0.0272135 252:0.0345052 253:0.0399414 254:0.041276 255:0.0537109 256:0.0503255 
139.0905156708377 1:0.0331055 2:0.0573568 3:0.0322266 4:0.0445312 5:0.0256836 6:0.0250977 7:0.0270833 8:0.023112 9:0.0763021 10:0.0583659 11:0.0644206 12:0.0417969 13:0.0382812 14:0.0339518 15:0.0313477 16:0.0253906 17:0.0547526 18:0.166276 19:0.0607422 20:0.156087 21:0.0377604 22:0.0759115 23:0.0361328 24:0.0793945 25:0.035026 26:0.0628906 27:0.0403646 28:0.0482422 29:0.0325846 30:0.0381836 31:0.0193359 32:0.0285807 33:0.00797526 34:0.0161458 35:0.012207 36:0.0147135 37:0.00836589 38:0.0121745 39:0.0121745 40:0.00989583 41:0.0121094 42:0.0152669 43:0.00966797 44:0.0077474 45:0.0154948 46:0.0203776 47:0.0197266 48:0.0112956 49:0.0166992 50:0.0688802 51:0.0197591 52:0.057487 53:0.019401 54:0.049349 55:0.0200846 56:0.0394206 57:0.00878906 58:0.023112 59:0.0107096 60:0.0151693 61:0.015918 62:0.0220052 63:0.0102865 64:0.0115234 65:0.0429688 66:0.084668 67:0.052181 68:0.0692057 69:0.0248047 70:0.0365885 71:0.0354818 72:0.0306641 73:0.0729167 74:0.0928711 75:0.0492513 76:0.0755534 77:0.0479492 78:0.0371094 79:0.0485677 80:0.0352865 81:0.0973958 82:0.325391 83:0.100651 84:0.266374 85:0.0413086 86:0.128027 87:0.043457 88:0.108691 89:0.0429688 90:0.0832682 91:0.0511068 92:0.079069 93:0.0280273 94:0.0358724 95:0.0282552 96:0.0291667 97:0.00660807 98:0.014974 99:0.00875651 100:0.0139323 101:0.0114909 102:0.015625 103:0.0128255 104:0.0140299 105:0.0246094 106:0.0235352 107:0.00957031 108:0.0121745 109:0.0282227 110:0.0277669 111:0.032194 112:0.0169922 113:0.0201172 114:0.0777018 115:0.0282878 116:0.0788086 117:0.0162109 118:0.0573568 119:0.0223307 120:0.055306 121:0.0137695 122:0.0210286 123:0.0158854 124:0.0234701 125:0.0168294 126:0.0163086 127:0.0309245 128:0.0154948 129:0.0256185 130:0.0332357 131:0.0236328 132:0.0173828 133:0.0172526 134:0.0134766 135:0.0191081 136:0.0170898 137:0.0166016 138:0.021875 139:0.00992839 140:0.00872396 141:0.0200521 142:0.0289062 143:0.014681 144:0.0180339 145:0.0175456 146:0.0727865 147:0.0139648 148:0.0541992 149:0.0160807 150:0.0407878 151:0.0185547 152:0.0489909 153:0.00716146 154:0.0171549 155:0.0108073 156:0.0148438 157:0.00979818 158:0.0152344 159:0.00784505 160:0.0155924 161:0.0277669 162:0.0363932 163:0.0394857 164:0.0246419 165:0.0544922 166:0.0472656 167:0.0990234 168:0.0541992 169:0.0320312 170:0.0305664 171:0.0442708 172:0.0168294 173:0.0958008 174:0.0888672 175:0.205176 176:0.090625 177:0.0266927 178:0.0782552 179:0.0385417 180:0.0826497 181:0.0685221 182:0.084375 183:0.108496 184:0.1389 185:0.0127279 186:0.0197266 187:0.0217448 188:0.0185221 189:0.0536458 190:0.0466471 191:0.0865885 192:0.0509115 193:0.0171549 194:0.0268555 195:0.0160156 196:0.0166341 197:0.00996094 198:0.0146159 199:0.00891927 200:0.0109375 201:0.0125977 202:0.0177734 203:0.0106771 204:0.00970052 205:0.0144206 206:0.0139323 207:0.0156576 208:0.0147461 209:0.0354167 210:0.0909831 211:0.0294596 212:0.075 213:0.0189128 214:0.0478516 215:0.01875 216:0.0414063 217:0.00963542 218:0.0179036 219:0.0121745 220:0.0164714 221:0.0130208 222:0.0168294 223:0.0109375 224:0.0155273 225:0.0126302 226:0.0195312 227:0.0228841 228:0.01875 229:0.0297526 230:0.0289714 231:0.0457031 232:0.0360026 233:0.0250326 234:0.0189453 235:0.0315104 236:0.018099 237:0.0747721 238:0.0467122 239:0.105632 240:0.0586589 241:0.0250651 242:0.0719076 243:0.0354167 244:0.0834961 245:0.0402018 246:0.0968099 247:0.0665365 248:0.0953776 249:0.0133138 250:0.0181641 251:0.0261719 252:0.0236328 253:0.0366862 254:0.036556 255:0.0544922 256:0.0378906 
3970.500517325364 1:0.0452148 2:0.0750651 3:0.0434896 4:0.0474609 5:0.025944 6:0.0299479 7:0.0204753 8:0.0172852 9:0.0968424 10:0.0759766 11:0.0869792 12:0.0477539 13:0.055957 14:0.0494141 15:0.0466797 16:0.0282552 17:0.0580078 18:0.170964 19:0.0527344 20:0.13291 21:0.0285156 22:0.0867188 23:0.0248698 24:0.0545898 25:0.0396159 26:0.0634766 27:0.0308919 28:0.0375651 29:0.0266602 30:0.0469401 31:0.0182943 32:0.0205404 33:0.0070638 34:0.015918 35:0.0142253 36:0.00921224 37:0.00973307 38:0.011263 39:0.014681 40:0.0100586 41:0.0151367 42:0.0151042 43:0.0126302 44:0.0111328 45:0.0204753 46:0.0216797 47:0.0182617 48:0.0121419 49:0.0129232 50:0.0470703 51:0.0166992 52:0.0482096 53:0.0216146 54:0.0394531 55:0.0207357 56:0.0357096 57:0.00859375 58:0.0168945 59:0.0128581 60:0.0121094 61:0.0194661 62:0.0346354 63:0.0132161 64:0.0119141 65:0.0533203 66:0.084082 67:0.0646484 68:0.0674805 69:0.0322266 70:0.0292969 71:0.0276367 72:0.0313477 73:0.117611 74:0.107747 75:0.0864583 76:0.0824544 77:0.0591471 78:0.0482747 79:0.0530273 80:0.0429362 81:0.101563 82:0.311458 83:0.120801 84:0.250716 85:0.0425456 86:0.125391 87:0.0468099 88:0.1 89:0.0593424 90:0.098112 91:0.0553711 92:0.0735352 93:0.0373047 94:0.0542969 95:0.0345378 96:0.0357747 97:0.00634766 98:0.00908203 99:0.0129232 100:0.0111979 101:0.0131185 102:0.0139323 103:0.0147786 104:0.021224 105:0.0174154 106:0.013737 107:0.0206055 108:0.0140299 109:0.0253255 110:0.0236654 111:0.0275391 112:0.0202799 113:0.0135091 114:0.0549805 115:0.0260091 116:0.0667643 117:0.0209961 118:0.0373698 119:0.0197591 120:0.0410807 121:0.00865885 122:0.0153971 123:0.0141927 124:0.0182943 125:0.0199219 126:0.0197917 127:0.021875 128:0.0139323 129:0.0179362 130:0.0329753 131:0.0280273 132:0.0201172 133:0.0121419 134:0.0137044 135:0.0181641 136:0.0163086 137:0.0185547 138:0.0183268 139:0.0158203 140:0.0148438 141:0.0195964 142:0.0248047 143:0.0206055 144:0.0239909 145:0.0165039 146:0.052474 147:0.0152344 148:0.0415039 149:0.0160807 150:0.0292318 151:0.0276693 152:0.0385742 153:0.0130208 154:0.013737 155:0.00908203 156:0.0116536 157:0.0106771 158:0.0144531 159:0.00921224 160:0.0139323 161:0.0329102 162:0.050651 163:0.0580729 164:0.0304688 165:0.0426107 166:0.0432943 167:0.0545573 168:0.0352865 169:0.0326497 170:0.0387044 171:0.057487 172:0.0271159 173:0.108854 174:0.0835938 175:0.140592 176:0.0670573 177:0.0336914 178:0.0886719 179:0.0432943 180:0.088151 181:0.0779948 182:0.0978516 183:0.08125 184:0.133301 185:0.0163737 186:0.0219401 187:0.024349 188:0.0240234 189:0.0507487 190:0.0445312 191:0.0464518 192:0.0344727 193:0.0153646 194:0.0169271 195:0.0235677 196:0.0132813 197:0.00973307 198:0.0101563 199:0.0106445 200:0.00992839 201:0.013444 202:0.0139323 203:0.0161458 204:0.0107747 205:0.015918 206:0.0139323 207:0.015625 208:0.0142253 209:0.0291667 210:0.0720703 211:0.0266927 212:0.0586589 213:0.0183268 214:0.0391602 215:0.0170573 216:0.0341797 217:0.0112305 218:0.0131836 219:0.0122396 220:0.0159831 221:0.012793 222:0.0124674 223:0.0121094 224:0.0129232 225:0.0154297 226:0.0194336 227:0.0318685 228:0.0209961 229:0.0233398 230:0.0290039 231:0.0311523 232:0.025651 233:0.0255208 234:0.0262695 235:0.071224 236:0.0269206 237:0.0968099 238:0.0477539 239:0.107552 240:0.0527995 241:0.0279297 242:0.080013 243:0.0421224 244:0.110286 245:0.0450521 246:0.0953125 247:0.0508789 248:0.0969401 249:0.0134766 250:0.0193685 251:0.0295247 252:0.025293 253:0.0342448 254:0.0292318 255:0.044987 256:0.0319661 
7474.013243457747 1:0.0174479 2:0.0370443 3:0.0260417 4:0.0389648 5:0.0270182 6:0.0230143 7:0.030013 8:0.0307943 9:0.069987 10:0.0450846 11:0.0630534 12:0.0388346 13:0.0481445 14:0.0392253 15:0.0269531 16:0.0410156 17:0.0496745 18:0.137435 19:0.0621745 20:0.121159 21:0.0408854 22:0.0709961 23:0.0483724 24:0.0710286 25:0.0289388 26:0.0541016 27:0.0324544 28:0.0407227 29:0.0292318 30:0.0416341 31:0.0214518 32:0.0307292 33:0.00849609 34:0.0166341 35:0.0166341 36:0.0145508 37:0.0177734 38:0.0139974 39:0.0236979 40:0.0130859 41:0.0130859 42:0.0233724 43:0.0192383 44:0.0204102 45:0.025651 46:0.0341471 47:0.0330729 48:0.0263997 49:0.0230469 50:0.0448242 51:0.0299805 52:0.0366211 53:0.0322591 54:0.0300781 55:0.0316732 56:0.0257813 57:0.0157878 58:0.0300781 59:0.0242839 60:0.0198568 61:0.0272461 62:0.0345703 63:0.0228516 64:0.0133138 65:0.0311523 66:0.0651042 67:0.044043 68:0.0622721 69:0.0342773 70:0.0333333 71:0.0397786 72:0.040918 73:0.0691406 74:0.0688802 75:0.0466797 76:0.0743164 77:0.0491536 78:0.0346354 79:0.0412435 80:0.0496419 81:0.0859375 82:0.184538 83:0.107389 84:0.149414 85:0.0461263 86:0.116602 87:0.0499674 88:0.0750977 89:0.031543 90:0.0623047 91:0.0374349 92:0.0622721 93:0.023763 94:0.0315104 95:0.0235677 96:0.0314453 97:0.0114583 98:0.0272461 99:0.0161784 100:0.0230794 101:0.0328451 102:0.0464518 103:0.0335937 104:0.0388346 105:0.0154622 106:0.0287435 107:0.0172852 108:0.0338542 109:0.0250651 110:0.0268229 111:0.0421224 112:0.0340495 113:0.0265299 114:0.070638 115:0.0369466 116:0.0509115 117:0.0330078 118:0.051888 119:0.0300456 120:0.0423503 121:0.0133464 122:0.0322591 123:0.0261719 124:0.0343424 125:0.0173828 126:0.0208333 127:0.0237305 128:0.0156576 129:0.0240885 130:0.0237956 131:0.0187826 132:0.0166992 133:0.0234701 134:0.0189779 135:0.0246745 136:0.0221029 137:0.0232747 138:0.0370117 139:0.0210286 140:0.0222005 141:0.0236654 142:0.0389974 143:0.0210612 144:0.0359701 145:0.0339193 146:0.0495768 147:0.0233073 148:0.0474609 149:0.0332682 150:0.0263346 151:0.0260091 152:0.0344727 153:0.0443034 154:0.0371419 155:0.0280924 156:0.0411133 157:0.0213216 158:0.0216471 159:0.0148438 160:0.0202799 161:0.0215169 162:0.0263997 163:0.0249023 164:0.0201172 165:0.0411133 166:0.0470378 167:0.044694 168:0.0461263 169:0.0371094 170:0.0388672 171:0.0563477 172:0.0258464 173:0.0862305 174:0.0726888 175:0.107324 176:0.059082 177:0.0410156 178:0.0886068 179:0.0463542 180:0.121745 181:0.0908854 182:0.0973307 183:0.0972005 184:0.136947 185:0.0200195 186:0.0302083 187:0.0280924 188:0.0354818 189:0.0393229 190:0.0455078 191:0.0453451 192:0.0450195 193:0.0268229 194:0.0328451 195:0.0171875 196:0.0198568 197:0.0140951 198:0.0203125 199:0.0190104 200:0.0159831 201:0.0186849 202:0.0331706 203:0.0157227 204:0.0261719 205:0.0151693 206:0.0221354 207:0.0189779 208:0.0274414 209:0.0512044 210:0.073763 211:0.0399089 212:0.0443034 213:0.0286784 214:0.035612 215:0.0236328 216:0.0303711 217:0.0214844 218:0.0245117 219:0.0187826 220:0.0275065 221:0.0177409 222:0.0174805 223:0.015332 224:0.0193359 225:0.016862 226:0.0264323 227:0.0182617 228:0.0208984 229:0.0254883 230:0.0441406 231:0.0292643 232:0.0404297 233:0.0264974 234:0.0319661 235:0.0422201 236:0.0253255 237:0.0676758 238:0.0396484 239:0.0791667 240:0.0443034 241:0.0330078 242:0.0670573 243:0.0378255 244:0.0732747 245:0.0509766 246:0.126628 247:0.0503255 248:0.148437 249:0.0144206 250:0.0254883 251:0.0248698 252:0.0362956 253:0.0229167 254:0.027181 255:0.0236979 256:0.0336589 
734.6339052464671 1:0.0188151 2:0.0252604 3:0.0236003 4:0.0349284 5:0.0246094 6:0.0202799 7:0.0267904 8:0.0251953 9:0.0806641 10:0.0417643 11:0.0718424 12:0.0411458 13:0.055957 14:0.031543 15:0.03125 16:0.0348958 17:0.0363281 18:0.125911 19:0.0501628 20:0.112435 21:0.0382812 22:0.0844076 23:0.0446289 24:0.0682292 25:0.0342448 26:0.0424479 27:0.0306315 28:0.0325521 29:0.0262044 30:0.0308919 31:0.0210286 32:0.0262044 33:0.00716146 34:0.0128906 35:0.0141927 36:0.0176758 37:0.0188477 38:0.0164062 39:0.0198568 40:0.0150391 41:0.0132487 42:0.0243164 43:0.0166016 44:0.0167969 45:0.0275716 46:0.029362 47:0.0306641 48:0.022526 49:0.0254232 50:0.0507487 51:0.0313151 52:0.0418945 53:0.0345052 54:0.0353841 55:0.026237 56:0.0297526 57:0.0159505 58:0.0341471 59:0.0176107 60:0.0182617 61:0.0232747 62:0.027474 63:0.0218424 64:0.0164714 65:0.0289062 66:0.0487305 67:0.0362956 68:0.0488281 69:0.0461914 70:0.0348633 71:0.0354818 72:0.0332031 73:0.0803385 74:0.0646484 75:0.0502279 76:0.0717448 77:0.0612305 78:0.0329753 79:0.047819 80:0.0463542 81:0.0566406 82:0.169303 83:0.0790039 84:0.133073 85:0.0402995 86:0.113053 87:0.0441081 88:0.0854492 89:0.03125 90:0.0489583 91:0.0360352 92:0.0457682 93:0.0209961 94:0.0305339 95:0.0207682 96:0.0285807 97:0.0119466 98:0.0228841 99:0.0162109 100:0.0163737 101:0.0420247 102:0.0527344 103:0.038737 104:0.0436523 105:0.0182617 106:0.0318034 107:0.0184245 108:0.0264323 109:0.0296549 110:0.0266276 111:0.046582 112:0.0325195 113:0.0301432 114:0.0742187 115:0.028776 116:0.059668 117:0.0255859 118:0.0482422 119:0.0249023 120:0.0492188 121:0.0164062 122:0.035026 123:0.0214844 124:0.0283529 125:0.0171224 126:0.0194987 127:0.0233398 128:0.0201172 129:0.0218099 130:0.0220378 131:0.0174154 132:0.0152669 133:0.0231771 134:0.0154622 135:0.0222982 136:0.0227865 137:0.0279622 138:0.030599 139:0.0304362 140:0.0244141 141:0.0219076 142:0.0272786 143:0.0224935 144:0.0313477 145:0.0328125 146:0.0533529 147:0.0259115 148:0.0435547 149:0.0281901 150:0.0291016 151:0.0287109 152:0.0319336 153:0.048763 154:0.0433919 155:0.0321289 156:0.0427409 157:0.0213542 158:0.0179362 159:0.0155273 160:0.01875 161:0.0246745 162:0.028418 163:0.0278971 164:0.0245443 165:0.0468099 166:0.0473307 167:0.0536784 168:0.0450195 169:0.0463216 170:0.032487 171:0.073112 172:0.0255534 173:0.0886393 174:0.0652344 175:0.112956 176:0.059668 177:0.0417643 178:0.0817383 179:0.0457682 180:0.117871 181:0.0924154 182:0.110807 183:0.097168 184:0.174967 185:0.0251953 186:0.0351237 187:0.0307292 188:0.0548177 189:0.0441406 190:0.0423177 191:0.0572591 192:0.0487305 193:0.0231771 194:0.0323893 195:0.0166992 196:0.0206706 197:0.0166341 198:0.0220703 199:0.0145833 200:0.0170573 201:0.021582 202:0.0318034 203:0.0186198 204:0.0254883 205:0.014974 206:0.023112 207:0.0182617 208:0.0220703 209:0.0467122 210:0.077181 211:0.0331055 212:0.0525065 213:0.0273437 214:0.0422852 215:0.0220052 216:0.0355143 217:0.0166016 218:0.0228841 219:0.0171224 220:0.0243164 221:0.0136068 222:0.0166667 223:0.0138346 224:0.0166341 225:0.0146159 226:0.0271159 227:0.0176432 228:0.0250977 229:0.0279297 230:0.0486979 231:0.0359049 232:0.0533854 233:0.0254557 234:0.0299479 235:0.0513346 236:0.0261719 237:0.0859375 238:0.0362956 239:0.0852865 240:0.0418945 241:0.0285156 242:0.0626953 243:0.0332357 244:0.0975911 245:0.0501628 246:0.135319 247:0.0534831 248:0.174251 249:0.0145508 250:0.0257487 251:0.0239909 252:0.0379232 253:0.0263997 254:0.0280273 255:0.0301107 256:0.0385417 
92.8508048987282 1:0.020638 2:0.0663737 3:0.0187174 4:0.0495443 5:0.0169271 6:0.0213542 7:0.00976562 8:0.0212891 9:0.091569 10:0.0460612 11:0.0915365 12:0.0355794 13:0.0412435 14:0.0206706 15:0.0203125 16:0.0171224 17:0.0768229 18:0.211816 19:0.0666016 20:0.168294 21:0.0405273 22:0.108464 23:0.0368164 24:0.075651 25:0.034668 26:0.0758789 27:0.0307943 28:0.0556641 29:0.0205729 30:0.0367839 31:0.0101237 32:0.021582 33:0.00729167 34:0.0152995 35:0.0138997 36:0.0172852 37:0.0104167 38:0.0116536 39:0.00957031 40:0.0127279 41:0.00585937 42:0.0152995 43:0.0126628 44:0.0139974 45:0.012793 46:0.0151693 47:0.0195964 48:0.0110026 49:0.0205404 50:0.0515625 51:0.027181 52:0.0501953 53:0.0286784 54:0.0478841 55:0.0226562 56:0.0322591 57:0.00865885 58:0.0220378 59:0.0172201 60:0.0159505 61:0.0162109 62:0.0771484 63:0.0123047 64:0.0132487 65:0.0306315 66:0.100488 67:0.0310872 68:0.0872396 69:0.023763 70:0.0360026 71:0.0233073 72:0.0335286 73:0.0718424 74:0.0798503 75:0.0527344 76:0.0708333 77:0.0572266 78:0.0298503 79:0.0526367 80:0.0283854 81:0.119434 82:0.364095 83:0.11849 84:0.287077 85:0.0453776 86:0.146517 87:0.049349 88:0.117773 89:0.0394857 90:0.116569 91:0.0272461 92:0.0954753 93:0.0185872 94:0.0379232 95:0.0204102 96:0.0311523 97:0.00442708 98:0.0124349 99:0.00901693 100:0.0186198 101:0.0185872 102:0.0309896 103:0.0150716 104:0.0430664 105:0.00804036 106:0.0103841 107:0.00957031 108:0.0132813 109:0.0205404 110:0.0143555 111:0.022526 112:0.0170247 113:0.0180664 114:0.0616862 115:0.0302734 116:0.0649089 117:0.0201497 118:0.0681315 119:0.024707 120:0.0537435 121:0.00602214 122:0.0213216 123:0.0124349 124:0.0225586 125:0.0141602 126:0.019401 127:0.0189128 128:0.019694 129:0.0140299 130:0.0263997 131:0.0209635 132:0.017806 133:0.0111003 134:0.0113932 135:0.0149414 136:0.0181315 137:0.0131836 138:0.0178385 139:0.013737 140:0.0100911 141:0.014974 142:0.0218099 143:0.0141927 144:0.0189128 145:0.0296224 146:0.0745443 147:0.0235352 148:0.0652669 149:0.0254557 150:0.0423503 151:0.0294271 152:0.0454753 153:0.0210612 154:0.0234049 155:0.0173503 156:0.030013 157:0.0110352 158:0.0207031 159:0.00722656 160:0.0160482 161:0.0233073 162:0.0316406 163:0.0396159 164:0.0279622 165:0.0326823 166:0.0336914 167:0.037793 168:0.0320312 169:0.0464193 170:0.0330078 171:0.074707 172:0.0234049 173:0.0905599 174:0.0629557 175:0.128841 176:0.0474609 177:0.0407227 178:0.103906 179:0.0433919 180:0.111947 181:0.0678711 182:0.103223 183:0.0798828 184:0.138672 185:0.0123698 186:0.0309245 187:0.0204427 188:0.024056 189:0.0268229 190:0.0373698 191:0.041862 192:0.0344401 193:0.010026 194:0.0214518 195:0.0149089 196:0.0193034 197:0.0103841 198:0.0157878 199:0.0118164 200:0.0135417 201:0.00768229 202:0.017513 203:0.00891927 204:0.0138021 205:0.0116211 206:0.0136393 207:0.0140625 208:0.0133789 209:0.0332682 210:0.0759766 211:0.0276042 212:0.0663737 213:0.0239583 214:0.0492839 215:0.023763 216:0.0399414 217:0.00680339 218:0.0182617 219:0.0108398 220:0.0187174 221:0.0107422 222:0.0163737 223:0.00999349 224:0.0142253 225:0.013151 226:0.0179362 227:0.0238281 228:0.0210286 229:0.0213542 230:0.0339844 231:0.0226562 232:0.0346029 233:0.0302734 234:0.0243815 235:0.0641602 236:0.0222331 237:0.0985026 238:0.0401042 239:0.11237 240:0.044987 241:0.0300781 242:0.0748372 243:0.0322266 244:0.0927734 245:0.0452474 246:0.128809 247:0.0453125 248:0.108529 249:0.0133138 250:0.0218424 251:0.0206055 252:0.0264648 253:0.0256185 254:0.034082 255:0.0360352 256:0.032194 
1685.042374595223 1:0.0220703 2:0.0361979 3:0.027832 4:0.0318034 5:0.0245117 6:0.0229492 7:0.0303385 8:0.0239258 9:0.0735352 10:0.0476888 11:0.0927734 12:0.037793 13:0.0522786 14:0.0320638 15:0.0389648 16:0.0333659 17:0.0472656 18:0.119889 19:0.0510417 20:0.116699 21:0.0365234 22:0.0618164 23:0.0477539 24:0.0629883 25:0.0266927 26:0.0504883 27:0.0244792 28:0.0340495 29:0.0247396 30:0.0333659 31:0.0239583 32:0.0293945 33:0.00703125 34:0.0181641 35:0.0127279 36:0.0146484 37:0.0156901 38:0.0149414 39:0.020931 40:0.0158854 41:0.0172526 42:0.0222656 43:0.0201172 44:0.0161784 45:0.0274089 46:0.0282552 47:0.0379883 48:0.0249023 49:0.0227214 50:0.0541016 51:0.0343424 52:0.0514974 53:0.0394857 54:0.038444 55:0.0410807 56:0.0439128 57:0.0153646 58:0.0347005 59:0.0223633 60:0.0217773 61:0.0297526 62:0.0430339 63:0.0244141 64:0.0181966 65:0.0293945 66:0.0666016 67:0.0422526 68:0.0574544 69:0.029362 70:0.030599 71:0.0344401 72:0.0370768 73:0.0760417 74:0.0795247 75:0.0588542 76:0.0556315 77:0.0547526 78:0.0334961 79:0.0489258 80:0.0383138 81:0.0781576 82:0.239681 83:0.113867 84:0.18125 85:0.0419271 86:0.0885091 87:0.0443685 88:0.0723307 89:0.0347982 90:0.0730469 91:0.0344401 92:0.0590169 93:0.0239583 94:0.0333984 95:0.0323893 96:0.0314779 97:0.00865885 98:0.0205078 99:0.0132161 100:0.0265625 101:0.0173177 102:0.0242839 103:0.0290039 104:0.0328125 105:0.0169922 106:0.0231771 107:0.0188151 108:0.0269531 109:0.0258789 110:0.0245117 111:0.0406576 112:0.0335937 113:0.0231445 114:0.0644531 115:0.0397786 116:0.0610026 117:0.0270833 118:0.046224 119:0.0375651 120:0.041276 121:0.0130534 122:0.0312174 123:0.0206055 124:0.0296224 125:0.0189453 126:0.0202148 127:0.0311523 128:0.0205729 129:0.0231771 130:0.0317383 131:0.0254557 132:0.0233398 133:0.0236328 134:0.0255859 135:0.0235026 136:0.0303385 137:0.0225586 138:0.0316732 139:0.0222982 140:0.0243164 141:0.0237956 142:0.0349284 143:0.022819 144:0.0368815 145:0.0270182 146:0.0422526 147:0.0290039 148:0.0383789 149:0.0371094 150:0.034668 151:0.0421875 152:0.0459961 153:0.0206706 154:0.0223958 155:0.0164062 156:0.0229167 157:0.0208984 158:0.0236328 159:0.0180664 160:0.0279622 161:0.0240885 162:0.0361328 163:0.0287435 164:0.0197266 165:0.0530599 166:0.0493164 167:0.0479167 168:0.0386393 169:0.0364909 170:0.0517253 171:0.048112 172:0.030013 173:0.0689453 174:0.0953776 175:0.0921549 176:0.0645508 177:0.0416341 178:0.0851888 179:0.0480794 180:0.0713216 181:0.0868815 182:0.0869141 183:0.0808919 184:0.104753 185:0.0250651 186:0.0387044 187:0.0312826 188:0.030957 189:0.039974 190:0.0491862 191:0.042513 192:0.0397786 193:0.0188802 194:0.0343099 195:0.0223633 196:0.022526 197:0.0141927 198:0.0205078 199:0.0177409 200:0.0226562 201:0.0189779 202:0.0327474 203:0.0202799 204:0.026237 205:0.021224 206:0.0222331 207:0.0177083 208:0.0246419 209:0.0500977 210:0.0683594 211:0.0466797 212:0.0554687 213:0.031901 214:0.0477539 215:0.0286133 216:0.0505859 217:0.0184896 218:0.0238281 219:0.016276 220:0.0263672 221:0.0165365 222:0.0157878 223:0.0154622 224:0.0203776 225:0.0176432 226:0.0340495 227:0.0226562 228:0.0274414 229:0.0277995 230:0.0416341 231:0.0322591 232:0.0397135 233:0.0283203 234:0.0458659 235:0.0283203 236:0.0326823 237:0.0474609 238:0.0518229 239:0.0544596 240:0.0517578 241:0.0403646 242:0.0900716 243:0.0578776 244:0.0783529 245:0.0482747 246:0.0982096 247:0.0517578 248:0.087207 249:0.0173503 250:0.0381836 251:0.0325846 252:0.0434896 253:0.024056 254:0.0341797 255:0.031901 256:0.0357096 
2778.552610766984 1:0.0289388 2:0.0435547 3:0.0307617 4:0.0284831 5:0.0201823 6:0.0174154 7:0.0175781 8:0.0150716 9:0.0711589 10:0.0508789 11:0.086556 12:0.0346354 13:0.0464844 14:0.0297526 15:0.0370443 16:0.0216146 17:0.0363281 18:0.213021 19:0.0421224 20:0.162012 21:0.0233724 22:0.0811198 23:0.0289714 24:0.0540039 25:0.0220703 26:0.0451497 27:0.0249349 28:0.0280924 29:0.0182617 30:0.0320964 31:0.016276 32:0.016569 33:0.0093099 34:0.014974 35:0.0116211 36:0.0112956 37:0.0179362 38:0.0143555 39:0.0160807 40:0.0111328 41:0.0157552 42:0.0185872 43:0.0203776 44:0.0148763 45:0.0309245 46:0.0306641 47:0.0297852 48:0.0224609 49:0.0187174 50:0.050944 51:0.0269531 52:0.0414388 53:0.0319661 54:0.0482422 55:0.0267904 56:0.0348633 57:0.0125977 58:0.0242187 59:0.0175781 60:0.0165365 61:0.0262044 62:0.0227214 63:0.0177083 64:0.0152018 65:0.0357096 66:0.0787109 67:0.0406901 68:0.0561523 69:0.0188802 70:0.0223958 71:0.0208008 72:0.0235352 73:0.118717 74:0.109635 75:0.0737305 76:0.0606771 77:0.0589193 78:0.0307617 79:0.05 80:0.0259115 81:0.0843424 82:0.527181 83:0.0797852 84:0.314909 85:0.028418 86:0.126302 87:0.0383464 88:0.0948893 89:0.0398763 90:0.102734 91:0.0447917 92:0.0583008 93:0.0230794 94:0.0454102 95:0.0380859 96:0.0269531 97:0.00748698 98:0.0112305 99:0.0149089 100:0.0207682 101:0.0150065 102:0.0189128 103:0.0224935 104:0.0245117 105:0.0170573 106:0.0157227 107:0.021875 108:0.0169271 109:0.0383138 110:0.0269857 111:0.0440755 112:0.027181 113:0.018099 114:0.0585286 115:0.0288411 116:0.0551432 117:0.0202148 118:0.0435547 119:0.0261719 120:0.0439779 121:0.00960286 122:0.0228516 123:0.0169271 124:0.0235026 125:0.0204753 126:0.0189453 127:0.028418 128:0.0180664 129:0.0236328 130:0.0428711 131:0.0361328 132:0.0221029 133:0.0254883 134:0.0181315 135:0.0272135 136:0.0230469 137:0.0238607 138:0.0267904 139:0.0240885 140:0.0172201 141:0.0272786 142:0.0342122 143:0.0277995 144:0.0291341 145:0.0229167 146:0.0504232 147:0.0198568 148:0.0397461 149:0.0266927 150:0.0314453 151:0.0425781 152:0.0534831 153:0.00960286 154:0.0142578 155:0.00940755 156:0.0132161 157:0.0148438 158:0.0154297 159:0.0147786 160:0.0200521 161:0.0256836 162:0.0492188 163:0.0386068 164:0.0257813 165:0.0348307 166:0.0431966 167:0.0388346 168:0.0352214 169:0.0353516 170:0.0401693 171:0.0493815 172:0.0277344 173:0.0889648 174:0.0730143 175:0.0905273 176:0.0512044 177:0.041276 178:0.0847656 179:0.0441081 180:0.0807617 181:0.0594727 182:0.0938477 183:0.0808919 184:0.143587 185:0.0192708 186:0.0322917 187:0.0206706 188:0.0255859 189:0.0340495 190:0.0435547 191:0.0373372 192:0.0369141 193:0.0153646 194:0.0211589 195:0.0233073 196:0.0223958 197:0.0120768 198:0.0167643 199:0.0145182 200:0.0177083 201:0.019401 202:0.0224284 203:0.024707 204:0.019987 205:0.025293 206:0.0184896 207:0.0237956 208:0.0196289 209:0.0347982 210:0.0721029 211:0.0342122 212:0.0504883 213:0.0213867 214:0.0372396 215:0.0254232 216:0.0386393 217:0.0102865 218:0.0168945 219:0.0152995 220:0.0189128 221:0.0131836 222:0.0132813 223:0.0147135 224:0.0166992 225:0.0154622 226:0.0213542 227:0.0320638 228:0.0196289 229:0.0219401 230:0.0317708 231:0.0277344 232:0.0232422 233:0.0254883 234:0.0222005 235:0.058431 236:0.0247721 237:0.110221 238:0.0457682 239:0.0985677 240:0.0412435 241:0.0341146 242:0.0743164 243:0.0465169 244:0.0795247 245:0.0426758 246:0.0904948 247:0.0473633 248:0.0940104 249:0.0149414 250:0.0239909 251:0.0227865 252:0.0364583 253:0.0279297 254:0.032194 255:0.0327799 256:0.0328451 
462.7027574481535 1:0.0412435 2:0.0455078 3:0.0275716 4:0.0380859 5:0.0332682 6:0.0211589 7:0.0215495 8:0.0219076 9:0.0664714 10:0.0319336 11:0.0738932 12:0.0325195 13:0.0730794 14:0.0234701 15:0.0298177 16:0.0222005 17:0.0388346 18:0.15306 19:0.0433268 20:0.139323 21:0.0248698 22:0.0722005 23:0.0278971 24:0.0583008 25:0.0251953 26:0.0556315 27:0.0261719 28:0.0375 29:0.0237956 30:0.0296875 31:0.0175456 32:0.0206706 33:0.0102865 34:0.0137695 35:0.0155599 36:0.0129557 37:0.0167318 38:0.00999349 39:0.0159505 40:0.0102865 41:0.0202148 42:0.0208984 43:0.0237305 44:0.0169596 45:0.0359049 46:0.0250977 47:0.0363281 48:0.020931 49:0.0164062 50:0.0467448 51:0.0226237 52:0.0450195 53:0.028125 54:0.0401693 55:0.0252604 56:0.0301758 57:0.0139974 58:0.0239583 59:0.0222005 60:0.0170898 61:0.0250326 62:0.0507487 63:0.0219076 64:0.015332 65:0.0329427 66:0.0665365 67:0.0365234 68:0.0571615 69:0.0428385 70:0.0302734 71:0.0288737 72:0.0351563 73:0.0554362 74:0.0484375 75:0.0472656 76:0.0535482 77:0.0469727 78:0.0307292 79:0.0467448 80:0.0283854 81:0.0727539 82:0.300651 83:0.0779948 84:0.237077 85:0.0346029 86:0.11224 87:0.0344727 88:0.0884766 89:0.032194 90:0.0768555 91:0.0310221 92:0.0607747 93:0.0267253 94:0.0336263 95:0.0251953 96:0.029069 97:0.00852865 98:0.0149089 99:0.011849 100:0.0172201 101:0.021224 102:0.0222331 103:0.0244141 104:0.0488932 105:0.0270508 106:0.0220052 107:0.0234049 108:0.0197266 109:0.0368815 110:0.0233073 111:0.0482096 112:0.0277995 113:0.0168294 114:0.0634766 115:0.0216471 116:0.0669271 117:0.019694 118:0.0522461 119:0.0241211 120:0.0511393 121:0.0146484 122:0.0229818 123:0.0192057 124:0.0274089 125:0.0195964 126:0.0170898 127:0.0283529 128:0.0152995 129:0.0238281 130:0.0251628 131:0.0279622 132:0.0198242 133:0.0249349 134:0.0186198 135:0.0286784 136:0.0237956 137:0.0391602 138:0.0247396 139:0.0295898 140:0.0181966 141:0.0362956 142:0.0318685 143:0.0277344 144:0.0275391 145:0.0250977 146:0.0551432 147:0.0214844 148:0.0457031 149:0.0294596 150:0.0364909 151:0.0316732 152:0.0445312 153:0.0173503 154:0.019043 155:0.0191081 156:0.0205404 157:0.0168294 158:0.0157878 159:0.0145833 160:0.0191732 161:0.0305013 162:0.0344401 163:0.0353841 164:0.0241862 165:0.0440104 166:0.0422526 167:0.0474935 168:0.0386393 169:0.0406901 170:0.0420247 171:0.0572591 172:0.0300456 173:0.0897461 174:0.0925781 175:0.115592 176:0.0726237 177:0.0505534 178:0.0977865 179:0.0443359 180:0.117969 181:0.087793 182:0.106185 183:0.0811523 184:0.109961 185:0.0232747 186:0.0374674 187:0.0329753 188:0.0368164 189:0.0459961 190:0.0456706 191:0.0497721 192:0.0404948 193:0.0143229 194:0.0207357 195:0.0201172 196:0.0179036 197:0.0157878 198:0.0150716 199:0.0197266 200:0.0170247 201:0.0191081 202:0.0200846 203:0.0253581 204:0.0208008 205:0.0271484 206:0.0208659 207:0.0263672 208:0.0223958 209:0.0321289 210:0.0718099 211:0.0286458 212:0.0604492 213:0.0193359 214:0.0354167 215:0.0213542 216:0.0391602 217:0.0131836 218:0.0164714 219:0.0194987 220:0.0217122 221:0.0142253 222:0.0167643 223:0.0158203 224:0.0190104 225:0.021582 226:0.0260091 227:0.0253255 228:0.0248372 229:0.0297201 230:0.0371419 231:0.0394206 232:0.0401367 233:0.028418 234:0.0375 235:0.0525065 236:0.0342773 237:0.0726237 238:0.0517578 239:0.0862305 240:0.0552083 241:0.0328776 242:0.0761068 243:0.039974 244:0.154915 245:0.0513997 246:0.0972656 247:0.052474 248:0.117741 249:0.0187826 250:0.0270833 251:0.0292643 252:0.0381836 253:0.0359701 254:0.030013 255:0.0376302 256:0.036263 
1006.82687513717 1:0.0299479 2:0.048763 3:0.0332357 4:0.0393555 5:0.0367187 6:0.0233073 7:0.0153971 8:0.0157552 9:0.0834961 10:0.0555013 11:0.0948568 12:0.043457 13:0.0832031 14:0.0344401 15:0.0341146 16:0.0208333 17:0.0605469 18:0.182161 19:0.0543945 20:0.138932 21:0.0345378 22:0.0663737 23:0.0174805 24:0.0516927 25:0.034082 26:0.0622396 27:0.0307943 28:0.0438151 29:0.0260742 30:0.033138 31:0.0121745 32:0.014974 33:0.00865885 34:0.0118815 35:0.011556 36:0.0110677 37:0.0193685 38:0.011263 39:0.0117187 40:0.0106445 41:0.0135091 42:0.0136393 43:0.0156576 44:0.0128906 45:0.0272461 46:0.0208659 47:0.029362 48:0.0147461 49:0.0141276 50:0.0416341 51:0.015332 52:0.0357747 53:0.0200195 54:0.0344727 55:0.016862 56:0.0354818 57:0.0108724 58:0.021224 59:0.0114909 60:0.0130208 61:0.0216146 62:0.0166667 63:0.0161784 64:0.0108073 65:0.0445638 66:0.0845052 67:0.0492188 68:0.0689779 69:0.0352214 70:0.0352214 71:0.0308919 72:0.0454102 73:0.0818359 74:0.0877279 75:0.0650716 76:0.0729492 77:0.0648763 78:0.0397461 79:0.053125 80:0.0369466 81:0.0882487 82:0.312923 83:0.0945964 84:0.248405 85:0.0366862 86:0.0994792 87:0.0284505 88:0.0802734 89:0.0423503 90:0.097526 91:0.046224 92:0.0737956 93:0.0316081 94:0.0420898 95:0.0371419 96:0.0222656 97:0.00732422 98:0.0112305 99:0.0112305 100:0.0148112 101:0.0251302 102:0.0332031 103:0.0186523 104:0.0460286 105:0.0172201 106:0.0106771 107:0.0214193 108:0.014388 109:0.0367839 110:0.0263346 111:0.0397786 112:0.0238281 113:0.0123698 114:0.0542318 115:0.0231771 116:0.0654622 117:0.0153646 118:0.052474 119:0.018099 120:0.0689779 121:0.00833333 122:0.0118815 123:0.0154297 124:0.021582 125:0.0235026 126:0.0195964 127:0.0313151 128:0.0151042 129:0.0211263 130:0.0211263 131:0.027474 132:0.0145508 133:0.0223307 134:0.0175456 135:0.0200521 136:0.0167969 137:0.0326823 138:0.0264648 139:0.0268555 140:0.0238607 141:0.0280924 142:0.0257813 143:0.0212891 144:0.0192708 145:0.0255534 146:0.0838867 147:0.017513 148:0.0602865 149:0.015918 150:0.0311523 151:0.027181 152:0.0457682 153:0.0288411 154:0.0291992 155:0.0227539 156:0.0290039 157:0.0154622 158:0.00992839 159:0.0112956 160:0.0150391 161:0.0232747 162:0.0302409 163:0.0316732 164:0.0233073 165:0.0497721 166:0.0458333 167:0.0557943 168:0.0417969 169:0.0309896 170:0.0430013 171:0.0435221 172:0.0266276 173:0.0772786 174:0.074349 175:0.111198 176:0.0690755 177:0.0316081 178:0.111296 179:0.0387695 180:0.140527 181:0.0673828 182:0.111523 183:0.0907878 184:0.174121 185:0.0236328 186:0.0307943 187:0.0301758 188:0.0331055 189:0.0458333 190:0.0486003 191:0.0520508 192:0.050944 193:0.0132487 194:0.0130208 195:0.0200195 196:0.0134115 197:0.0110352 198:0.00901693 199:0.0111654 200:0.00917969 201:0.0188477 202:0.0132161 203:0.0195312 204:0.0152018 205:0.0226237 206:0.010026 207:0.0220052 208:0.0134115 209:0.0171549 210:0.0705404 211:0.0226562 212:0.0661784 213:0.0147786 214:0.0296224 215:0.0114583 216:0.0284831 217:0.00996094 218:0.0130859 219:0.0129883 220:0.0157878 221:0.0121419 222:0.0102539 223:0.0118815 224:0.0132813 225:0.017513 226:0.0193359 227:0.0236003 228:0.0205404 229:0.0293945 230:0.0353516 231:0.0315755 232:0.0301432 233:0.0283854 234:0.025944 235:0.0358724 236:0.0269857 237:0.0594076 238:0.0532878 239:0.0728516 240:0.0523438 241:0.0286133 242:0.0906901 243:0.0444987 244:0.171973 245:0.044987 246:0.125358 247:0.0570312 248:0.132747 249:0.014974 250:0.0207682 251:0.0261393 252:0.0284831 253:0.0302083 254:0.027181 255:0.0392578 256:0.0376302 
340.3785134497227 1:0.0209635 2:0.0279948 3:0.0255859 4:0.0302734 5:0.0297526 6:0.0154948 7:0.0231445 8:0.0221354 9:0.0708984 10:0.0451823 11:0.0733073 12:0.0390951 13:0.0404948 14:0.0337565 15:0.0398112 16:0.0341471 17:0.0290039 18:0.12015 19:0.0423177 20:0.106478 21:0.0419596 22:0.0582031 23:0.0348307 24:0.050293 25:0.026888 26:0.0387044 27:0.0196289 28:0.0286133 29:0.0355469 30:0.0301432 31:0.0150065 32:0.0230143 33:0.00546875 34:0.0135091 35:0.0132487 36:0.00966797 37:0.0161784 38:0.0151042 39:0.0173177 40:0.00989583 41:0.0146159 42:0.0187174 43:0.0166016 44:0.0133789 45:0.0269206 46:0.0297201 47:0.0341797 48:0.0208984 49:0.0180664 50:0.0435221 51:0.0260091 52:0.0356445 53:0.0388021 54:0.0310872 55:0.0269531 56:0.03125 57:0.0125326 58:0.0221354 59:0.0139323 60:0.0130208 61:0.0261719 62:0.025 63:0.0167318 64:0.0127279 65:0.0341146 66:0.0442383 67:0.0441081 68:0.0557943 69:0.0282552 70:0.0259766 71:0.0329102 72:0.0329427 73:0.0916667 74:0.0697266 75:0.0617188 76:0.0742839 77:0.0473307 78:0.027181 79:0.0450846 80:0.0415039 81:0.0577799 82:0.179622 83:0.0971029 84:0.166862 85:0.0367187 86:0.102865 87:0.0470052 88:0.076888 89:0.0305339 90:0.0408203 91:0.0311849 92:0.0556966 93:0.0222982 94:0.0216146 95:0.0228516 96:0.0255208 97:0.00735677 98:0.0182292 99:0.0124023 100:0.0193034 101:0.0204427 102:0.0313477 103:0.0231445 104:0.0329427 105:0.0245768 106:0.0357096 107:0.0180664 108:0.0312174 109:0.0426432 110:0.0322917 111:0.0504232 112:0.0291341 113:0.022168 114:0.0627604 115:0.0415039 116:0.0620117 117:0.0239258 118:0.0538411 119:0.0277018 120:0.0572266 121:0.0154622 122:0.0379883 123:0.0230469 124:0.0365234 125:0.0157227 126:0.0183268 127:0.0319661 128:0.0186198 129:0.027832 130:0.0266602 131:0.0244466 132:0.0195964 133:0.0241211 134:0.0222982 135:0.0180664 136:0.0211263 137:0.0309896 138:0.0410482 139:0.0236003 140:0.0199544 141:0.0295898 142:0.0391927 143:0.030306 144:0.0333008 145:0.0310221 146:0.0583008 147:0.0274414 148:0.0457682 149:0.0300456 150:0.0309896 151:0.0236979 152:0.0347656 153:0.0245768 154:0.0216797 155:0.0179362 156:0.0239583 157:0.0169596 158:0.0178711 159:0.00999349 160:0.0198242 161:0.0155599 162:0.0375977 163:0.0233398 164:0.018457 165:0.0414714 166:0.0541992 167:0.0475911 168:0.0549805 169:0.0279622 170:0.0361654 171:0.0367187 172:0.0170247 173:0.058724 174:0.0815104 175:0.0643229 176:0.055013 177:0.0380534 178:0.129134 179:0.0467448 180:0.167871 181:0.102148 182:0.214583 183:0.137988 184:0.316146 185:0.0183268 186:0.026237 187:0.0255859 188:0.0279948 189:0.0373047 190:0.055013 191:0.0458659 192:0.0624023 193:0.0222656 194:0.0282878 195:0.0164388 196:0.0193359 197:0.0119792 198:0.0124674 199:0.00797526 200:0.011849 201:0.0197266 202:0.0311523 203:0.0113932 204:0.0237956 205:0.0187174 206:0.0163086 207:0.0123047 208:0.0194336 209:0.0497721 210:0.0675456 211:0.0471029 212:0.0572266 213:0.0242513 214:0.0360026 215:0.0163411 216:0.029362 217:0.0205404 218:0.0200846 219:0.0183594 220:0.0257161 221:0.0136393 222:0.0138346 223:0.0110026 224:0.0166992 225:0.00836589 226:0.0210938 227:0.0152995 228:0.0224935 229:0.0195312 230:0.0392578 231:0.0270182 232:0.0413411 233:0.0197591 234:0.0200195 235:0.0261719 236:0.0202799 237:0.0652344 238:0.0417969 239:0.0628581 240:0.0381185 241:0.0303711 242:0.124577 243:0.0401693 244:0.149609 245:0.0523438 246:0.17194 247:0.0671224 248:0.242773 249:0.0093099 250:0.0208008 251:0.021582 252:0.0336263 253:0.0161784 254:0.0292643 255:0.0302734 256:0.0394531 
1217.820350236957 1:0.0721354 2:0.0229492 3:0.0243815 4:0.0241862 5:0.0266276 6:0.0148438 7:0.0217122 8:0.0140625 9:0.130729 10:0.0554362 11:0.115983 12:0.0503906 13:0.0619466 14:0.024349 15:0.0396159 16:0.0292643 17:0.0327474 18:0.101986 19:0.0381836 20:0.0934896 21:0.0265299 22:0.0444987 23:0.0222656 24:0.0347005 25:0.0413737 26:0.0427409 27:0.0367513 28:0.0312826 29:0.0310872 30:0.0211263 31:0.012207 32:0.0152018 33:0.00755208 34:0.0116211 35:0.0105794 36:0.00849609 37:0.0167318 38:0.010026 39:0.0135091 40:0.00869141 41:0.0192383 42:0.0163411 43:0.0206706 44:0.012207 45:0.031543 46:0.0182292 47:0.0316732 48:0.0115885 49:0.012207 50:0.0407227 51:0.0174479 52:0.0312174 53:0.0197917 54:0.0286784 55:0.0147135 56:0.0276693 57:0.00911458 58:0.0173503 59:0.0139648 60:0.011263 61:0.0191081 62:0.0154948 63:0.0123047 64:0.0078125 65:0.0390625 66:0.0449219 67:0.0383464 68:0.0495443 69:0.0390951 70:0.0227539 71:0.0384766 72:0.0252604 73:0.187988 74:0.0993164 75:0.116634 76:0.0930664 77:0.0712891 78:0.0310547 79:0.0619792 80:0.0402995 81:0.0430664 82:0.1361 83:0.0444661 84:0.118555 85:0.0310547 86:0.0675456 87:0.0326497 88:0.0521484 89:0.0394206 90:0.0442383 91:0.0400716 92:0.0448893 93:0.0245768 94:0.025 95:0.0220703 96:0.0211263 97:0.010026 98:0.0113932 99:0.0110677 100:0.0116862 101:0.0282227 102:0.0315755 103:0.0259766 104:0.0360352 105:0.0352539 106:0.0333659 107:0.0210938 108:0.0185221 109:0.0414714 110:0.0352214 111:0.0532552 112:0.0265299 113:0.0124349 114:0.0524414 115:0.0216797 116:0.0573568 117:0.0174805 118:0.0370443 119:0.0193359 120:0.0484049 121:0.0126628 122:0.0302083 123:0.0211589 124:0.0224284 125:0.0145833 126:0.0142253 127:0.0376302 128:0.0160156 129:0.0277344 130:0.0263672 131:0.0268229 132:0.0166016 133:0.0252604 134:0.0120768 135:0.0202799 136:0.0103516 137:0.0363607 138:0.0266602 139:0.0360026 140:0.020638 141:0.0325846 142:0.0236654 143:0.0268555 144:0.0197591 145:0.0239258 146:0.0525716 147:0.0170898 148:0.0457357 149:0.0194661 150:0.0288411 151:0.0155924 152:0.0347331 153:0.0280273 154:0.0260091 155:0.0206055 156:0.0204753 157:0.0200195 158:0.0111003 159:0.010026 160:0.0144206 161:0.0176758 162:0.0301432 163:0.0288086 164:0.0240234 165:0.0438151 166:0.045931 167:0.0498047 168:0.0668294 169:0.0369792 170:0.0304036 171:0.0454753 172:0.0179688 173:0.087207 174:0.0834961 175:0.0976562 176:0.0607096 177:0.0271159 178:0.131348 179:0.0397461 180:0.178971 181:0.112533 182:0.225586 183:0.185156 184:0.397428 185:0.0193359 186:0.0223633 187:0.0259115 188:0.0358724 189:0.0454102 190:0.0530599 191:0.0513997 192:0.0738281 193:0.0160482 194:0.0188477 195:0.0149089 196:0.0133789 197:0.00966797 198:0.0109375 199:0.0102539 200:0.00983073 201:0.0209961 202:0.0193685 203:0.0225586 204:0.0147135 205:0.0188151 206:0.0119141 207:0.0182943 208:0.0108398 209:0.0275065 210:0.0624674 211:0.0189453 212:0.0529297 213:0.0136719 214:0.0310872 215:0.0121745 216:0.0288411 217:0.0156901 218:0.0171875 219:0.014681 220:0.0167643 221:0.0154297 222:0.0111328 223:0.0100586 224:0.0126953 225:0.00924479 226:0.0105794 227:0.0193685 228:0.0205729 229:0.0257487 230:0.0355794 231:0.0326823 232:0.0561523 233:0.0262695 234:0.0134115 235:0.0362305 236:0.0183919 237:0.0837565 238:0.0439128 239:0.0923177 240:0.0466797 241:0.0183268 242:0.0957031 243:0.0257161 244:0.170801 245:0.0504232 246:0.190918 247:0.0786784 248:0.27666 249:0.010612 250:0.0130859 251:0.0203125 252:0.0277344 253:0.021224 254:0.0245443 255:0.0335612 256:0.0453125 
901.1348287290708 1:0.021582 2:0.0270508 3:0.0312826 4:0.0286458 5:0.0301758 6:0.0177083 7:0.0214844 8:0.0155599 9:0.0809896 10:0.0386393 11:0.0845052 12:0.0398763 13:0.0609049 14:0.0323568 15:0.033138 16:0.032487 17:0.0277018 18:0.0951497 19:0.0372396 20:0.0852539 21:0.0283203 22:0.0649414 23:0.0278971 24:0.0449219 25:0.0318359 26:0.0338542 27:0.0302734 28:0.0259115 29:0.0311198 30:0.0320312 31:0.0184245 32:0.0172526 33:0.00895182 34:0.0123698 35:0.014974 36:0.0105469 37:0.0146484 38:0.0094401 39:0.0116862 40:0.00960286 41:0.0138021 42:0.0165039 43:0.0183919 44:0.0105469 45:0.0257487 46:0.0238281 47:0.0242513 48:0.0145833 49:0.0114258 50:0.040918 51:0.0188477 52:0.0419271 53:0.0204102 54:0.0384766 55:0.020638 56:0.0438802 57:0.0107096 58:0.0201497 59:0.014974 60:0.0142253 61:0.0198893 62:0.0182943 63:0.0153971 64:0.0112956 65:0.0289388 66:0.0340495 67:0.0417318 68:0.0338867 69:0.0338542 70:0.0255859 71:0.0330078 72:0.0295898 73:0.105632 74:0.0656901 75:0.064388 76:0.0656901 77:0.0556641 78:0.0320964 79:0.0503906 80:0.0388672 81:0.0396484 82:0.147526 83:0.0637695 84:0.132878 85:0.0305013 86:0.0739583 87:0.0368815 88:0.0603516 89:0.0250326 90:0.0316081 91:0.0411458 92:0.0335286 93:0.0270833 94:0.036556 95:0.0329102 96:0.0258789 97:0.00683594 98:0.0145508 99:0.0129557 100:0.0160807 101:0.0293294 102:0.0248372 103:0.0306641 104:0.0348958 105:0.0345378 106:0.0422526 107:0.021224 108:0.0202148 109:0.0396484 110:0.0310872 111:0.0443685 112:0.0288411 113:0.0137044 114:0.058138 115:0.0261068 116:0.0558268 117:0.0167969 118:0.0376953 119:0.0192708 120:0.0501628 121:0.0111003 122:0.0244141 123:0.0242839 124:0.0246745 125:0.0197266 126:0.0213216 127:0.0358724 128:0.0165365 129:0.0244141 130:0.0337565 131:0.0311198 132:0.0201823 133:0.0251628 134:0.0123047 135:0.0184896 136:0.0130859 137:0.0337565 138:0.0262695 139:0.0291667 140:0.019043 141:0.0276367 142:0.0260742 143:0.0215495 144:0.0194336 145:0.020638 146:0.0517253 147:0.0170898 148:0.0470378 149:0.0189128 150:0.0359375 151:0.0150065 152:0.0415039 153:0.0298177 154:0.0250651 155:0.0227865 156:0.0208659 157:0.0132487 158:0.0129883 159:0.00791016 160:0.0150391 161:0.0222656 162:0.0402018 163:0.0310872 164:0.0298503 165:0.0563151 166:0.062793 167:0.0632813 168:0.0698242 169:0.034375 170:0.03125 171:0.0473633 172:0.0254557 173:0.107975 174:0.0888021 175:0.128027 176:0.0712565 177:0.0328776 178:0.134115 179:0.0436523 180:0.156738 181:0.125456 182:0.206608 183:0.171875 184:0.320182 185:0.0238932 186:0.0274414 187:0.0332682 188:0.0391602 189:0.0535482 190:0.0595052 191:0.0677734 192:0.0788737 193:0.0173828 194:0.0196289 195:0.0209635 196:0.0183594 197:0.0114583 198:0.0111979 199:0.0107096 200:0.0123698 201:0.0192383 202:0.0223307 203:0.0247396 204:0.0253581 205:0.0173503 206:0.0142578 207:0.0171875 208:0.0143229 209:0.0281576 210:0.0795573 211:0.0254883 212:0.0656576 213:0.0176107 214:0.040918 215:0.0139974 216:0.0414388 217:0.0154297 218:0.0152669 219:0.0214193 220:0.0183594 221:0.013737 222:0.0108398 223:0.0104492 224:0.0118164 225:0.00950521 226:0.0188477 227:0.021875 228:0.0322266 229:0.0332682 230:0.0487956 231:0.0378581 232:0.0733073 233:0.0297526 234:0.0136393 235:0.0390951 236:0.022168 237:0.0844727 238:0.0477539 239:0.0910807 240:0.0438802 241:0.0213216 242:0.10319 243:0.0476562 244:0.162956 245:0.0572917 246:0.150846 247:0.0775391 248:0.23903 249:0.0106445 250:0.0180664 251:0.0200521 252:0.0328125 253:0.024349 254:0.0371094 255:0.0361003 256:0.0482747 
1154.635745075983 1:0.0313477 2:0.0379557 3:0.0432943 4:0.0394857 5:0.033138 6:0.0280599 7:0.0342773 8:0.0319336 9:0.0436849 10:0.061556 11:0.0572591 12:0.0483724 13:0.043457 14:0.0489583 15:0.030957 16:0.0518555 17:0.0411458 18:0.066569 19:0.0573893 20:0.0704753 21:0.0530273 22:0.0413737 23:0.0536458 24:0.0401693 25:0.0333008 26:0.0554362 27:0.0281901 28:0.0378581 29:0.0458333 30:0.0469401 31:0.030599 32:0.0359701 33:0.0139648 34:0.0198242 35:0.0165039 36:0.0134115 37:0.0227539 38:0.0249674 39:0.0250977 40:0.0161458 41:0.0113932 42:0.0302083 43:0.017806 44:0.0184245 45:0.0226888 46:0.0347656 47:0.0272461 48:0.0297526 49:0.027832 50:0.0305013 51:0.0361328 52:0.0294596 53:0.047168 54:0.034375 55:0.0406576 56:0.0326823 57:0.0203125 58:0.0333984 59:0.0251302 60:0.0178385 61:0.0322591 62:0.0623698 63:0.0264648 64:0.0210286 65:0.0462891 66:0.0570638 67:0.0617188 68:0.0665365 69:0.0343424 70:0.0292643 71:0.0476888 72:0.0413737 73:0.0624023 74:0.0852865 75:0.0539714 76:0.0962565 77:0.0374674 78:0.0378255 79:0.0447917 80:0.0624674 81:0.0717122 82:0.107357 83:0.0950195 84:0.102507 85:0.0555013 86:0.061556 87:0.055013 88:0.0551432 89:0.0472331 90:0.0574219 91:0.0522135 92:0.0563151 93:0.0314453 94:0.0280599 95:0.0300781 96:0.0336263 97:0.0124349 98:0.0249674 99:0.016862 100:0.0227539 101:0.0176758 102:0.0298503 103:0.0263021 104:0.0304036 105:0.0217122 106:0.0489258 107:0.0185547 108:0.0447591 109:0.0209961 110:0.0318034 111:0.0273763 112:0.0439453 113:0.0333659 114:0.0554036 115:0.0426758 116:0.044987 117:0.0351888 118:0.0451823 119:0.0347656 120:0.0410156 121:0.0222005 122:0.0414714 123:0.0341797 124:0.0438477 125:0.0191081 126:0.0236003 127:0.0275065 128:0.0258789 129:0.0288086 130:0.0393555 131:0.0266602 132:0.0258464 133:0.0249023 134:0.0279297 135:0.0210938 136:0.0240234 137:0.0176107 138:0.0447591 139:0.0175781 140:0.0254232 141:0.0182617 142:0.037793 143:0.0219727 144:0.0395508 145:0.0373047 146:0.0415365 147:0.0345378 148:0.0381185 149:0.0376953 150:0.0277995 151:0.0343424 152:0.0335286 153:0.0212565 154:0.0266276 155:0.0154297 156:0.019987 157:0.0219727 158:0.0271159 159:0.0162109 160:0.0226237 161:0.0228516 162:0.0392904 163:0.0272135 164:0.0291992 165:0.0464193 166:0.0634115 167:0.0544596 168:0.0562174 169:0.032487 170:0.0366862 171:0.0479167 172:0.0277669 173:0.0765299 174:0.0907878 175:0.0891927 176:0.0719401 177:0.0382487 178:0.0551758 179:0.0465495 180:0.0627604 181:0.0929687 182:0.0954102 183:0.104785 184:0.11888 185:0.0217122 186:0.0299154 187:0.0279622 188:0.0269531 189:0.0495117 190:0.0536133 191:0.0566732 192:0.0515951 193:0.0358398 194:0.0385417 195:0.0218424 196:0.0245768 197:0.0202799 198:0.0217448 199:0.0142904 200:0.0177734 201:0.021582 202:0.0437826 203:0.0164062 204:0.0312174 205:0.014974 206:0.0255534 207:0.0134115 208:0.0324544 209:0.0670898 210:0.056901 211:0.0491862 212:0.0394206 213:0.0374349 214:0.0358724 215:0.0218424 216:0.0296875 217:0.0304362 218:0.0269531 219:0.0257813 220:0.030013 221:0.0206055 222:0.0164062 223:0.0175781 224:0.0259766 225:0.0138672 226:0.0295247 227:0.0296224 228:0.0267904 229:0.0249674 230:0.0385417 231:0.0341146 232:0.0381836 233:0.0203125 234:0.0306641 235:0.0308919 236:0.0311849 237:0.0458333 238:0.044043 239:0.0567708 240:0.0462891 241:0.0341797 242:0.0573893 243:0.0603516 244:0.0585938 245:0.0482096 246:0.105469 247:0.0666992 248:0.10765 249:0.0182943 250:0.0286784 251:0.0367839 252:0.0332682 253:0.0311849 254:0.0404622 255:0.0369141 256:0.0453451 
2833.769359020574 1:0.0260091 2:0.035026 3:0.0385742 4:0.0392904 5:0.0321615 6:0.0268229 7:0.0362305 8:0.0319661 9:0.0478516 10:0.0651042 11:0.0583333 12:0.0516927 13:0.0457682 14:0.0479818 15:0.0352865 16:0.0582031 17:0.0404297 18:0.0693034 19:0.0558919 20:0.0717773 21:0.0551758 22:0.0430664 23:0.0561849 24:0.0375651 25:0.034668 26:0.0591797 27:0.0281576 28:0.0390299 29:0.0472656 30:0.0438477 31:0.0311849 32:0.0361979 33:0.0120117 34:0.0184896 35:0.019043 36:0.0126953 37:0.0216471 38:0.0228841 39:0.0261719 40:0.0170247 41:0.0137044 42:0.0296224 43:0.017513 44:0.0198568 45:0.0225911 46:0.0371745 47:0.0308919 48:0.0329753 49:0.0298503 50:0.0316406 51:0.0367513 52:0.0280924 53:0.0450521 54:0.0344401 55:0.0443359 56:0.0317383 57:0.0195638 58:0.0359375 59:0.0227865 60:0.0177083 61:0.0327474 62:0.0595052 63:0.0270182 64:0.0187174 65:0.0467448 66:0.055013 67:0.0582682 68:0.0644857 69:0.0364909 70:0.0326497 71:0.0482096 72:0.0382161 73:0.0680339 74:0.0880859 75:0.0562174 76:0.0886068 77:0.0416992 78:0.0414063 79:0.0487956 80:0.0613932 81:0.0712565 82:0.111719 83:0.0955729 84:0.102116 85:0.0564779 86:0.0637695 87:0.0518229 88:0.0529297 89:0.0433919 90:0.0566406 91:0.0466797 92:0.054362 93:0.0344401 94:0.0291016 95:0.031901 96:0.0322266 97:0.0114583 98:0.0275065 99:0.0176432 100:0.0222982 101:0.0170247 102:0.027181 103:0.0239583 104:0.028125 105:0.0230469 106:0.0506185 107:0.0170573 108:0.0423177 109:0.0201172 110:0.0315755 111:0.0295898 112:0.0452148 113:0.0317383 114:0.0554687 115:0.045931 116:0.0445312 117:0.0351563 118:0.0436523 119:0.0342122 120:0.036556 121:0.0226888 122:0.0390625 123:0.0367513 124:0.0426107 125:0.0170247 126:0.0253255 127:0.0252279 128:0.0244466 129:0.0286458 130:0.0370117 131:0.0264323 132:0.0256836 133:0.0222982 134:0.0257813 135:0.0201497 136:0.0268229 137:0.0185547 138:0.0434245 139:0.0200195 140:0.0220378 141:0.0164388 142:0.0374349 143:0.0203776 144:0.0436849 145:0.0333659 146:0.0416016 147:0.0341797 148:0.0384766 149:0.0372721 150:0.0253581 151:0.0379557 152:0.0345052 153:0.0190104 154:0.0238607 155:0.0159505 156:0.0201172 157:0.0220378 158:0.023763 159:0.0175456 160:0.0258464 161:0.023763 162:0.0418294 163:0.0304362 164:0.0298177 165:0.046875 166:0.0666341 167:0.0480143 168:0.0525391 169:0.0327474 170:0.0408854 171:0.0496745 172:0.0280924 173:0.0731771 174:0.0871745 175:0.0917318 176:0.0641276 177:0.0403646 178:0.0552409 179:0.0479492 180:0.0647461 181:0.0972005 182:0.094401 183:0.101595 184:0.117155 185:0.0216471 186:0.0298828 187:0.0279297 188:0.0250651 189:0.0432617 190:0.0532878 191:0.0575195 192:0.0545247 193:0.0336914 194:0.0378255 195:0.0211914 196:0.0236979 197:0.0170898 198:0.0223307 199:0.0153646 200:0.0172201 201:0.0203776 202:0.0473633 203:0.0160156 204:0.0331055 205:0.0193685 206:0.0251953 207:0.0142904 208:0.0311198 209:0.0665039 210:0.0565755 211:0.0504883 212:0.0417643 213:0.0365234 214:0.0364258 215:0.0239583 216:0.0316081 217:0.0246745 218:0.0279948 219:0.0295247 220:0.0297526 221:0.0217773 222:0.0164388 223:0.0172852 224:0.0235352 225:0.0133789 226:0.0261393 227:0.0283529 228:0.0286458 229:0.0230794 230:0.040332 231:0.0296549 232:0.0384766 233:0.0187174 234:0.0334635 235:0.0315755 236:0.0308268 237:0.0503906 238:0.0486003 239:0.0589518 240:0.0457357 241:0.0330078 242:0.0556641 243:0.062207 244:0.0620443 245:0.05625 246:0.0945638 247:0.0628906 248:0.104557 249:0.0173177 250:0.028418 251:0.0358073 252:0.036849 253:0.0290365 254:0.039681 255:0.0357422 256:0.0453776 
2340.799861591762 1:0.0348633 2:0.0392578 3:0.0401042 4:0.0445312 5:0.0278646 6:0.0239583 7:0.0348633 8:0.0326497 9:0.0471354 10:0.0706055 11:0.0570312 12:0.0539388 13:0.0456706 14:0.0525716 15:0.0280273 16:0.0563802 17:0.0472005 18:0.0736654 19:0.0564453 20:0.0722982 21:0.0560221 22:0.0421549 23:0.0543945 24:0.0349609 25:0.0355143 26:0.0588216 27:0.0261068 28:0.0395833 29:0.0497721 30:0.0463542 31:0.0267904 32:0.0345052 33:0.011849 34:0.0166992 35:0.0164714 36:0.0152669 37:0.0208333 38:0.0226888 39:0.0238281 40:0.018099 41:0.0116862 42:0.0319661 43:0.0161133 44:0.0227214 45:0.022526 46:0.0351888 47:0.0285156 48:0.0305664 49:0.0280273 50:0.0317708 51:0.0365885 52:0.0301758 53:0.0490885 54:0.0336263 55:0.041862 56:0.0253906 57:0.0174154 58:0.031901 59:0.021875 60:0.0196615 61:0.0321615 62:0.0566732 63:0.0264974 64:0.0193685 65:0.0451497 66:0.056543 67:0.0619141 68:0.0673828 69:0.0339844 70:0.0303385 71:0.0479818 72:0.0368164 73:0.0608724 74:0.0861654 75:0.0515299 76:0.0885091 77:0.0446289 78:0.0401042 79:0.0478841 80:0.0688151 81:0.0734701 82:0.106803 83:0.0986979 84:0.096224 85:0.0562174 86:0.055306 87:0.0554036 88:0.0430013 89:0.0446615 90:0.0606771 91:0.0509766 92:0.0575521 93:0.0338216 94:0.0283529 95:0.0329753 96:0.0335286 97:0.013444 98:0.0277344 99:0.0169922 100:0.0204427 101:0.0181641 102:0.0295247 103:0.0227865 104:0.0285156 105:0.0206055 106:0.0518555 107:0.0177734 108:0.0429362 109:0.0162435 110:0.0305664 111:0.0293294 112:0.0431315 113:0.0345378 114:0.0515951 115:0.0466797 116:0.0422201 117:0.0325521 118:0.0403971 119:0.0322266 120:0.0366862 121:0.024707 122:0.0421224 123:0.036556 124:0.0422201 125:0.0165039 126:0.0258464 127:0.0236979 128:0.0259766 129:0.0267578 130:0.0365234 131:0.0220378 132:0.0240234 133:0.0227214 134:0.0265299 135:0.0203451 136:0.0253255 137:0.0166341 138:0.0423828 139:0.0195964 140:0.0268555 141:0.0165365 142:0.0397786 143:0.0178711 144:0.0426107 145:0.0381185 146:0.0399414 147:0.0359701 148:0.0403646 149:0.0412109 150:0.0263346 151:0.0366536 152:0.0316406 153:0.0203451 154:0.0258138 155:0.0150716 156:0.020931 157:0.0234049 158:0.0253581 159:0.0163737 160:0.021582 161:0.0228841 162:0.0373372 163:0.030306 164:0.0283854 165:0.0488281 166:0.0644531 167:0.0487305 168:0.0545247 169:0.0313151 170:0.0452799 171:0.0458333 172:0.0264323 173:0.0736654 174:0.078125 175:0.0972005 176:0.0629557 177:0.0411784 178:0.0529948 179:0.051888 180:0.0673828 181:0.0926758 182:0.105241 183:0.0996419 184:0.140527 185:0.0201172 186:0.0345378 187:0.0326823 188:0.0294271 189:0.0457357 190:0.0504232 191:0.0572591 192:0.0525065 193:0.0319987 194:0.0385417 195:0.0189453 196:0.0269531 197:0.0161133 198:0.0243164 199:0.015625 200:0.0192708 201:0.0190755 202:0.0485352 203:0.0144206 204:0.0341471 205:0.0156901 206:0.0258464 207:0.0136068 208:0.0310547 209:0.0657878 210:0.0479818 211:0.0520833 212:0.0424805 213:0.038737 214:0.03125 215:0.0242513 216:0.0264323 217:0.0245117 218:0.0253581 219:0.027832 220:0.030013 221:0.018457 222:0.0191406 223:0.0150716 224:0.022819 225:0.016276 226:0.0279297 227:0.0303711 228:0.0287109 229:0.0237956 230:0.0422526 231:0.0313151 232:0.0396159 233:0.0170573 234:0.0338867 235:0.0302409 236:0.0315104 237:0.0457357 238:0.0462891 239:0.057194 240:0.0447591 241:0.0362956 242:0.0579753 243:0.0558594 244:0.0597982 245:0.0532552 246:0.110319 247:0.0649089 248:0.118815 249:0.0171224 250:0.0292969 251:0.0302734 252:0.0371419 253:0.0280924 254:0.0413086 255:0.0334635 256:0.0446615 
1451.164778395623 1:0.0266927 2:0.0385417 3:0.0277344 4:0.0383789 5:0.021875 6:0.0234375 7:0.0176432 8:0.0238932 9:0.0582031 10:0.0495443 11:0.0806966 12:0.0392253 13:0.0451823 14:0.0288411 15:0.0249023 16:0.0257813 17:0.05 18:0.151855 19:0.0484701 20:0.134766 21:0.0418945 22:0.0617513 23:0.0343424 24:0.0758464 25:0.0277018 26:0.0651693 27:0.0264323 28:0.0434245 29:0.0280924 30:0.0375651 31:0.0161784 32:0.0262695 33:0.00804036 34:0.0147461 35:0.0129557 36:0.0150065 37:0.0179036 38:0.0150391 39:0.0191406 40:0.0167643 41:0.0125 42:0.0200846 43:0.0144206 44:0.0141927 45:0.0275716 46:0.0245443 47:0.0367839 48:0.0253906 49:0.0201497 50:0.0617513 51:0.0294596 52:0.0504557 53:0.0377604 54:0.0375651 55:0.0359701 56:0.0410807 57:0.0112956 58:0.0247396 59:0.0197591 60:0.0186849 61:0.0200195 62:0.0278646 63:0.0233724 64:0.0188151 65:0.0359049 66:0.0653971 67:0.0399414 68:0.0722005 69:0.0280924 70:0.0333008 71:0.0289388 72:0.0348633 73:0.0717448 74:0.0719727 75:0.0470052 76:0.0558919 77:0.0683268 78:0.0291016 79:0.0650065 80:0.0379883 81:0.0801432 82:0.255273 83:0.0878581 84:0.194564 85:0.045931 86:0.104362 87:0.0436198 88:0.0835938 89:0.0424154 90:0.0706055 91:0.0382161 92:0.0666341 93:0.0229167 94:0.0323893 95:0.0213216 96:0.0321289 97:0.00940755 98:0.0210286 99:0.0148438 100:0.0235677 101:0.0145182 102:0.0232422 103:0.0268229 104:0.0321615 105:0.0121419 106:0.0236979 107:0.0170247 108:0.022819 109:0.0312174 110:0.027181 111:0.0503906 112:0.0312826 113:0.0247396 114:0.0883464 115:0.0348633 116:0.0610677 117:0.0251953 118:0.0486328 119:0.0288411 120:0.0397135 121:0.0119466 122:0.0286784 123:0.0215169 124:0.0310547 125:0.0213867 126:0.0203125 127:0.0267904 128:0.0245117 129:0.0203451 130:0.0277018 131:0.0243815 132:0.023112 133:0.0265299 134:0.0227865 135:0.021224 136:0.0239909 137:0.0239909 138:0.0305664 139:0.0217448 140:0.0202799 141:0.0270508 142:0.0308919 143:0.0273437 144:0.0326497 145:0.0336589 146:0.0660156 147:0.026888 148:0.0540365 149:0.0291016 150:0.0373047 151:0.0347005 152:0.0460286 153:0.0138672 154:0.0258789 155:0.0134115 156:0.0184245 157:0.0211589 158:0.0200521 159:0.0148763 160:0.0233724 161:0.0314128 162:0.0354492 163:0.033724 164:0.0328451 165:0.0625651 166:0.0556315 167:0.060026 168:0.0463216 169:0.0490885 170:0.0451172 171:0.0545898 172:0.0407552 173:0.0949544 174:0.0650065 175:0.0967448 176:0.0704753 177:0.0408529 178:0.0689779 179:0.0436849 180:0.0787109 181:0.0827799 182:0.0757487 183:0.071224 184:0.0729492 185:0.0269531 186:0.0332031 187:0.0321289 188:0.0297201 189:0.0568685 190:0.0461914 191:0.0549154 192:0.0439128 193:0.0162435 194:0.0268555 195:0.0176432 196:0.0220052 197:0.0144206 198:0.0149089 199:0.0163086 200:0.0160156 201:0.016862 202:0.0231445 203:0.0171549 204:0.0220378 205:0.0277669 206:0.0174805 207:0.0229167 208:0.0229818 209:0.0385742 210:0.0822591 211:0.0369792 212:0.0589518 213:0.030013 214:0.0461589 215:0.025293 216:0.0448242 217:0.0163737 218:0.0268555 219:0.0202799 220:0.0239583 221:0.0149089 222:0.0147786 223:0.0151367 224:0.0179036 225:0.0189453 226:0.0260091 227:0.0260742 228:0.0251628 229:0.0355469 230:0.0396159 231:0.0376302 232:0.0343099 233:0.0175781 234:0.0289062 235:0.0484375 236:0.0395182 237:0.0827474 238:0.0450195 239:0.0788086 240:0.0537435 241:0.0390951 242:0.0724609 243:0.0486979 244:0.086849 245:0.0465495 246:0.0945312 247:0.0484049 248:0.089681 249:0.0188802 250:0.0288737 251:0.033138 252:0.0335937 253:0.0300456 254:0.0304362 255:0.0357422 256:0.0393229 
636.6335736276772 1:0.0248047 2:0.0183594 3:0.0216471 4:0.0203776 5:0.027832 6:0.0111003 7:0.0187174 8:0.0138021 9:0.198275 10:0.0385417 11:0.171712 12:0.0470378 13:0.0800456 14:0.0247721 15:0.0655599 16:0.0279622 17:0.0246745 18:0.0819987 19:0.0264323 20:0.0894206 21:0.026888 22:0.0504232 23:0.0217773 24:0.0531901 25:0.0328125 26:0.0322917 27:0.0310872 28:0.0268229 29:0.0307617 30:0.0204427 31:0.016862 32:0.0167969 33:0.00625 34:0.00869141 35:0.00953776 36:0.00830078 37:0.0109701 38:0.0085612 39:0.0123698 40:0.00673828 41:0.0163737 42:0.0135417 43:0.0144206 44:0.0104818 45:0.0312174 46:0.0184245 47:0.0282227 48:0.012793 49:0.0124349 50:0.0540365 51:0.0189453 52:0.0569661 53:0.0248372 54:0.0325195 55:0.0192383 56:0.0393555 57:0.00989583 58:0.0220052 59:0.0139974 60:0.0116536 61:0.0280599 62:0.0161784 63:0.0118164 64:0.011263 65:0.0350911 66:0.0324544 67:0.0339844 68:0.0395833 69:0.0328125 70:0.0246419 71:0.0322591 72:0.0277018 73:0.26862 74:0.0864909 75:0.16224 76:0.0991536 77:0.094401 78:0.0272461 79:0.0713867 80:0.036849 81:0.0365885 82:0.135547 83:0.039974 84:0.144141 85:0.0250977 86:0.0776367 87:0.025651 88:0.0687826 89:0.0332682 90:0.0363932 91:0.0301107 92:0.0375651 93:0.0174805 94:0.0143229 95:0.0198568 96:0.0180664 97:0.00709635 98:0.0114583 99:0.0111003 100:0.0142904 101:0.0235677 102:0.0281901 103:0.0248047 104:0.0303711 105:0.021875 106:0.0201497 107:0.0199219 108:0.0255208 109:0.0480794 110:0.0313477 111:0.0471354 112:0.0287109 113:0.0148763 114:0.080306 115:0.0313802 116:0.0857096 117:0.0172852 118:0.0486328 119:0.0238281 120:0.0593424 121:0.00983073 122:0.0242513 123:0.0166992 124:0.0289062 125:0.0170573 126:0.0125 127:0.0270182 128:0.0164062 129:0.025651 130:0.0263021 131:0.0225911 132:0.0164714 133:0.0283203 134:0.0144531 135:0.0230143 136:0.0132487 137:0.0346029 138:0.0210286 139:0.0416992 140:0.0157552 141:0.022168 142:0.0249349 143:0.027181 144:0.0231771 145:0.024056 146:0.0764648 147:0.0192057 148:0.0561523 149:0.0214518 150:0.0366536 151:0.0161133 152:0.0442383 153:0.0176432 154:0.0185872 155:0.0183919 156:0.0140951 157:0.0127279 158:0.0124023 159:0.00810547 160:0.0125977 161:0.0215169 162:0.0299805 163:0.0276367 164:0.0243815 165:0.0471354 166:0.0503255 167:0.0539388 168:0.0494792 169:0.0296549 170:0.0341146 171:0.042513 172:0.0230469 173:0.0542969 174:0.0832031 175:0.0812826 176:0.0663737 177:0.0430339 178:0.135384 179:0.048763 180:0.166699 181:0.090625 182:0.209831 183:0.125749 184:0.397103 185:0.0165365 186:0.024349 187:0.0286133 188:0.0255859 189:0.0436849 190:0.045931 191:0.0559245 192:0.0639648 193:0.0150065 194:0.0167643 195:0.0112956 196:0.0135417 197:0.0114909 198:0.0112956 199:0.0117839 200:0.0106445 201:0.01875 202:0.0214193 203:0.0147135 204:0.0201823 205:0.0130208 206:0.0107747 207:0.0169596 208:0.0177083 209:0.0286784 210:0.0860677 211:0.0282878 212:0.0727865 213:0.0156576 214:0.0443685 215:0.0129232 216:0.043457 217:0.0149089 218:0.0118164 219:0.0169596 220:0.0163086 221:0.0119792 222:0.0120443 223:0.00979818 224:0.0129883 225:0.0111654 226:0.0141276 227:0.0161458 228:0.0149414 229:0.0222982 230:0.0291992 231:0.0312826 232:0.0343424 233:0.0195638 234:0.0188151 235:0.0265951 236:0.0199544 237:0.064974 238:0.043099 239:0.0727865 240:0.0546549 241:0.025 242:0.107454 243:0.040918 244:0.130306 245:0.0408203 246:0.165918 247:0.0625 248:0.257878 249:0.0105469 250:0.0165039 251:0.0282552 252:0.0270182 253:0.0251953 254:0.0289714 255:0.0339844 256:0.0338867 
212.9182822546088 1:0.0334961 2:0.0425781 3:0.0359701 4:0.0422852 5:0.0477865 6:0.0216146 7:0.0236979 8:0.0222982 9:0.10651 10:0.0530273 11:0.135156 12:0.0435547 13:0.0972331 14:0.0313477 15:0.0390299 16:0.0297526 17:0.0281576 18:0.122852 19:0.0457031 20:0.108301 21:0.0304362 22:0.0675781 23:0.0294922 24:0.0544596 25:0.0411784 26:0.0584635 27:0.0350586 28:0.0394206 29:0.0537109 30:0.0436523 31:0.0226237 32:0.029362 33:0.0110026 34:0.0158203 35:0.0223958 36:0.0185221 37:0.0185547 38:0.0169596 39:0.017513 40:0.0131836 41:0.0221354 42:0.0214193 43:0.0244466 44:0.0150716 45:0.0388021 46:0.0243164 47:0.0400065 48:0.0191732 49:0.0177734 50:0.0434896 51:0.0303711 52:0.0423828 53:0.0313477 54:0.0404948 55:0.0279948 56:0.0337565 57:0.0197266 58:0.0317057 59:0.0208984 60:0.0182943 61:0.0343099 62:0.0282227 63:0.0227865 64:0.0163086 65:0.0351237 66:0.0514974 67:0.0476888 68:0.0594727 69:0.0512044 70:0.037207 71:0.0405599 72:0.0416667 73:0.0731771 74:0.0511719 75:0.0798503 76:0.0516927 77:0.0741536 78:0.0240234 79:0.0672526 80:0.045638 81:0.0470703 82:0.186328 83:0.0641927 84:0.160384 85:0.0383789 86:0.0971354 87:0.0330078 88:0.0862305 89:0.0351237 90:0.0469401 91:0.036849 92:0.046224 93:0.0398112 94:0.0355469 95:0.0323568 96:0.0327148 97:0.0112305 98:0.0194987 99:0.0167969 100:0.0255208 101:0.0410482 102:0.0480143 103:0.0279622 104:0.0557292 105:0.021582 106:0.0231445 107:0.030013 108:0.0239258 109:0.0350911 110:0.0241862 111:0.0479818 112:0.0286133 113:0.0208008 114:0.0575846 115:0.0279297 116:0.0511719 117:0.027832 118:0.0590495 119:0.0276042 120:0.0552083 121:0.0121419 122:0.0260417 123:0.0255859 124:0.0307292 125:0.025651 126:0.0286784 127:0.029069 128:0.0218099 129:0.0231771 130:0.041862 131:0.0295247 132:0.0227865 133:0.0213542 134:0.0225911 135:0.0227539 136:0.027474 137:0.0344401 138:0.0325521 139:0.021582 140:0.0203451 141:0.0268229 142:0.0266927 143:0.0258789 144:0.0298177 145:0.0270833 146:0.0515625 147:0.0282227 148:0.0551432 149:0.0227539 150:0.0311523 151:0.0285482 152:0.0478516 153:0.0301758 154:0.0314128 155:0.0215495 156:0.0319336 157:0.0230143 158:0.0252279 159:0.0170573 160:0.032194 161:0.030599 162:0.0395508 163:0.0382812 164:0.0269857 165:0.0306315 166:0.0366536 167:0.0331706 168:0.0329427 169:0.0473307 170:0.0292643 171:0.058138 172:0.0183919 173:0.0667318 174:0.0418945 175:0.0777669 176:0.0284505 177:0.0271159 178:0.109766 179:0.0416992 180:0.1375 181:0.048112 182:0.109473 183:0.0561523 184:0.185189 185:0.0159831 186:0.0343424 187:0.0335612 188:0.0323242 189:0.0226237 190:0.0317708 191:0.025651 192:0.0296224 193:0.0301432 194:0.0266602 195:0.0241862 196:0.0205078 197:0.0165039 198:0.0188477 199:0.0137044 200:0.0188477 201:0.0355143 202:0.0235352 203:0.0201823 204:0.0177409 205:0.0249674 206:0.0179362 207:0.0181966 208:0.020931 209:0.0367187 210:0.0470052 211:0.0322917 212:0.0536784 213:0.0259115 214:0.0388021 215:0.0213867 216:0.0393229 217:0.0286458 218:0.021582 219:0.0285807 220:0.0276042 221:0.0230143 222:0.0214193 223:0.0218099 224:0.0267253 225:0.0157878 226:0.0245768 227:0.0215495 228:0.0217773 229:0.0217122 230:0.0364909 231:0.0223958 232:0.0296549 233:0.0314453 234:0.0251302 235:0.0440755 236:0.0200521 237:0.0634766 238:0.0317057 239:0.0784505 240:0.029362 241:0.0229167 242:0.076888 243:0.0341146 244:0.113867 245:0.0366862 246:0.139648 247:0.0381185 248:0.155566 249:0.014974 250:0.0244141 251:0.0337891 252:0.0393229 253:0.025651 254:0.0336914 255:0.0294922 256:0.0362305 
3765.418983030635 1:0.0547852 2:0.0496094 3:0.0438802 4:0.0353841 5:0.0338867 6:0.0197266 7:0.027832 8:0.0157227 9:0.0942383 10:0.0857747 11:0.0818359 12:0.0611003 13:0.0579427 14:0.0498698 15:0.0461263 16:0.0333008 17:0.0592773 18:0.158724 19:0.0447591 20:0.123926 21:0.0384766 22:0.0528646 23:0.0239583 24:0.0375977 25:0.0483073 26:0.0649089 27:0.0390625 28:0.0408529 29:0.0369141 30:0.0300456 31:0.0208659 32:0.0161133 33:0.0077474 34:0.00895182 35:0.012207 36:0.00764974 37:0.0102865 38:0.00934245 39:0.013151 40:0.00738932 41:0.0224935 42:0.0193359 43:0.0192057 44:0.00970052 45:0.0237305 46:0.0247396 47:0.0249674 48:0.0135091 49:0.0115234 50:0.0315104 51:0.0139323 52:0.0273112 53:0.0211263 54:0.028125 55:0.0177083 56:0.0194987 57:0.0130859 58:0.0155599 59:0.0147786 60:0.00992839 61:0.0241862 62:0.0225586 63:0.0152344 64:0.00716146 65:0.0592448 66:0.0805013 67:0.0650065 68:0.0720703 69:0.0431966 70:0.0313151 71:0.0393555 72:0.0300781 73:0.105371 74:0.130729 75:0.0882487 76:0.0999349 77:0.0679687 78:0.049707 79:0.0722982 80:0.0441732 81:0.0995443 82:0.333854 83:0.0895508 84:0.265885 85:0.0395833 86:0.0830729 87:0.0287109 88:0.0775716 89:0.0697917 90:0.0965495 91:0.0558268 92:0.077474 93:0.0343099 94:0.0277995 95:0.0313151 96:0.0235352 97:0.00615234 98:0.00865885 99:0.0128581 100:0.0111328 101:0.0187174 102:0.0163086 103:0.0167643 104:0.0256185 105:0.0242513 106:0.0183268 107:0.0224935 108:0.0203451 109:0.0329427 110:0.0326497 111:0.0380859 112:0.0270182 113:0.0149414 114:0.052474 115:0.0253906 116:0.0510417 117:0.0149089 118:0.0434245 119:0.0201497 120:0.0374349 121:0.0094401 122:0.0146484 123:0.0167643 124:0.0219727 125:0.0198568 126:0.0147135 127:0.0386393 128:0.0160156 129:0.0354492 130:0.0251302 131:0.0320638 132:0.0143555 133:0.0197917 134:0.0108724 135:0.0195312 136:0.0174154 137:0.0247396 138:0.0315755 139:0.0148438 140:0.0130859 141:0.0243164 142:0.0326172 143:0.0197266 144:0.0263997 145:0.0172201 146:0.0444661 147:0.0169596 148:0.0369466 149:0.0146159 150:0.0202799 151:0.0173828 152:0.0272461 153:0.0160807 154:0.0143555 155:0.0120443 156:0.0144206 157:0.0144206 158:0.0142904 159:0.0106445 160:0.0131836 161:0.026237 162:0.0362956 163:0.0393229 164:0.0250651 165:0.0613607 166:0.0520182 167:0.0977214 168:0.047526 169:0.0340169 170:0.035612 171:0.0478516 172:0.0248698 173:0.116406 174:0.110156 175:0.227507 176:0.093099 177:0.0289388 178:0.0636068 179:0.0374023 180:0.070638 181:0.0701497 182:0.110742 183:0.113639 184:0.144043 185:0.014974 186:0.0170247 187:0.0244792 188:0.0208659 189:0.0527995 190:0.0521484 191:0.0827799 192:0.0454753 193:0.0144206 194:0.0118815 195:0.0206055 196:0.0111654 197:0.0113607 198:0.00807292 199:0.0104167 200:0.0078776 201:0.0228841 202:0.0195638 203:0.0180339 204:0.0136068 205:0.0170898 206:0.0140299 207:0.0180339 208:0.0156901 209:0.025 210:0.0410807 211:0.0295573 212:0.0434245 213:0.0185547 214:0.0210938 215:0.0127604 216:0.027181 217:0.0147461 218:0.0104167 219:0.0141276 220:0.0128255 221:0.0160156 222:0.0105469 223:0.0127604 224:0.0135742 225:0.0129232 226:0.0145508 227:0.0317057 228:0.0161784 229:0.0251953 230:0.0259115 231:0.0373698 232:0.0245768 233:0.0253255 234:0.0226888 235:0.0375651 236:0.0223633 237:0.0716471 238:0.0466797 239:0.110189 240:0.0563802 241:0.0239258 242:0.0525065 243:0.0449219 244:0.0720052 245:0.0400716 246:0.0992513 247:0.0620768 248:0.103353 249:0.0147135 250:0.0135417 251:0.0317383 252:0.0276693 253:0.0358073 254:0.0335286 255:0.0595052 256:0.0414714 
5074.003515786359 1:0.0247721 2:0.0425781 3:0.0378255 4:0.0500326 5:0.030013 6:0.0261393 7:0.0257813 8:0.0251953 9:0.0767904 10:0.0631836 11:0.074349 12:0.0515951 13:0.066569 14:0.0482096 15:0.0329753 16:0.0369792 17:0.0423503 18:0.113053 19:0.0557943 20:0.104688 21:0.0432617 22:0.0677083 23:0.0325846 24:0.0504557 25:0.0375651 26:0.0661784 27:0.0306641 28:0.0372396 29:0.0472656 30:0.0580729 31:0.0183594 32:0.0273112 33:0.011556 34:0.0197266 35:0.0174805 36:0.0142253 37:0.0267904 38:0.0177409 39:0.0245768 40:0.0136393 41:0.0176432 42:0.026888 43:0.0252279 44:0.0179688 45:0.0311849 46:0.0289388 47:0.0319987 48:0.019694 49:0.0213867 50:0.0405273 51:0.0293945 52:0.0336263 53:0.0404622 54:0.0366211 55:0.0301432 56:0.0242513 57:0.0147786 58:0.0287435 59:0.0225586 60:0.0174479 61:0.0367513 62:0.045931 63:0.0225586 64:0.011263 65:0.0375326 66:0.053125 67:0.0576497 68:0.0660482 69:0.0432943 70:0.0276693 71:0.0482747 72:0.0392904 73:0.0557617 74:0.0613281 75:0.0671549 76:0.0685872 77:0.0705729 78:0.0362956 79:0.0620117 80:0.0527344 81:0.0708659 82:0.1375 83:0.100065 84:0.142773 85:0.0516602 86:0.069043 87:0.0396159 88:0.0681966 89:0.0370117 90:0.0504557 91:0.0525716 92:0.0561198 93:0.0337565 94:0.0341146 95:0.0347656 96:0.0335937 97:0.00823568 98:0.0181641 99:0.0146159 100:0.0239258 101:0.0375326 102:0.0349284 103:0.0311523 104:0.0469076 105:0.0167969 106:0.0222656 107:0.0262044 108:0.0329753 109:0.0352214 110:0.0351888 111:0.0485026 112:0.0476888 113:0.0174805 114:0.0541667 115:0.0335612 116:0.0570638 117:0.0327799 118:0.0460612 119:0.0325846 120:0.0415039 121:0.0126953 122:0.0266602 123:0.0304362 124:0.0395833 125:0.0214844 126:0.0261393 127:0.030306 128:0.0248698 129:0.0320964 130:0.0335612 131:0.0244466 132:0.0241211 133:0.0289062 134:0.0219076 135:0.0223958 136:0.0283203 137:0.0290039 138:0.0354818 139:0.0214844 140:0.0291992 141:0.0291016 142:0.0370768 143:0.0246094 144:0.0374023 145:0.0302083 146:0.0428711 147:0.0277995 148:0.039681 149:0.0327148 150:0.0316732 151:0.0276693 152:0.0434896 153:0.0232096 154:0.0208333 155:0.0253581 156:0.0272786 157:0.0273763 158:0.0265625 159:0.0142253 160:0.0300456 161:0.0283203 162:0.0305013 163:0.0315104 164:0.0273437 165:0.0532552 166:0.0519531 167:0.0382487 168:0.0424479 169:0.0454753 170:0.039388 171:0.0499023 172:0.0268555 173:0.0679036 174:0.0633138 175:0.0728516 176:0.0410482 177:0.0359375 178:0.0896159 179:0.0498372 180:0.102962 181:0.0798177 182:0.0998372 183:0.06875 184:0.109603 185:0.0273437 186:0.0306641 187:0.0400391 188:0.0397135 189:0.0368815 190:0.0372396 191:0.0318685 192:0.0422526 193:0.0318034 194:0.0338216 195:0.0186198 196:0.0211589 197:0.0197266 198:0.0186198 199:0.0137695 200:0.0152344 201:0.0271484 202:0.0312174 203:0.0202148 204:0.0215495 205:0.0209635 206:0.0221029 207:0.0168294 208:0.0238932 209:0.0530599 210:0.0569336 211:0.0399089 212:0.0459635 213:0.0288737 214:0.0305339 215:0.0160482 216:0.0290039 217:0.0251302 218:0.0169922 219:0.0280924 220:0.0266927 221:0.0230469 222:0.0174154 223:0.0181315 224:0.0264323 225:0.0123047 226:0.0220703 227:0.0185547 228:0.0275065 229:0.0281901 230:0.0477214 231:0.0255859 232:0.0481445 233:0.0276367 234:0.0263672 235:0.0433919 236:0.023763 237:0.0762044 238:0.0416667 239:0.0770182 240:0.0426758 241:0.0236654 242:0.0682617 243:0.0428711 244:0.0966146 245:0.0414388 246:0.1139 247:0.0438802 248:0.102832 249:0.0126953 250:0.025 251:0.0421224 252:0.0553711 253:0.0250326 254:0.0327148 255:0.0274414 256:0.0412435 
