svm_type c_svc
kernel_type linear
nr_class 2
total_sv 197
rho 17.6908
label 1 0
nr_sv 73 124
SV
1677.332480440718 1:0.0335612 2:0.0303385 3:0.0376628 4:0.0295898 5:0.0276693 6:0.0249023 7:0.0261068 8:0.0167643 9:0.0819336 10:0.0472656 11:0.0854492 12:0.0465169 13:0.0575195 14:0.0374349 15:0.049707 16:0.0352865 17:0.0401042 18:0.0967122 19:0.0418945 20:0.097168 21:0.038737 22:0.0579427 23:0.0352214 24:0.0485677 25:0.034375 26:0.0463216 27:0.0279622 28:0.0322591 29:0.0299805 30:0.0283203 31:0.022526 32:0.019401 33:0.0107747 34:0.0128255 35:0.011556 36:0.0108398 37:0.0151367 38:0.0158203 39:0.0135091 40:0.0125326 41:0.0159831 42:0.0233073 43:0.0253581 44:0.0150716 45:0.0315104 46:0.0316406 47:0.0299805 48:0.0217448 49:0.0217448 50:0.0464518 51:0.0216146 52:0.0494141 53:0.0263021 54:0.0395833 55:0.0227214 56:0.0368815 57:0.0130208 58:0.0191732 59:0.0138672 60:0.0138021 61:0.0216146 62:0.0257813 63:0.0144857 64:0.0144531 65:0.0367187 66:0.050651 67:0.0449219 68:0.0519531 69:0.0291341 70:0.0251953 71:0.0321289 72:0.0239909 73:0.100814 74:0.0857422 75:0.0806641 76:0.0754232 77:0.0617513 78:0.0421549 79:0.0615234 80:0.0454427 81:0.0615234 82:0.182845 83:0.0724609 84:0.158203 85:0.041862 86:0.0930013 87:0.0402995 88:0.0811523 89:0.0384766 90:0.0480469 91:0.0382812 92:0.0511393 93:0.0247721 94:0.0241536 95:0.0266602 96:0.0255534 97:0.0116536 98:0.016862 99:0.0139974 100:0.0152018 101:0.0176107 102:0.0230469 103:0.0194661 104:0.025944 105:0.0210612 106:0.0330729 107:0.0260417 108:0.0291667 109:0.034668 110:0.0331706 111:0.0467122 112:0.0313477 113:0.0237305 114:0.0674805 115:0.0322266 116:0.0644531 117:0.0241211 118:0.0533203 119:0.0295573 120:0.0594401 121:0.0188802 122:0.0322917 123:0.0232747 124:0.0287435 125:0.0226237 126:0.0201823 127:0.0248698 128:0.017513 129:0.0245768 130:0.0320312 131:0.0278971 132:0.0223307 133:0.0239583 134:0.0186523 135:0.0207031 136:0.0158203 137:0.027832 138:0.0251953 139:0.0246094 140:0.0208659 141:0.0344076 142:0.0356771 143:0.0244792 144:0.0291341 145:0.0265299 146:0.0573893 147:0.025651 148:0.0415365 149:0.0249674 150:0.0319661 151:0.0257161 152:0.0349284 153:0.0139648 154:0.0206706 155:0.0167969 156:0.0180339 157:0.0194336 158:0.0199219 159:0.0114258 160:0.0164714 161:0.0232747 162:0.0435547 163:0.0296549 164:0.0415365 165:0.0611328 166:0.0674154 167:0.0476237 168:0.0468099 169:0.0415365 170:0.039974 171:0.0560872 172:0.0303711 173:0.104915 174:0.0804688 175:0.0984375 176:0.0590169 177:0.0434896 178:0.0949544 179:0.0546224 180:0.100879 181:0.0957682 182:0.164258 183:0.0936523 184:0.19388 185:0.0204427 186:0.0306966 187:0.0302734 188:0.031901 189:0.0500326 190:0.0530924 191:0.0527018 192:0.0513021 193:0.0176758 194:0.0219727 195:0.0201823 196:0.0229167 197:0.0124674 198:0.0148438 199:0.0147461 200:0.0154948 201:0.0230794 202:0.0245768 203:0.0213542 204:0.0265951 205:0.0202799 206:0.0214844 207:0.0204102 208:0.0217122 209:0.0357096 210:0.0734375 211:0.0373372 212:0.060612 213:0.0216471 214:0.0426107 215:0.0213216 216:0.0387695 217:0.016276 218:0.0177409 219:0.0160156 220:0.0204427 221:0.0112305 222:0.0137044 223:0.013151 224:0.0144857 225:0.011849 226:0.0157552 227:0.0272461 228:0.0290365 229:0.0280273 230:0.0356771 231:0.0350586 232:0.044694 233:0.0204102 234:0.0185221 235:0.0416341 236:0.0298828 237:0.0748372 238:0.0464518 239:0.0738281 240:0.0536458 241:0.0280924 242:0.0674805 243:0.0553711 244:0.0918294 245:0.0472331 246:0.119922 247:0.0693034 248:0.179427 249:0.0129232 250:0.0172852 251:0.0332031 252:0.039681 253:0.0336914 254:0.0420247 255:0.0417643 256:0.0505208 
2700.161647686245 1:0.0383464 2:0.054362 3:0.0351563 4:0.0423828 5:0.0410482 6:0.027181 7:0.0242513 8:0.025 9:0.0524089 10:0.0495117 11:0.0793945 12:0.0410156 13:0.0557617 14:0.0331706 15:0.0338867 16:0.0259766 17:0.0689779 18:0.162598 19:0.0532227 20:0.132064 21:0.0611654 22:0.0582031 23:0.0352865 24:0.0595052 25:0.0375326 26:0.0760417 27:0.0261719 28:0.0616862 29:0.0371419 30:0.0302734 31:0.0203776 32:0.0218099 33:0.00979818 34:0.0139323 35:0.0100911 36:0.0123047 37:0.016862 38:0.0127279 39:0.0192383 40:0.0127279 41:0.0151693 42:0.0196615 43:0.0203776 44:0.0136719 45:0.0214518 46:0.0234375 47:0.0281576 48:0.01875 49:0.0193359 50:0.0624674 51:0.0276693 52:0.0632487 53:0.0393229 54:0.0439453 55:0.0373698 56:0.0582031 57:0.0141927 58:0.0324544 59:0.0169271 60:0.0185547 61:0.0293294 62:0.0221029 63:0.0193034 64:0.0157552 65:0.0373698 66:0.0814779 67:0.0486979 68:0.104004 69:0.0381836 70:0.0390299 71:0.0349609 72:0.0439453 73:0.0528971 74:0.0572591 75:0.0568359 76:0.0783203 77:0.0519531 78:0.0320312 79:0.0580078 80:0.0418945 81:0.0825521 82:0.265039 83:0.0887044 84:0.214421 85:0.0467448 86:0.10026 87:0.0399414 88:0.0877604 89:0.0442383 90:0.0857096 91:0.0433594 92:0.10026 93:0.0349609 94:0.0358073 95:0.0292969 96:0.0274089 97:0.00976562 98:0.0169596 99:0.0109701 100:0.0251302 101:0.0128581 102:0.0187826 103:0.0194987 104:0.033431 105:0.0134766 106:0.0198893 107:0.0150391 108:0.0240234 109:0.0230794 110:0.0269531 111:0.0326172 112:0.0322266 113:0.0218099 114:0.10752 115:0.0257813 116:0.0841146 117:0.0234375 118:0.0739909 119:0.0244792 120:0.0841471 121:0.013737 122:0.0300781 123:0.0231445 124:0.0293294 125:0.0232422 126:0.0186523 127:0.0295898 128:0.0183268 129:0.0270508 130:0.0327474 131:0.0211914 132:0.0152669 133:0.0260417 134:0.0172852 135:0.0257813 136:0.0220378 137:0.0192383 138:0.0318685 139:0.0174154 140:0.0229492 141:0.0219727 142:0.0262044 143:0.0224284 144:0.0292969 145:0.0286784 146:0.0976237 147:0.0251302 148:0.0949544 149:0.0314128 150:0.0392578 151:0.0381185 152:0.0788737 153:0.0130859 154:0.0252279 155:0.0122396 156:0.0240885 157:0.0180664 158:0.0189128 159:0.0167643 160:0.022526 161:0.0222656 162:0.0202148 163:0.0211914 164:0.0141602 165:0.0448893 166:0.0348307 167:0.0407227 168:0.0336263 169:0.0401367 170:0.0344076 171:0.0523763 172:0.0215169 173:0.0585286 174:0.058724 175:0.0639648 176:0.0414388 177:0.0327474 178:0.100586 179:0.0347005 180:0.109408 181:0.0661458 182:0.0982096 183:0.0631836 184:0.152799 185:0.0191406 186:0.0236003 187:0.0239258 188:0.0226237 189:0.0348633 190:0.0331055 191:0.035612 192:0.0332031 193:0.018457 194:0.0300456 195:0.0149089 196:0.0216471 197:0.0144206 198:0.0185221 199:0.0146159 200:0.0174479 201:0.0194661 202:0.0270182 203:0.0140299 204:0.0199219 205:0.0169596 206:0.0152669 207:0.0144857 208:0.0180664 209:0.0367187 210:0.106152 211:0.030013 212:0.069694 213:0.0259115 214:0.0562826 215:0.0233073 216:0.0600911 217:0.0132813 218:0.0229492 219:0.0164062 220:0.021875 221:0.0125 222:0.0145508 223:0.0132487 224:0.0176758 225:0.0114909 226:0.0186849 227:0.0143229 228:0.0167318 229:0.0236654 230:0.0306315 231:0.0297201 232:0.0308268 233:0.0176107 234:0.0198568 235:0.0319336 236:0.0214193 237:0.0506836 238:0.0386719 239:0.0579753 240:0.036556 241:0.0213542 242:0.101074 243:0.0250326 244:0.0977539 245:0.0339844 246:0.10765 247:0.034668 248:0.110612 249:0.0135742 250:0.0227865 251:0.0241211 252:0.0279297 253:0.0198568 254:0.0253906 255:0.0289714 256:0.029069 
720.1860720521759 1:0.0210938 2:0.0297201 3:0.0324544 4:0.0336263 5:0.0305664 6:0.0176432 7:0.0258789 8:0.0191406 9:0.0738932 10:0.0435221 11:0.0711914 12:0.0390625 13:0.0519531 14:0.0359049 15:0.0470378 16:0.0341797 17:0.0255208 18:0.0826497 19:0.0365234 20:0.0704427 21:0.0269531 22:0.0583984 23:0.0358724 24:0.0511068 25:0.0322591 26:0.0288411 27:0.027832 28:0.0238281 29:0.0323242 30:0.0285156 31:0.0199219 32:0.0198242 33:0.0102865 34:0.0145833 35:0.0139648 36:0.0115885 37:0.019694 38:0.011849 39:0.0148763 40:0.0126628 41:0.0174154 42:0.0208984 43:0.0196615 44:0.0168294 45:0.0346029 46:0.0286784 47:0.0371745 48:0.020931 49:0.0189453 50:0.0317057 51:0.0275716 52:0.041276 53:0.0263672 54:0.0316406 55:0.0285482 56:0.0390625 57:0.0170898 58:0.0225911 59:0.0228841 60:0.017806 61:0.0289388 62:0.0245117 63:0.0226562 64:0.0150716 65:0.0289062 66:0.0299805 67:0.0464518 68:0.0364258 69:0.0301107 70:0.0222005 71:0.0277018 72:0.0250651 73:0.14515 74:0.070638 75:0.0952148 76:0.0702799 77:0.0539062 78:0.0319987 79:0.055599 80:0.0439128 81:0.0384766 82:0.119629 83:0.0850586 84:0.116243 85:0.0304688 86:0.0779297 87:0.0361654 88:0.0670247 89:0.0328451 90:0.0345378 91:0.0401042 92:0.0364909 93:0.0281576 94:0.0330078 95:0.0266276 96:0.0229492 97:0.0140299 98:0.0130534 99:0.0113607 100:0.0139974 101:0.0246094 102:0.0171875 103:0.0272786 104:0.0273763 105:0.0297852 106:0.0469727 107:0.0232747 108:0.030306 109:0.0391927 110:0.0294596 111:0.0363281 112:0.0356445 113:0.0185872 114:0.0370768 115:0.027832 116:0.0450521 117:0.0197266 118:0.0257487 119:0.0247721 120:0.0317383 121:0.0155273 122:0.025651 123:0.0223633 124:0.0253906 125:0.0192057 126:0.0242839 127:0.0345378 128:0.0214518 129:0.0238281 130:0.0291992 131:0.0238932 132:0.0260742 133:0.0379557 134:0.0181641 135:0.0230469 136:0.016862 137:0.0325195 138:0.028776 139:0.0297852 140:0.0202148 141:0.028418 142:0.0308594 143:0.0293945 144:0.024707 145:0.0268555 146:0.043457 147:0.0234375 148:0.030957 149:0.03125 150:0.0250977 151:0.0248698 152:0.0218424 153:0.0211589 154:0.0176107 155:0.0197266 156:0.0186198 157:0.0206706 158:0.0162109 159:0.0139974 160:0.013444 161:0.0203776 162:0.0341471 163:0.0304688 164:0.0299154 165:0.0663411 166:0.0593424 167:0.0704102 168:0.0616211 169:0.0382161 170:0.0433919 171:0.0405273 172:0.0264323 173:0.0848958 174:0.10179 175:0.122559 176:0.0710286 177:0.0422852 178:0.0973307 179:0.0466471 180:0.097819 181:0.124251 182:0.180241 183:0.171094 184:0.311882 185:0.0246094 186:0.0303385 187:0.0314453 188:0.0354167 189:0.0545898 190:0.0559896 191:0.0691081 192:0.0701172 193:0.0171224 194:0.0253906 195:0.0201823 196:0.021224 197:0.014388 198:0.0179362 199:0.0144531 200:0.0131836 201:0.0229167 202:0.0237305 203:0.0245117 204:0.0283529 205:0.0218424 206:0.0229492 207:0.0236003 208:0.0231445 209:0.0307292 210:0.0700846 211:0.0336263 212:0.0535807 213:0.0193685 214:0.0448242 215:0.0220378 216:0.0321615 217:0.0161458 218:0.0168945 219:0.0193034 220:0.0221029 221:0.0128255 222:0.0152669 223:0.0165039 224:0.0160156 225:0.0126953 226:0.0260742 227:0.0229818 228:0.0299479 229:0.0284505 230:0.0458659 231:0.0467448 232:0.0460937 233:0.0256836 234:0.0300456 235:0.0288411 236:0.0323568 237:0.0734049 238:0.0530273 239:0.0843099 240:0.0591797 241:0.0311198 242:0.0937826 243:0.0518555 244:0.0917643 245:0.0620117 246:0.138379 247:0.0794922 248:0.208073 249:0.0143229 250:0.0290365 251:0.0258138 252:0.0450521 253:0.0288411 254:0.0410807 255:0.0448568 256:0.0467773 
4311.073695447671 1:0.0406576 2:0.0428711 3:0.0321289 4:0.0376953 5:0.0410156 6:0.0277995 7:0.024349 8:0.0148438 9:0.0875651 10:0.061263 11:0.0835286 12:0.0445312 13:0.0908203 14:0.0419271 15:0.0473633 16:0.0257487 17:0.0666341 18:0.162826 19:0.0591146 20:0.126465 21:0.0426758 22:0.0570638 23:0.0323242 24:0.0448893 25:0.0439128 26:0.0586914 27:0.0345378 28:0.0517904 29:0.0282552 30:0.0325195 31:0.0179036 32:0.020638 33:0.0115885 34:0.0133138 35:0.0109049 36:0.0104818 37:0.0172852 38:0.0126953 39:0.0124674 40:0.00999349 41:0.0179688 42:0.0172852 43:0.0312174 44:0.0117187 45:0.0290039 46:0.0318034 47:0.028776 48:0.0177083 49:0.0153971 50:0.0347656 51:0.024707 52:0.0419596 53:0.0234049 54:0.0297852 55:0.0230469 56:0.0390625 57:0.0120443 58:0.0204102 59:0.0198893 60:0.0145508 61:0.0237305 62:0.0201823 63:0.0176432 64:0.0149089 65:0.0401367 66:0.0677083 67:0.0495117 68:0.0788411 69:0.0381836 70:0.0487956 71:0.0323568 72:0.0472331 73:0.0976237 74:0.096875 75:0.0799805 76:0.076237 77:0.0529622 78:0.0432617 79:0.0606771 80:0.0411784 81:0.0816406 82:0.277018 83:0.120182 84:0.243262 85:0.044401 86:0.0970703 87:0.043457 88:0.0816081 89:0.0472331 90:0.0831055 91:0.0475911 92:0.0833984 93:0.0323242 94:0.0411784 95:0.0338867 96:0.0300456 97:0.00852865 98:0.0125977 99:0.0101563 100:0.0176432 101:0.0203776 102:0.0244466 103:0.0144531 104:0.039681 105:0.021224 106:0.0169271 107:0.0201172 108:0.0155273 109:0.040332 110:0.0321289 111:0.0326497 112:0.0244466 113:0.0173828 114:0.0546224 115:0.0273763 116:0.0609375 117:0.0167969 118:0.0441081 119:0.0227214 120:0.0630208 121:0.0111979 122:0.0217122 123:0.022168 124:0.0313151 125:0.0245768 126:0.0222982 127:0.0326823 128:0.0184245 129:0.0235352 130:0.0270182 131:0.0266602 132:0.0189453 133:0.0241536 134:0.0138672 135:0.025293 136:0.0155599 137:0.028418 138:0.0353516 139:0.0316406 140:0.0180339 141:0.0272461 142:0.0367187 143:0.0264323 144:0.0261393 145:0.0189128 146:0.081901 147:0.0182617 148:0.0611979 149:0.0202474 150:0.0327799 151:0.0251628 152:0.0448568 153:0.0165365 154:0.0192383 155:0.0178385 156:0.0262044 157:0.0146159 158:0.0151042 159:0.00924479 160:0.0123698 161:0.0227214 162:0.0257487 163:0.0216146 164:0.0182617 165:0.050293 166:0.0313151 167:0.0602865 168:0.0262044 169:0.045931 170:0.0378255 171:0.0530599 172:0.0176432 173:0.114616 174:0.087793 175:0.177865 176:0.0598633 177:0.0228516 178:0.091862 179:0.0317383 180:0.102181 181:0.0570964 182:0.0799805 183:0.0686523 184:0.135937 185:0.0236654 186:0.0232422 187:0.0265625 188:0.0280924 189:0.0476237 190:0.0330729 191:0.0471029 192:0.0283854 193:0.0161784 194:0.01875 195:0.0184896 196:0.0154622 197:0.0114258 198:0.0162109 199:0.0156901 200:0.0125 201:0.0205404 202:0.0189128 203:0.0192383 204:0.0113281 205:0.0263021 206:0.0173828 207:0.0233724 208:0.017806 209:0.0288086 210:0.0745443 211:0.0326172 212:0.0520833 213:0.0168945 214:0.0390299 215:0.0145833 216:0.0310547 217:0.0105794 218:0.0135742 219:0.0163737 220:0.0148438 221:0.0138021 222:0.0130534 223:0.0156576 224:0.0143229 225:0.0140625 226:0.0164062 227:0.0204753 228:0.0164714 229:0.0278646 230:0.0258789 231:0.0325521 232:0.0286133 233:0.0384766 234:0.0279948 235:0.039974 236:0.0176758 237:0.0777995 238:0.0436523 239:0.104232 240:0.0420247 241:0.0212891 242:0.084082 243:0.0258464 244:0.113216 245:0.0326823 246:0.10013 247:0.0355143 248:0.109635 249:0.0146484 250:0.0186849 251:0.0259115 252:0.0383138 253:0.0308268 254:0.0248698 255:0.0370443 256:0.0275716 
11375.39268022557 1:0.12028 2:0.0136393 3:0.0194661 4:0.0174479 5:0.0174479 6:0.00953776 7:0.0242187 8:0.0153971 9:0.0926107 10:0.0448568 11:0.0738932 12:0.0351888 13:0.0405273 14:0.0282552 15:0.0408529 16:0.0294922 17:0.0227539 18:0.0472656 19:0.0349609 20:0.0551107 21:0.027474 22:0.035026 23:0.0317057 24:0.042513 25:0.0310547 26:0.033431 27:0.0242187 28:0.0217122 29:0.0263997 30:0.0189453 31:0.0158529 32:0.0138997 33:0.0078125 34:0.00992839 35:0.0101563 36:0.0086263 37:0.0152344 38:0.0109049 39:0.0189128 40:0.0116211 41:0.0112956 42:0.0175456 43:0.0125977 44:0.0104167 45:0.0170247 46:0.0217122 47:0.0222331 48:0.0174479 49:0.0143229 50:0.0510091 51:0.0230143 52:0.0509766 53:0.0278646 54:0.0426107 55:0.0283203 56:0.0613932 57:0.00970052 58:0.019043 59:0.0159831 60:0.0126628 61:0.0181966 62:0.0132487 63:0.0166667 64:0.0113932 65:0.0313477 66:0.0344727 67:0.0359375 68:0.0323568 69:0.0363281 70:0.0166016 71:0.0304688 72:0.0233398 73:0.17806 74:0.0941732 75:0.0888997 76:0.0754883 77:0.0592122 78:0.0286458 79:0.0592773 80:0.0407878 81:0.0351237 82:0.0851563 83:0.0436849 84:0.0679687 85:0.027474 86:0.0596029 87:0.0258138 88:0.0458333 89:0.0345703 90:0.0293945 91:0.0297526 92:0.0287109 93:0.019043 94:0.0138346 95:0.0174805 96:0.0141602 97:0.00911458 98:0.0201823 99:0.0109375 100:0.0158854 101:0.0508789 102:0.0579102 103:0.0531901 104:0.0797852 105:0.0237305 106:0.0552409 107:0.0153646 108:0.0245117 109:0.0347005 110:0.0345703 111:0.0397786 112:0.0329753 113:0.017513 114:0.0859701 115:0.0245443 116:0.0580404 117:0.0351237 118:0.0788411 119:0.0316081 120:0.0842773 121:0.0140951 122:0.0335937 123:0.0190104 124:0.0233398 125:0.0186198 126:0.0133464 127:0.0360352 128:0.0179036 129:0.0253906 130:0.0217773 131:0.0190104 132:0.0171875 133:0.0238932 134:0.014388 135:0.0314779 136:0.0202148 137:0.0307292 138:0.0367839 139:0.0235026 140:0.0229167 141:0.0198568 142:0.0250651 143:0.0223958 144:0.0277669 145:0.0352539 146:0.0755534 147:0.0349935 148:0.0726563 149:0.0241211 150:0.0368164 151:0.0286458 152:0.061556 153:0.0619466 154:0.0672201 155:0.0492839 156:0.0620117 157:0.0165365 158:0.0170247 159:0.0146159 160:0.021582 161:0.013444 162:0.024349 163:0.0145508 164:0.0154948 165:0.0302083 166:0.0358724 167:0.0313477 168:0.0366862 169:0.016276 170:0.0265625 171:0.0264648 172:0.0162435 173:0.0311849 174:0.0698893 175:0.0507813 176:0.0402344 177:0.0320312 178:0.164388 179:0.0459635 180:0.203809 181:0.0861003 182:0.266504 183:0.108464 184:0.469596 185:0.0172852 186:0.0333008 187:0.0302409 188:0.0438151 189:0.0295573 190:0.0372396 191:0.0352539 192:0.0491536 193:0.0207682 194:0.0281576 195:0.0143555 196:0.0177409 197:0.0140625 198:0.0132487 199:0.0127279 200:0.0138346 201:0.0186198 202:0.0306641 203:0.0146159 204:0.0247396 205:0.00836589 206:0.015918 207:0.00843099 208:0.0157878 209:0.0366862 210:0.0931315 211:0.0333008 212:0.0685872 213:0.0229167 214:0.0522461 215:0.0173828 216:0.0494141 217:0.0188802 218:0.021582 219:0.0146484 220:0.0183594 221:0.0115234 222:0.0119792 223:0.00898438 224:0.0162109 225:0.00810547 226:0.0199219 227:0.010612 228:0.0145508 229:0.0193359 230:0.0506185 231:0.022819 232:0.0453776 233:0.0163737 234:0.0201823 235:0.0121745 236:0.0168945 237:0.0382487 238:0.0366211 239:0.0495443 240:0.0360352 241:0.0222005 242:0.165885 243:0.0385417 244:0.173698 245:0.0462891 246:0.261621 247:0.0440755 248:0.337663 249:0.00764974 250:0.0217122 251:0.019694 252:0.0333333 253:0.0202474 254:0.0267904 255:0.0239909 256:0.0379232 
3069.458117384504 1:0.019401 2:0.0265951 3:0.0251628 4:0.023112 5:0.0276367 6:0.0128581 7:0.0205729 8:0.014681 9:0.122917 10:0.0522135 11:0.135579 12:0.040625 13:0.058138 14:0.0191406 15:0.0444661 16:0.0229167 17:0.0268555 18:0.0733398 19:0.0296875 20:0.0794922 21:0.0273437 22:0.0565755 23:0.0271484 24:0.0410156 25:0.0352539 26:0.0398763 27:0.0262044 28:0.0237956 29:0.0302734 30:0.0263346 31:0.015918 32:0.0185547 33:0.00501302 34:0.010319 35:0.0106445 36:0.00833333 37:0.0198893 38:0.0122396 39:0.0165365 40:0.0106771 41:0.0155273 42:0.019694 43:0.0155273 44:0.0100586 45:0.0358398 46:0.021875 47:0.0363281 48:0.0133138 49:0.0128906 50:0.0383138 51:0.0218424 52:0.0390951 53:0.0337891 54:0.0317708 55:0.0245117 56:0.0357747 57:0.0117187 58:0.0235677 59:0.0169922 60:0.0144531 61:0.0280273 62:0.0225911 63:0.0173503 64:0.0102214 65:0.0388021 66:0.0366862 67:0.043099 68:0.052474 69:0.0315104 70:0.0270833 71:0.0355469 72:0.0305664 73:0.177734 74:0.0814779 75:0.122559 76:0.0906901 77:0.0551107 78:0.0266602 79:0.055306 80:0.0408529 81:0.0393555 82:0.105176 83:0.0741211 84:0.107812 85:0.0328125 86:0.0677409 87:0.0328776 88:0.0532552 89:0.0366211 90:0.0356771 91:0.0370443 92:0.0377604 93:0.0194987 94:0.0227865 95:0.0178385 96:0.0222656 97:0.00823568 98:0.0159505 99:0.0123698 100:0.0184896 101:0.0252279 102:0.0277669 103:0.0291667 104:0.0335286 105:0.0303385 106:0.0280924 107:0.0209961 108:0.0272461 109:0.0391276 110:0.0234701 111:0.0477214 112:0.0310872 113:0.0144857 114:0.0579427 115:0.0301758 116:0.0566406 117:0.021582 118:0.0469727 119:0.0296224 120:0.0489583 121:0.0108073 122:0.0241536 123:0.0223633 124:0.0383789 125:0.0140625 126:0.0163737 127:0.023112 128:0.015918 129:0.0232747 130:0.0288411 131:0.025293 132:0.0201823 133:0.0234049 134:0.0196615 135:0.0212891 136:0.0198242 137:0.0284831 138:0.0273437 139:0.0312174 140:0.0189453 141:0.0338542 142:0.0269857 143:0.035026 144:0.0300456 145:0.0320638 146:0.0475911 147:0.0204753 148:0.0378906 149:0.0238607 150:0.0266927 151:0.024707 152:0.0334961 153:0.0276693 154:0.0255534 155:0.0206055 156:0.0193359 157:0.0194336 158:0.0166341 159:0.0102214 160:0.0181315 161:0.0203125 162:0.0306641 163:0.0266602 164:0.0228841 165:0.0532552 166:0.0525391 167:0.065918 168:0.0519857 169:0.0307617 170:0.0391602 171:0.0372396 172:0.0215495 173:0.0931315 174:0.102246 175:0.0942708 176:0.0676758 177:0.0415039 178:0.124186 179:0.0453125 180:0.160449 181:0.111491 182:0.238672 183:0.132357 184:0.347396 185:0.0232747 186:0.0300456 187:0.0388672 188:0.0376302 189:0.043099 190:0.0477539 191:0.0610352 192:0.0581706 193:0.0208008 194:0.0284831 195:0.0154622 196:0.0169596 197:0.0121745 198:0.0160807 199:0.0123698 200:0.0121745 201:0.0218424 202:0.0218424 203:0.0158529 204:0.0192383 205:0.0176758 206:0.0153646 207:0.0158529 208:0.0197917 209:0.0406576 210:0.0648112 211:0.0342122 212:0.0554036 213:0.0217448 214:0.0376628 215:0.0148763 216:0.0316081 217:0.0179036 218:0.0152344 219:0.018457 220:0.0226562 221:0.0142578 222:0.0117513 223:0.00901693 224:0.0172526 225:0.0116536 226:0.0194987 227:0.016862 228:0.01875 229:0.0272461 230:0.0443034 231:0.0376628 232:0.0418945 233:0.0198568 234:0.0226237 235:0.0336914 236:0.0236654 237:0.0680339 238:0.0505859 239:0.0726563 240:0.057487 241:0.0213867 242:0.106771 243:0.0410807 244:0.14707 245:0.0445638 246:0.187467 247:0.0633789 248:0.260156 249:0.00940755 250:0.0181315 251:0.031543 252:0.0392253 253:0.0179688 254:0.0295898 255:0.0310221 256:0.0381836 
476.0492688215211 1:0.0193034 2:0.0277344 3:0.0258789 4:0.0275065 5:0.0314128 6:0.0129557 7:0.019694 8:0.0165039 9:0.102148 10:0.0500326 11:0.123079 12:0.0362956 13:0.0574219 14:0.0248698 15:0.0378581 16:0.0232747 17:0.0266602 18:0.0770508 19:0.0332682 20:0.0835938 21:0.0303711 22:0.0498372 23:0.0259115 24:0.0382812 25:0.0343424 26:0.0418294 27:0.0235677 28:0.0269857 29:0.033138 30:0.0244466 31:0.0159505 32:0.0167318 33:0.00540365 34:0.0107747 35:0.0127279 36:0.00917969 37:0.019987 38:0.011263 39:0.0148438 40:0.0104167 41:0.0178711 42:0.0180013 43:0.0169922 44:0.0119466 45:0.0376628 46:0.0208659 47:0.0373047 48:0.0123372 49:0.0117187 50:0.0307292 51:0.0227865 52:0.0338542 53:0.0321289 54:0.0326823 55:0.024707 56:0.0342773 57:0.0122396 58:0.0227214 59:0.016862 60:0.012793 61:0.0262044 62:0.0213867 63:0.0156901 64:0.0105469 65:0.0366211 66:0.0427083 67:0.0388997 68:0.0462891 69:0.0299479 70:0.0279622 71:0.0339193 72:0.0283529 73:0.141699 74:0.0914714 75:0.107617 76:0.0877279 77:0.0513997 78:0.0254883 79:0.05 80:0.0425781 81:0.0449219 82:0.127604 83:0.0900391 84:0.120833 85:0.031543 86:0.068099 87:0.0360026 88:0.053776 89:0.0342448 90:0.0399414 91:0.0335286 92:0.0426758 93:0.0182617 94:0.0198568 95:0.0180664 96:0.0207682 97:0.00927734 98:0.0145833 99:0.0118815 100:0.0195964 101:0.0236654 102:0.0255208 103:0.0278646 104:0.0316732 105:0.0355794 106:0.031901 107:0.0221354 108:0.0320638 109:0.0411458 110:0.0233398 111:0.0449219 112:0.0308594 113:0.0162435 114:0.0493164 115:0.0279948 116:0.0557292 117:0.0205729 118:0.0390299 119:0.0245443 120:0.0546875 121:0.0111654 122:0.0239258 123:0.0236654 124:0.0365234 125:0.0118164 126:0.0139974 127:0.0202799 128:0.0151693 129:0.0257161 130:0.0337565 131:0.0263672 132:0.0197266 133:0.0220378 134:0.0171549 135:0.0206055 136:0.0183594 137:0.0298177 138:0.0292318 139:0.0295898 140:0.0182292 141:0.0345703 142:0.0266602 143:0.033138 144:0.0259766 145:0.0305664 146:0.0485677 147:0.0208984 148:0.0398112 149:0.025293 150:0.0246419 151:0.0217773 152:0.0301107 153:0.0309896 154:0.0245443 155:0.0188151 156:0.0194987 157:0.0190755 158:0.0145833 159:0.00872396 160:0.0150391 161:0.0155599 162:0.0311849 163:0.025944 164:0.0216471 165:0.0596354 166:0.0557292 167:0.0704102 168:0.0535807 169:0.0274089 170:0.0351888 171:0.0267578 172:0.0233724 173:0.0956055 174:0.11084 175:0.117773 176:0.0690104 177:0.0437174 178:0.142676 179:0.0437174 180:0.170215 181:0.113835 182:0.243197 183:0.139388 184:0.344401 185:0.0224935 186:0.0263997 187:0.0317383 188:0.0369792 189:0.0412435 190:0.0466797 191:0.0620443 192:0.0624023 193:0.0202799 194:0.0273437 195:0.0146159 196:0.0172526 197:0.012207 198:0.0164062 199:0.00852865 200:0.0123047 201:0.0217773 202:0.0223958 203:0.0151693 204:0.0207031 205:0.0226237 206:0.0147135 207:0.0163411 208:0.0206055 209:0.035612 210:0.0600911 211:0.0330404 212:0.05625 213:0.0200195 214:0.0332357 215:0.0138021 216:0.0285807 217:0.018457 218:0.012793 219:0.0212891 220:0.0216471 221:0.0114583 222:0.00895182 223:0.00940755 224:0.0148763 225:0.00970052 226:0.016569 227:0.0169271 228:0.0190104 229:0.0267253 230:0.0452148 231:0.0389323 232:0.0479818 233:0.0221029 234:0.0197917 235:0.0322591 236:0.0267578 237:0.0717448 238:0.0515299 239:0.0728516 240:0.0504883 241:0.0238932 242:0.112012 243:0.0384115 244:0.155371 245:0.0483724 246:0.188932 247:0.0661784 248:0.273242 249:0.0102214 250:0.0192708 251:0.029069 252:0.0402018 253:0.0215169 254:0.029069 255:0.0375 256:0.0403646 
29391.82425321488 1:0.0681315 2:0.0754557 3:0.0347656 4:0.0506185 5:0.0238607 6:0.0349609 7:0.0224284 8:0.0208659 9:0.10013 10:0.0695964 11:0.102865 12:0.0508138 13:0.0625326 14:0.045638 15:0.0481445 16:0.0351563 17:0.0738607 18:0.188704 19:0.0731771 20:0.141602 21:0.0483073 22:0.0904622 23:0.0371745 24:0.0616536 25:0.0385091 26:0.0672852 27:0.0321615 28:0.0464844 29:0.0241211 30:0.0496094 31:0.0194987 32:0.0223633 33:0.00686849 34:0.0126302 35:0.00917969 36:0.0108073 37:0.00953776 38:0.011556 39:0.00885417 40:0.00833333 41:0.0142904 42:0.0139974 43:0.0139323 44:0.0114258 45:0.0160807 46:0.0217448 47:0.0178385 48:0.0185221 49:0.0152344 50:0.0491536 51:0.0238607 52:0.0464844 53:0.0256185 54:0.0475586 55:0.0220378 56:0.0448568 57:0.00992839 58:0.0187174 59:0.0119466 60:0.012793 61:0.0170898 62:0.0214518 63:0.0129232 64:0.0115234 65:0.0469401 66:0.0857096 67:0.0530599 68:0.0844076 69:0.0287435 70:0.0344076 71:0.0307292 72:0.0333659 73:0.123926 74:0.111654 75:0.1 76:0.0894531 77:0.0608073 78:0.0479167 79:0.0562174 80:0.0427409 81:0.113835 82:0.351465 83:0.169824 84:0.279818 85:0.0550456 86:0.130632 87:0.0483398 88:0.111003 89:0.0547852 90:0.099707 91:0.054362 92:0.0951497 93:0.0327799 94:0.0584961 95:0.0311849 96:0.0370117 97:0.00755208 98:0.0119792 99:0.0115234 100:0.0170898 101:0.0135742 102:0.0158529 103:0.0141927 104:0.0165039 105:0.0157227 106:0.0151367 107:0.0117513 108:0.0173503 109:0.0283854 110:0.0295898 111:0.0262695 112:0.0213867 113:0.0186523 114:0.0683919 115:0.0340495 116:0.0721029 117:0.0188151 118:0.0517253 119:0.021582 120:0.061849 121:0.00989583 122:0.0184245 123:0.014388 124:0.0210286 125:0.0177409 126:0.0169271 127:0.0201172 128:0.0147135 129:0.0207357 130:0.0257161 131:0.0199219 132:0.0138021 133:0.0173503 134:0.0142578 135:0.0181641 136:0.0139323 137:0.0161784 138:0.0287109 139:0.011556 140:0.0179362 141:0.0135742 142:0.0290039 143:0.0149089 144:0.0204102 145:0.0234375 146:0.0711589 147:0.0214193 148:0.0576497 149:0.0213867 150:0.0364583 151:0.0277018 152:0.0564453 153:0.0117187 154:0.0173177 155:0.0120768 156:0.0151042 157:0.0105143 158:0.0178711 159:0.00797526 160:0.0135417 161:0.021582 162:0.0248047 163:0.0222005 164:0.0216471 165:0.0398112 166:0.0369466 167:0.0531576 168:0.033431 169:0.0234049 170:0.0274414 171:0.0325195 172:0.0220378 173:0.0818034 174:0.075 175:0.11888 176:0.0598958 177:0.0263346 178:0.0814453 179:0.0297526 180:0.0896159 181:0.0675456 182:0.0981771 183:0.0715169 184:0.151009 185:0.0138672 186:0.022819 187:0.0181966 188:0.0198242 189:0.0404948 190:0.0439779 191:0.0418294 192:0.0339193 193:0.0115234 194:0.0190755 195:0.0123372 196:0.0146484 197:0.00794271 198:0.00970052 199:0.0117513 200:0.00927734 201:0.0135417 202:0.0219727 203:0.0102865 204:0.0169271 205:0.011849 206:0.0140951 207:0.0132813 208:0.0163737 209:0.0328776 210:0.0899414 211:0.037207 212:0.0594076 213:0.0202148 214:0.0404622 215:0.0166667 216:0.0354492 217:0.0131185 218:0.0175456 219:0.0121745 220:0.0173828 221:0.00973307 222:0.0130534 223:0.00791016 224:0.0128906 225:0.011263 226:0.0177734 227:0.0209961 228:0.017513 229:0.0209635 230:0.0260091 231:0.0270833 232:0.0245117 233:0.0141276 234:0.019401 235:0.0238607 236:0.0198893 237:0.0557617 238:0.0378581 239:0.0791341 240:0.0448568 241:0.0214844 242:0.0858398 243:0.0369141 244:0.0718424 245:0.0391602 246:0.0848958 247:0.0427734 248:0.105241 249:0.0116862 250:0.0157227 251:0.0179036 252:0.0198893 253:0.0227865 254:0.0214844 255:0.0320638 256:0.0303711 
11566.64420538475 1:0.0370768 2:0.0516927 3:0.0356771 4:0.0418294 5:0.0277018 6:0.0237956 7:0.01875 8:0.0179036 9:0.0810547 10:0.0548828 11:0.0843099 12:0.0380534 13:0.0451172 14:0.0335937 15:0.0328125 16:0.0233724 17:0.0421549 18:0.194499 19:0.0476888 20:0.169954 21:0.0311198 22:0.0708984 23:0.0270182 24:0.0595378 25:0.0337891 26:0.0549805 27:0.030013 28:0.036849 29:0.0307617 30:0.0504232 31:0.0205404 32:0.0185872 33:0.0100911 34:0.0161458 35:0.0169271 36:0.0130534 37:0.0158854 38:0.0121094 39:0.0159505 40:0.010319 41:0.0138021 42:0.0180013 43:0.0275391 44:0.0153971 45:0.0227214 46:0.0264974 47:0.0320312 48:0.0191732 49:0.017806 50:0.0541016 51:0.0248047 52:0.0480469 53:0.0304362 54:0.039681 55:0.0252604 56:0.0332682 57:0.0160807 58:0.0239258 59:0.0182292 60:0.0141927 61:0.0265951 62:0.0295247 63:0.0197917 64:0.0129232 65:0.0410807 66:0.0663737 67:0.0523763 68:0.0669922 69:0.0439779 70:0.0328451 71:0.0391927 72:0.0389323 73:0.0808919 74:0.0683594 75:0.0697591 76:0.0662109 77:0.0518555 78:0.0388997 79:0.0540039 80:0.0413086 81:0.0712891 82:0.320117 83:0.0881185 84:0.232129 85:0.0414388 86:0.101986 87:0.0425456 88:0.084668 89:0.0437174 90:0.0644206 91:0.0441732 92:0.0606771 93:0.0360026 94:0.0458333 95:0.0353516 96:0.0295898 97:0.00999349 98:0.0157227 99:0.0136068 100:0.0189128 101:0.0237305 102:0.0371419 103:0.0277018 104:0.0412435 105:0.0141276 106:0.0183268 107:0.0217448 108:0.0242187 109:0.0265951 110:0.0279297 111:0.0433919 112:0.0322266 113:0.018457 114:0.0691406 115:0.0237956 116:0.0631836 117:0.0203451 118:0.0504232 119:0.024707 120:0.0499349 121:0.0104492 122:0.0185872 123:0.0211589 124:0.0252279 125:0.0210938 126:0.0193685 127:0.0291992 128:0.0205404 129:0.0223633 130:0.0258789 131:0.0247721 132:0.0181641 133:0.0213216 134:0.0159505 135:0.021875 136:0.0197591 137:0.0266602 138:0.0319987 139:0.0205078 140:0.019401 141:0.0197917 142:0.0282878 143:0.0200521 144:0.0316081 145:0.0265625 146:0.0516602 147:0.0221029 148:0.0505859 149:0.0298503 150:0.0339518 151:0.0315755 152:0.0494466 153:0.027832 154:0.0213542 155:0.0176432 156:0.0283529 157:0.0189128 158:0.0245117 159:0.0130859 160:0.0188477 161:0.0265625 162:0.0323568 163:0.0325846 164:0.022819 165:0.0536784 166:0.0452474 167:0.0554036 168:0.0408203 169:0.0538737 170:0.0389974 171:0.0735352 172:0.029362 173:0.0703451 174:0.0790039 175:0.0864583 176:0.0691732 177:0.0355143 178:0.0707031 179:0.0445964 180:0.0739909 181:0.0818359 182:0.0872721 183:0.0880534 184:0.101595 185:0.0230794 186:0.0261068 187:0.0316406 188:0.029069 189:0.0458659 190:0.0414388 191:0.0573893 192:0.0403646 193:0.0197591 194:0.0204427 195:0.0225911 196:0.014388 197:0.014974 198:0.0149414 199:0.0161784 200:0.0163411 201:0.0220378 202:0.0222331 203:0.0230469 204:0.0152995 205:0.0257813 206:0.019694 207:0.0242839 208:0.0201497 209:0.0345378 210:0.0644206 211:0.0289062 212:0.0553711 213:0.022819 214:0.0399089 215:0.0215495 216:0.0390299 217:0.0188151 218:0.0176432 219:0.0168945 220:0.0263672 221:0.0198568 222:0.0186849 223:0.0152344 224:0.0163086 225:0.0137695 226:0.0208333 227:0.0215169 228:0.0172526 229:0.027474 230:0.0419922 231:0.0321289 232:0.0329753 233:0.0376628 234:0.0260742 235:0.0520182 236:0.0251302 237:0.0648763 238:0.0453776 239:0.0678711 240:0.0536784 241:0.0289714 242:0.0646484 243:0.0356771 244:0.0798177 245:0.0503906 246:0.108138 247:0.0544271 248:0.0971029 249:0.0154297 250:0.0193685 251:0.0283854 252:0.0365234 253:0.0330729 254:0.0315755 255:0.0388672 256:0.0409831 
3611.145161115938 1:0.0338867 2:0.0514323 3:0.0347982 4:0.0450846 5:0.0311198 6:0.0210286 7:0.0239909 8:0.0180013 9:0.0786458 10:0.0529297 11:0.0827799 12:0.0409505 13:0.0438477 14:0.0390951 15:0.0321289 16:0.0282552 17:0.0482096 18:0.201725 19:0.0509766 20:0.170605 21:0.0372396 22:0.0730143 23:0.0278971 24:0.0635417 25:0.035319 26:0.0604818 27:0.0281576 28:0.0360026 29:0.0334961 30:0.0473958 31:0.0191081 32:0.0226237 33:0.00823568 34:0.0140299 35:0.0197917 36:0.0147461 37:0.0160807 38:0.0133464 39:0.0159505 40:0.010319 41:0.0157878 42:0.0199544 43:0.0301107 44:0.0160807 45:0.0252279 46:0.0284505 47:0.0308268 48:0.0184896 49:0.0189779 50:0.0552083 51:0.0280273 52:0.0513346 53:0.0303711 54:0.0380534 55:0.0253581 56:0.0328125 57:0.0135417 58:0.023112 59:0.0181641 60:0.0152018 61:0.0277669 62:0.0341146 63:0.0184245 64:0.0157227 65:0.0375 66:0.0641276 67:0.0537435 68:0.0740885 69:0.043457 70:0.0340495 71:0.0429362 72:0.0423177 73:0.0694987 74:0.065918 75:0.0652018 76:0.0737956 77:0.0527669 78:0.0347005 79:0.0595378 80:0.0429036 81:0.0770508 82:0.292773 83:0.0892578 84:0.221224 85:0.046875 86:0.105892 87:0.0453776 88:0.0800781 89:0.0441406 90:0.061263 91:0.0487305 92:0.0658854 93:0.0381185 94:0.0470703 95:0.0350911 96:0.0331055 97:0.00999349 98:0.0150716 99:0.0119792 100:0.0188477 101:0.0239583 102:0.0328776 103:0.0285156 104:0.038737 105:0.0136393 106:0.0216146 107:0.023763 108:0.0205729 109:0.0248698 110:0.0255859 111:0.0375 112:0.0318359 113:0.0166016 114:0.0631185 115:0.025 116:0.0607422 117:0.0237305 118:0.0498698 119:0.0260417 120:0.0429362 121:0.0113932 122:0.0194336 123:0.0211914 124:0.024707 125:0.0217122 126:0.0186849 127:0.0283529 128:0.0172201 129:0.023112 130:0.0253581 131:0.0249349 132:0.0176432 133:0.0198242 134:0.0139648 135:0.0210938 136:0.0205078 137:0.0253255 138:0.0335612 139:0.021875 140:0.0202148 141:0.0228516 142:0.0277018 143:0.0196615 144:0.0313802 145:0.025293 146:0.0493164 147:0.0210938 148:0.0493815 149:0.0305339 150:0.0311523 151:0.0288086 152:0.0450521 153:0.0260417 154:0.0261393 155:0.0183268 156:0.0275065 157:0.0185547 158:0.0206706 159:0.0128906 160:0.0188151 161:0.0266927 162:0.0311523 163:0.0356771 164:0.021875 165:0.0509115 166:0.0474935 167:0.0564453 168:0.0403646 169:0.0554036 170:0.0392904 171:0.0784831 172:0.0275716 173:0.0733724 174:0.0775065 175:0.0908529 176:0.0641927 177:0.0317383 178:0.0696289 179:0.0430664 180:0.0777018 181:0.079362 182:0.0826172 183:0.0864909 184:0.0960612 185:0.0230469 186:0.0254557 187:0.0310221 188:0.0270182 189:0.0413086 190:0.0439453 191:0.0507487 192:0.0409505 193:0.0210612 194:0.0207031 195:0.0199219 196:0.0148763 197:0.0157227 198:0.0173503 199:0.0133138 200:0.0181315 201:0.0226562 202:0.0248698 203:0.0216471 204:0.0184245 205:0.024707 206:0.0200195 207:0.0241862 208:0.0202799 209:0.0360677 210:0.0582682 211:0.0333008 212:0.0547852 213:0.0240885 214:0.0414063 215:0.022168 216:0.0430013 217:0.0193359 218:0.0177409 219:0.0205078 220:0.025293 221:0.0175456 222:0.0200195 223:0.0151693 224:0.015918 225:0.0168294 226:0.0220052 227:0.0207031 228:0.0153646 229:0.0267904 230:0.0392904 231:0.0329753 232:0.0305339 233:0.0397786 234:0.026237 235:0.0521484 236:0.0260091 237:0.0639648 238:0.0465495 239:0.0770508 240:0.0482747 241:0.0317383 242:0.0675781 243:0.0385417 244:0.080306 245:0.0481445 246:0.104329 247:0.0511068 248:0.0943685 249:0.0161458 250:0.0210286 251:0.0310872 252:0.0350586 253:0.0318685 254:0.0287109 255:0.0343099 256:0.0366862 
18013.62686074897 1:0.027832 2:0.0267578 3:0.0306641 4:0.0308594 5:0.0212565 6:0.0161133 7:0.0295898 8:0.0234049 9:0.0650391 10:0.0613607 11:0.0589518 12:0.0481445 13:0.0392253 14:0.0409505 15:0.0397135 16:0.0484375 17:0.0355794 18:0.0793945 19:0.0422852 20:0.0689453 21:0.0421549 22:0.0427409 23:0.0419922 24:0.0367839 25:0.0302083 26:0.0387044 27:0.025 28:0.0240234 29:0.0354818 30:0.0349609 31:0.0210938 32:0.0248047 33:0.0109375 34:0.0137044 35:0.0129557 36:0.0117513 37:0.0169922 38:0.0169596 39:0.017806 40:0.0125326 41:0.0195964 42:0.0223633 43:0.0169922 44:0.0166992 45:0.032194 46:0.0326823 47:0.0325846 48:0.0256185 49:0.019987 50:0.0308268 51:0.0263672 52:0.0248047 53:0.0395833 54:0.0314128 55:0.0276042 56:0.0308919 57:0.0167318 58:0.0236003 59:0.0179362 60:0.0138346 61:0.0259766 62:0.0286133 63:0.0194987 64:0.0126628 65:0.0374674 66:0.0439128 67:0.055306 68:0.0517578 69:0.0259766 70:0.0189128 71:0.0364583 72:0.0263672 73:0.10765 74:0.103125 75:0.0783203 76:0.0958333 77:0.0401693 78:0.0368815 79:0.0516927 80:0.0496745 81:0.0652018 82:0.127083 83:0.100846 84:0.121159 85:0.0416016 86:0.0698568 87:0.0427734 88:0.0444336 89:0.040332 90:0.0468424 91:0.0394206 92:0.0479167 93:0.022526 94:0.0217448 95:0.0270508 96:0.0238932 97:0.0094401 98:0.0205078 99:0.0162109 100:0.0208984 101:0.0207357 102:0.0234701 103:0.027181 104:0.0294271 105:0.0308919 106:0.0385417 107:0.0205078 108:0.0389323 109:0.0283203 110:0.0268229 111:0.0361654 112:0.0338542 113:0.0234375 114:0.0439453 115:0.0388021 116:0.0486654 117:0.0304362 118:0.0423177 119:0.0259766 120:0.0453125 121:0.0180664 122:0.0358724 123:0.0308919 124:0.0320964 125:0.016276 126:0.0195638 127:0.0274089 128:0.0183594 129:0.0283529 130:0.0319336 131:0.0222656 132:0.022819 133:0.0230469 134:0.0226562 135:0.0197266 136:0.0217122 137:0.0289714 138:0.0377279 139:0.0285156 140:0.0241862 141:0.0264323 142:0.0359049 143:0.0282227 144:0.0366862 145:0.0325521 146:0.044694 147:0.0266602 148:0.0336914 149:0.0360352 150:0.0282552 151:0.0271159 152:0.0305664 153:0.0221354 154:0.0198568 155:0.0203451 156:0.0180664 157:0.0215495 158:0.0236328 159:0.013737 160:0.0226888 161:0.0261068 162:0.0366536 163:0.0336589 164:0.0286784 165:0.0714193 166:0.0709635 167:0.0791016 168:0.0609375 169:0.0367839 170:0.0416016 171:0.0404622 172:0.033431 173:0.0818685 174:0.0884115 175:0.11237 176:0.0914388 177:0.0430339 178:0.0933268 179:0.0522135 180:0.0998047 181:0.117155 182:0.130566 183:0.140983 184:0.180241 185:0.0314128 186:0.0334961 187:0.0376953 188:0.0371419 189:0.0612956 190:0.0579102 191:0.0727865 192:0.0584635 193:0.025 194:0.0283854 195:0.0211589 196:0.0189779 197:0.0161133 198:0.0169922 199:0.0133138 200:0.0138021 201:0.0196289 202:0.0347005 203:0.0127604 204:0.0299479 205:0.0198893 206:0.0220378 207:0.0166667 208:0.026237 209:0.0494466 210:0.0548177 211:0.0415039 212:0.0389648 213:0.0281901 214:0.0283203 215:0.0206706 216:0.0242513 217:0.0228516 218:0.0175456 219:0.0206055 220:0.0232422 221:0.0179036 222:0.016569 223:0.0129557 224:0.01875 225:0.0187826 226:0.0273437 227:0.0198242 228:0.0241211 229:0.0395508 230:0.0469727 231:0.0466471 232:0.0470378 233:0.0273112 234:0.0325521 235:0.0316081 236:0.0385742 237:0.0714193 238:0.0535156 239:0.0755208 240:0.0633789 241:0.0333659 242:0.0717122 243:0.0531576 244:0.0901367 245:0.0660156 246:0.120247 247:0.0703451 248:0.133789 249:0.0181315 250:0.0263021 251:0.0339518 252:0.0432943 253:0.0325521 254:0.0360352 255:0.043099 256:0.0526693 
22363.81179281745 1:0.0236328 2:0.0309245 3:0.0326172 4:0.0308594 5:0.0204102 6:0.017806 7:0.0296224 8:0.0213216 9:0.073112 10:0.0574544 11:0.0639974 12:0.0472656 13:0.0405924 14:0.041862 15:0.0402669 16:0.0430664 17:0.036263 18:0.0753581 19:0.0421549 20:0.0709635 21:0.0419271 22:0.0447917 23:0.0373047 24:0.0373698 25:0.032487 26:0.0421875 27:0.024056 28:0.0279622 29:0.0349284 30:0.0357096 31:0.0205404 32:0.0265299 33:0.00901693 34:0.0139648 35:0.0125 36:0.0130859 37:0.0165039 38:0.0152995 39:0.0189128 40:0.0102865 41:0.0156901 42:0.022526 43:0.0133789 44:0.0169596 45:0.0313802 46:0.0329753 47:0.0323893 48:0.0266602 49:0.017806 50:0.0328776 51:0.0222005 52:0.0301758 53:0.039681 54:0.0323893 55:0.0280273 56:0.0280273 57:0.014681 58:0.0196615 59:0.0152995 60:0.0147135 61:0.0271159 62:0.029362 63:0.0213867 64:0.0155273 65:0.0414388 66:0.047168 67:0.0573893 68:0.0554036 69:0.0247721 70:0.0198893 71:0.0344727 72:0.0277669 73:0.113281 74:0.0941732 75:0.0852214 76:0.0935872 77:0.0414388 78:0.0355469 79:0.0512695 80:0.0520182 81:0.0610677 82:0.118262 83:0.0940104 84:0.116536 85:0.0399089 86:0.0697917 87:0.0429362 88:0.0480794 89:0.0438802 90:0.0408854 91:0.046582 92:0.0503906 93:0.0251953 94:0.0236003 95:0.0276042 96:0.0272786 97:0.00976562 98:0.0183268 99:0.0195964 100:0.0203776 101:0.0233398 102:0.0216146 103:0.0277995 104:0.0340495 105:0.0291016 106:0.0400391 107:0.0186523 108:0.0359701 109:0.0277344 110:0.0260742 111:0.035026 112:0.0326823 113:0.0232096 114:0.0431966 115:0.0392904 116:0.0484049 117:0.0293945 118:0.0410807 119:0.0268229 120:0.0450195 121:0.0197591 122:0.0358398 123:0.0277669 124:0.0316406 125:0.0207357 126:0.0228841 127:0.0233073 128:0.0197591 129:0.0305339 130:0.0332682 131:0.0273763 132:0.0205078 133:0.0287109 134:0.0257161 135:0.0193359 136:0.019987 137:0.0263346 138:0.0358398 139:0.0260417 140:0.0230469 141:0.0292643 142:0.0375977 143:0.0285482 144:0.0341146 145:0.0346029 146:0.0450846 147:0.0258138 148:0.0264974 149:0.0357747 150:0.0272461 151:0.0234049 152:0.0245443 153:0.0224935 154:0.0179362 155:0.0171549 156:0.0151367 157:0.0225586 158:0.0188477 159:0.0139323 160:0.0199219 161:0.0294922 162:0.0431315 163:0.0360352 164:0.0314128 165:0.0690755 166:0.0684896 167:0.0745768 168:0.0541992 169:0.0382487 170:0.043099 171:0.044043 172:0.0362305 173:0.0972982 174:0.0990885 175:0.122168 176:0.090332 177:0.0468099 178:0.0882812 179:0.0523763 180:0.103776 181:0.115137 182:0.13597 183:0.126725 184:0.169499 185:0.0281576 186:0.0309896 187:0.0376628 188:0.0350911 189:0.0652669 190:0.0614909 191:0.067513 192:0.0595703 193:0.0243815 194:0.0289388 195:0.0214518 196:0.0219076 197:0.013737 198:0.0152018 199:0.0119141 200:0.0152669 201:0.0188477 202:0.0295247 203:0.0169922 204:0.0278971 205:0.0180664 206:0.0183919 207:0.0169271 208:0.0258138 209:0.0453451 210:0.0529948 211:0.049349 212:0.0419922 213:0.0265625 214:0.030957 215:0.0216146 216:0.0245443 217:0.0181641 218:0.0171875 219:0.0223307 220:0.0265625 221:0.0159831 222:0.0147135 223:0.0139323 224:0.0192708 225:0.0163737 226:0.0267578 227:0.0227865 228:0.0299154 229:0.0404948 230:0.0449219 231:0.0397461 232:0.044987 233:0.0239909 234:0.033138 235:0.0308594 236:0.036556 237:0.0750326 238:0.05625 239:0.0864258 240:0.0640625 241:0.0329753 242:0.0621094 243:0.0649414 244:0.0848307 245:0.0628581 246:0.113346 247:0.0751953 248:0.135189 249:0.0172201 250:0.0265625 251:0.0357422 252:0.0391927 253:0.0323893 254:0.0404948 255:0.0400391 256:0.0545247 
4493.026267760058 1:0.0264648 2:0.0465169 3:0.0314128 4:0.0365234 5:0.0214844 6:0.0164388 7:0.0172201 8:0.0170247 9:0.0631185 10:0.0489909 11:0.0705078 12:0.0378581 13:0.0512695 14:0.0250326 15:0.0400391 16:0.0175456 17:0.0525716 18:0.242122 19:0.0418945 20:0.163477 21:0.025651 22:0.100423 23:0.0188802 24:0.0610677 25:0.0333984 26:0.0588867 27:0.0273112 28:0.0405924 29:0.0216146 30:0.023763 31:0.0148763 32:0.019694 33:0.0063151 34:0.0104818 35:0.0133464 36:0.011263 37:0.0130534 38:0.00869141 39:0.00979818 40:0.00683594 41:0.0144857 42:0.0122396 43:0.0241211 44:0.00908203 45:0.0216146 46:0.0172526 47:0.0244141 48:0.0111003 49:0.0134766 50:0.046224 51:0.0168945 52:0.047168 53:0.0209961 54:0.0375326 55:0.0140625 56:0.0300456 57:0.0121745 58:0.0190755 59:0.0149414 60:0.0128906 61:0.0171549 62:0.0180339 63:0.0130859 64:0.00908203 65:0.0327474 66:0.0730469 67:0.0351888 68:0.0628255 69:0.0263021 70:0.031901 71:0.0245117 72:0.0333333 73:0.0667318 74:0.0867513 75:0.0583984 76:0.0684896 77:0.0386393 78:0.0301758 79:0.0424805 80:0.0265299 81:0.0908529 82:0.477539 83:0.0872396 84:0.363542 85:0.0332682 86:0.135059 87:0.0443359 88:0.127344 89:0.042806 90:0.103906 91:0.0332682 92:0.0722005 93:0.0219076 94:0.031543 95:0.0209961 96:0.0249023 97:0.0063151 98:0.0107422 99:0.0101888 100:0.0188151 101:0.0211589 102:0.0203451 103:0.0138997 104:0.0279948 105:0.0180013 106:0.00960286 107:0.0159831 108:0.0144531 109:0.0311198 110:0.0286133 111:0.0403646 112:0.0142904 113:0.0136393 114:0.0549154 115:0.0193359 116:0.063151 117:0.0151367 118:0.0496094 119:0.0202474 120:0.0474935 121:0.00869141 122:0.0141276 123:0.0121745 124:0.0203776 125:0.0118164 126:0.0130534 127:0.0295898 128:0.0110352 129:0.023112 130:0.0229167 131:0.0235352 132:0.0160156 133:0.0238607 134:0.0117839 135:0.0225911 136:0.015332 137:0.0232747 138:0.0183268 139:0.0160156 140:0.00947266 141:0.0241536 142:0.0250651 143:0.0213216 144:0.0180664 145:0.0269206 146:0.0582031 147:0.0158854 148:0.0405924 149:0.0163411 150:0.0288737 151:0.025 152:0.0522461 153:0.0123372 154:0.0208333 155:0.00924479 156:0.0151042 157:0.0133464 158:0.0128581 159:0.0093099 160:0.0153971 161:0.0308268 162:0.0354818 163:0.0397135 164:0.0253255 165:0.0479492 166:0.0472005 167:0.0619141 168:0.0449219 169:0.0407552 170:0.0356771 171:0.058724 172:0.0253906 173:0.104492 174:0.100879 175:0.128092 176:0.0668945 177:0.0348307 178:0.100358 179:0.0428385 180:0.112305 181:0.0712565 182:0.128939 183:0.0882161 184:0.182161 185:0.020638 186:0.0275716 187:0.0255534 188:0.0306315 189:0.051888 190:0.0510091 191:0.0585286 192:0.0475911 193:0.0131836 194:0.0168294 195:0.014388 196:0.0156576 197:0.00908203 198:0.0115885 199:0.011556 200:0.0113281 201:0.0179036 202:0.0128255 203:0.0160482 204:0.0122396 205:0.0165039 206:0.0119792 207:0.0189453 208:0.0118164 209:0.0232422 210:0.0634115 211:0.0259766 212:0.0566406 213:0.0162109 214:0.0313802 215:0.0176107 216:0.0373698 217:0.0121094 218:0.0130208 219:0.0110026 220:0.0145182 221:0.0130859 222:0.0142578 223:0.0100911 224:0.0138346 225:0.0142904 226:0.0157552 227:0.0239258 228:0.0193034 229:0.0265951 230:0.0320638 231:0.0421875 232:0.0327474 233:0.0363281 234:0.0188477 235:0.0567057 236:0.0210612 237:0.0921549 238:0.0588867 239:0.105208 240:0.048112 241:0.0278971 242:0.0904297 243:0.0483073 244:0.109863 245:0.0380208 246:0.130143 247:0.0592773 248:0.138411 249:0.0132813 250:0.0208008 251:0.0269531 252:0.0343424 253:0.0303385 254:0.0335286 255:0.0383464 256:0.0387044 
3030.281506349314 1:0.0310221 2:0.0268555 3:0.0261719 4:0.0323893 5:0.0321289 6:0.0200521 7:0.0232096 8:0.0214844 9:0.0724609 10:0.0454102 11:0.0710938 12:0.0369466 13:0.0546549 14:0.0386719 15:0.0403971 16:0.0304036 17:0.0322266 18:0.106055 19:0.0438151 20:0.107422 21:0.0285156 22:0.0560872 23:0.0359701 24:0.0599609 25:0.0311523 26:0.0378581 27:0.0299479 28:0.0327799 29:0.0313151 30:0.031543 31:0.0196615 32:0.0224609 33:0.00797526 34:0.0137695 35:0.0107422 36:0.0123372 37:0.0123047 38:0.0141276 39:0.0121419 40:0.0117839 41:0.0130534 42:0.0193685 43:0.0154297 44:0.0117187 45:0.0258464 46:0.0267578 47:0.0263021 48:0.0178711 49:0.0183268 50:0.057194 51:0.0263997 52:0.060612 53:0.0228516 54:0.0393229 55:0.0227214 56:0.0395508 57:0.0111328 58:0.0232747 59:0.0157227 60:0.0161784 61:0.0214193 62:0.0229167 63:0.0177734 64:0.0136068 65:0.030013 66:0.0462565 67:0.0388346 68:0.0501302 69:0.0273112 70:0.0200195 71:0.0277669 72:0.0275065 73:0.116276 74:0.065625 75:0.0717122 76:0.0618815 77:0.0546224 78:0.0308268 79:0.053125 80:0.0327799 81:0.0477214 82:0.174805 83:0.0748698 84:0.156608 85:0.0334961 86:0.0839518 87:0.0407552 88:0.0760091 89:0.0311523 90:0.048763 91:0.0313802 92:0.0507161 93:0.0282552 94:0.0245117 95:0.0276693 96:0.0221029 97:0.00742188 98:0.0182617 99:0.0111328 100:0.0152018 101:0.0182943 102:0.0249674 103:0.0189128 104:0.0297526 105:0.0272461 106:0.0335937 107:0.019987 108:0.0188151 109:0.0277018 110:0.0317383 111:0.0398438 112:0.0211589 113:0.0210286 114:0.0879232 115:0.0324544 116:0.0741536 117:0.0205404 118:0.0504232 119:0.0227865 120:0.0587565 121:0.0153971 122:0.0412109 123:0.0193359 124:0.0288411 125:0.0210612 126:0.0226562 127:0.032194 128:0.0176758 129:0.021875 130:0.0307943 131:0.0188477 132:0.0199544 133:0.0201497 134:0.0187174 135:0.0228516 136:0.0197591 137:0.0235026 138:0.0269857 139:0.00976562 140:0.0136068 141:0.0260742 142:0.0302083 143:0.0150065 144:0.0214844 145:0.0231445 146:0.0684245 147:0.0243815 148:0.0646159 149:0.0240234 150:0.0374023 151:0.0201172 152:0.0523112 153:0.0150716 154:0.0195964 155:0.0121094 156:0.0167318 157:0.0124674 158:0.0160156 159:0.00849609 160:0.0195964 161:0.0265625 162:0.036263 163:0.0350911 164:0.0289714 165:0.0611003 166:0.0528971 167:0.0801107 168:0.0568034 169:0.0362305 170:0.0290365 171:0.0477539 172:0.0230794 173:0.0881185 174:0.103027 175:0.113314 176:0.072819 177:0.0257487 178:0.116667 179:0.0472005 180:0.147363 181:0.0852539 182:0.175716 183:0.12985 184:0.271159 185:0.0138346 186:0.0218424 187:0.0249023 188:0.0294271 189:0.0555664 190:0.0592122 191:0.068457 192:0.0621094 193:0.0183919 194:0.0308919 195:0.016569 196:0.0214518 197:0.00999349 198:0.0174154 199:0.00901693 200:0.0130534 201:0.0208333 202:0.0241862 203:0.0163411 204:0.020638 205:0.0133138 206:0.0138672 207:0.0141927 208:0.0150065 209:0.0404622 210:0.0948242 211:0.0328451 212:0.0823242 213:0.0207031 214:0.0467773 215:0.0188802 216:0.0532227 217:0.015625 218:0.0259766 219:0.016276 220:0.0227539 221:0.0125977 222:0.0127279 223:0.0106445 224:0.0163086 225:0.00983073 226:0.0182617 227:0.0173177 228:0.0185547 229:0.0267904 230:0.0342122 231:0.0446289 232:0.0430013 233:0.0174805 234:0.0183919 235:0.0373372 236:0.0185221 237:0.0649089 238:0.0469401 239:0.100977 240:0.049707 241:0.0249349 242:0.106999 243:0.045931 244:0.125716 245:0.0431315 246:0.143359 247:0.0653646 248:0.194922 249:0.00966797 250:0.0195312 251:0.0230143 252:0.027832 253:0.0280924 254:0.0368164 255:0.0613281 256:0.0502279 
3263.092477944089 1:0.0291016 2:0.0332031 3:0.0417969 4:0.0383464 5:0.0264323 6:0.0220703 7:0.0339193 8:0.024707 9:0.0957031 10:0.0801758 11:0.0861654 12:0.0521159 13:0.0731445 14:0.0591797 15:0.0648437 16:0.0608724 17:0.0365885 18:0.0474609 19:0.0544271 20:0.0475586 21:0.0391276 22:0.0319987 23:0.042513 24:0.0289062 25:0.0368164 26:0.0441406 27:0.0273437 28:0.0289714 29:0.0499349 30:0.0441406 31:0.0250977 32:0.022819 33:0.00908203 34:0.0118164 35:0.0154297 36:0.00768229 37:0.0243815 38:0.0175456 39:0.0204753 40:0.0100911 41:0.022819 42:0.0315755 43:0.0277995 44:0.0183594 45:0.0433268 46:0.0500326 47:0.0426107 48:0.0263672 49:0.0174479 50:0.020638 51:0.0259115 52:0.0220378 53:0.0411458 54:0.0247721 55:0.0263997 56:0.0192708 57:0.0179362 58:0.0212565 59:0.0237956 60:0.0157878 61:0.0371419 62:0.0320312 63:0.0223958 64:0.011849 65:0.0523112 66:0.0465169 67:0.0642578 68:0.0510742 69:0.0353841 70:0.025944 71:0.0365234 72:0.0242513 73:0.139486 74:0.102246 75:0.116927 76:0.0858073 77:0.0773112 78:0.0444987 79:0.0805339 80:0.0608398 81:0.0763346 82:0.080599 83:0.127246 84:0.0718099 85:0.0425456 86:0.0460937 87:0.055013 88:0.0359049 89:0.0496745 90:0.047168 91:0.0578451 92:0.0439779 93:0.0358398 94:0.0267578 95:0.0298828 96:0.0249023 97:0.0111003 98:0.0182292 99:0.0152018 100:0.0213216 101:0.0246745 102:0.0274414 103:0.0217773 104:0.0283203 105:0.0211914 106:0.036556 107:0.0328776 108:0.0439128 109:0.0383138 110:0.0363607 111:0.0525065 112:0.0436198 113:0.021224 114:0.0386393 115:0.0390625 116:0.0386393 117:0.0265299 118:0.0321615 119:0.0297852 120:0.0319987 121:0.0149414 122:0.0260091 123:0.0364583 124:0.0385417 125:0.0171875 126:0.0203125 127:0.023763 128:0.0166992 129:0.0291992 130:0.0489909 131:0.0442383 132:0.0211589 133:0.0276693 134:0.0249349 135:0.019043 136:0.0207682 137:0.0314779 138:0.0429036 139:0.020931 140:0.0208333 141:0.0375977 142:0.0483073 143:0.0282878 144:0.0410482 145:0.027181 146:0.0279622 147:0.025944 148:0.0233073 149:0.0352865 150:0.0182943 151:0.0311523 152:0.0273763 153:0.0256185 154:0.0224935 155:0.013737 156:0.0183268 157:0.0234375 158:0.0194987 159:0.0124023 160:0.01875 161:0.0201172 162:0.0264323 163:0.022168 164:0.0225911 165:0.0479492 166:0.0531901 167:0.0391602 168:0.0414714 169:0.034082 170:0.0346354 171:0.0411133 172:0.0217773 173:0.106413 174:0.0813151 175:0.119727 176:0.0451172 177:0.0437174 178:0.0944987 179:0.0438802 180:0.121549 181:0.124219 182:0.136654 183:0.0960612 184:0.19707 185:0.0226562 186:0.0262695 187:0.0267253 188:0.0423177 189:0.039681 190:0.0455404 191:0.0407878 192:0.0443685 193:0.0311523 194:0.0239909 195:0.0209961 196:0.0233724 197:0.0133138 198:0.0155924 199:0.0121094 200:0.0129557 201:0.0317383 202:0.0418294 203:0.022168 204:0.0318685 205:0.0225586 206:0.0254557 207:0.0210938 208:0.0295898 209:0.052181 210:0.0369141 211:0.0503906 212:0.0346354 213:0.0263997 214:0.0226888 215:0.0185221 216:0.0222656 217:0.0234375 218:0.0171549 219:0.0285156 220:0.0255534 221:0.0155273 222:0.0138346 223:0.0152995 224:0.0163086 225:0.0103841 226:0.0183268 227:0.0147786 228:0.0344401 229:0.0255859 230:0.0400065 231:0.0299154 232:0.0522135 233:0.0234375 234:0.0361654 235:0.0441081 236:0.0329753 237:0.080013 238:0.0447266 239:0.0809896 240:0.0428711 241:0.0291667 242:0.065332 243:0.0353516 244:0.106315 245:0.0542318 246:0.10599 247:0.0512044 248:0.142383 249:0.0151367 250:0.0248698 251:0.0244141 252:0.0416667 253:0.0204102 254:0.0269206 255:0.0264648 256:0.0286784 
5673.063966857233 1:0.027832 2:0.0385091 3:0.0414388 4:0.0347331 5:0.0296549 6:0.0253255 7:0.0347331 8:0.0236328 9:0.0975911 10:0.0756836 11:0.0874674 12:0.0496419 13:0.078418 14:0.0584635 15:0.0626302 16:0.0572266 17:0.0332682 18:0.052474 19:0.0498698 20:0.0556315 21:0.0367513 22:0.0413086 23:0.0399414 24:0.0302409 25:0.0388021 26:0.0462565 27:0.0325521 28:0.0290039 29:0.0445312 30:0.0454427 31:0.0229818 32:0.0216797 33:0.00869141 34:0.0130859 35:0.0170573 36:0.00921224 37:0.0233398 38:0.0190755 39:0.0186523 40:0.0101563 41:0.0211914 42:0.0330404 43:0.0281901 44:0.0196289 45:0.0457031 46:0.0450846 47:0.0407552 48:0.0228516 49:0.0169922 50:0.0208333 51:0.0280924 52:0.0180339 53:0.0396159 54:0.0234049 55:0.0271159 56:0.0177734 57:0.015918 58:0.0215495 59:0.0249674 60:0.0150065 61:0.0353841 62:0.0264974 63:0.0208984 64:0.0112305 65:0.0516927 66:0.0482422 67:0.0651367 68:0.0500651 69:0.0369141 70:0.0262044 71:0.0403971 72:0.030306 73:0.159342 74:0.103418 75:0.106315 76:0.087207 77:0.0823568 78:0.0416016 79:0.0804362 80:0.0600911 81:0.075293 82:0.0848307 83:0.115267 84:0.084668 85:0.0430339 86:0.0492188 87:0.0508464 88:0.0391927 89:0.0498047 90:0.0418294 91:0.0583659 92:0.0445638 93:0.0335612 94:0.0277018 95:0.0275716 96:0.0248047 97:0.0107096 98:0.0188802 99:0.0150065 100:0.0182292 101:0.0218424 102:0.0268229 103:0.0264648 104:0.0337891 105:0.0237305 106:0.0410807 107:0.0308594 108:0.0417643 109:0.0388346 110:0.0333984 111:0.0568685 112:0.0352865 113:0.0191081 114:0.0368815 115:0.0365234 116:0.0407552 117:0.0261719 118:0.0357422 119:0.0256185 120:0.0340169 121:0.0155924 122:0.0279948 123:0.0360026 124:0.0379883 125:0.0161784 126:0.0189128 127:0.0200846 128:0.0173177 129:0.0267253 130:0.0464844 131:0.0432292 132:0.0208333 133:0.0257813 134:0.0218424 135:0.019694 136:0.0244466 137:0.0320964 138:0.0391602 139:0.0170573 140:0.0197266 141:0.0392253 142:0.0463867 143:0.0291667 144:0.0390625 145:0.0268555 146:0.0308594 147:0.0256836 148:0.0252279 149:0.0332357 150:0.0198242 151:0.0316081 152:0.025944 153:0.0235026 154:0.0200195 155:0.0137695 156:0.0192057 157:0.0205078 158:0.0183268 159:0.0164388 160:0.0202474 161:0.0218099 162:0.0236328 163:0.0227539 164:0.0164062 165:0.046582 166:0.0433919 167:0.042513 168:0.0397461 169:0.0347656 170:0.0360026 171:0.0480143 172:0.0187174 173:0.104232 174:0.0684896 175:0.129883 176:0.0441732 177:0.0379883 178:0.0933594 179:0.0373698 180:0.130241 181:0.119499 182:0.140788 183:0.0996094 184:0.230632 185:0.0205078 186:0.0273112 187:0.0266927 188:0.036849 189:0.0385417 190:0.0376953 191:0.0468424 192:0.0430013 193:0.0294596 194:0.0249023 195:0.0190755 196:0.0240885 197:0.0167643 198:0.0140625 199:0.0129883 200:0.014388 201:0.0292969 202:0.0400065 203:0.0237956 204:0.0316732 205:0.0231771 206:0.0261719 207:0.020931 208:0.0282552 209:0.0502279 210:0.0366536 211:0.0430664 212:0.0365885 213:0.026888 214:0.0237956 215:0.0163737 216:0.0238281 217:0.0251628 218:0.0190755 219:0.025944 220:0.0240234 221:0.0170573 222:0.0139323 223:0.013444 224:0.0197917 225:0.011849 226:0.0191732 227:0.0140299 228:0.0302083 229:0.0279297 230:0.0412109 231:0.029362 232:0.0482422 233:0.0265625 234:0.0311523 235:0.0470703 236:0.030957 237:0.0769857 238:0.041569 239:0.0815755 240:0.0439453 241:0.0251302 242:0.063444 243:0.0299805 244:0.115104 245:0.0523112 246:0.121224 247:0.0418294 248:0.159635 249:0.0148112 250:0.0220378 251:0.0246094 252:0.0402995 253:0.0247396 254:0.0239909 255:0.0240234 256:0.028418 
7912.078175067328 1:0.0254557 2:0.0545573 3:0.0320638 4:0.0422852 5:0.0362956 6:0.0259115 7:0.0229167 8:0.0227865 9:0.0525065 10:0.0429362 11:0.0684896 12:0.0430339 13:0.0513021 14:0.0301107 15:0.0277669 16:0.0286458 17:0.0534505 18:0.145443 19:0.0478516 20:0.0972656 21:0.0373698 22:0.0804362 23:0.0308919 24:0.0487956 25:0.0280924 26:0.0526367 27:0.0266602 28:0.0409505 29:0.0301107 30:0.0405599 31:0.0154297 32:0.0208984 33:0.0101888 34:0.0156576 35:0.013444 36:0.0145508 37:0.0262695 38:0.0158203 39:0.0168294 40:0.0142904 41:0.0137695 42:0.0216797 43:0.0161458 44:0.0179036 45:0.0277018 46:0.0230794 47:0.0260417 48:0.0190104 49:0.0182943 50:0.0364258 51:0.0254557 52:0.0345052 53:0.0340169 54:0.0335286 55:0.0275391 56:0.025 57:0.0126953 58:0.025944 59:0.0158203 60:0.0182292 61:0.0336263 62:0.0275065 63:0.0197591 64:0.0145182 65:0.0284505 66:0.0651367 67:0.0473633 68:0.0699219 69:0.0285482 70:0.0327474 71:0.0314453 72:0.0360352 73:0.0346354 74:0.0516276 75:0.0401693 76:0.070931 77:0.0339193 78:0.0257487 79:0.0411458 80:0.0384115 81:0.0747396 82:0.244954 83:0.0963216 84:0.213574 85:0.0383138 86:0.115462 87:0.0431966 88:0.10179 89:0.0307292 90:0.0659505 91:0.0375651 92:0.0649089 93:0.028776 94:0.0417318 95:0.0291667 96:0.0320312 97:0.00888672 98:0.0152344 99:0.0135742 100:0.0224609 101:0.0239258 102:0.0269531 103:0.0311849 104:0.0476888 105:0.0189128 106:0.0245768 107:0.0188477 108:0.0345052 109:0.0276042 110:0.0236979 111:0.0410807 112:0.0388346 113:0.0180664 114:0.0433268 115:0.0232747 116:0.0536458 117:0.029069 118:0.0391602 119:0.0256185 120:0.0393229 121:0.0134766 122:0.0216797 123:0.0206055 124:0.0291341 125:0.0204753 126:0.0188477 127:0.0277669 128:0.0189779 129:0.0278971 130:0.0370117 131:0.0262695 132:0.0269206 133:0.028418 134:0.0188151 135:0.0230469 136:0.0248372 137:0.0224935 138:0.0300781 139:0.0222656 140:0.0239258 141:0.0253255 142:0.0300781 143:0.0223307 144:0.0352539 145:0.0267578 146:0.0475911 147:0.025293 148:0.0347982 149:0.0330404 150:0.0277344 151:0.0352214 152:0.0337565 153:0.0183919 154:0.0246094 155:0.0185221 156:0.0233398 157:0.024349 158:0.0251953 159:0.0145508 160:0.0246745 161:0.0328125 162:0.0365234 163:0.0409505 164:0.0277669 165:0.0693685 166:0.0505859 167:0.0665365 168:0.0486979 169:0.0343424 170:0.0491862 171:0.0401042 172:0.0354818 173:0.0873698 174:0.0831055 175:0.100228 176:0.0880534 177:0.0595703 178:0.0628581 179:0.0554362 180:0.0739583 181:0.113477 182:0.0761393 183:0.100586 184:0.0992513 185:0.0305339 186:0.0415039 187:0.0400065 188:0.0368164 189:0.0621745 190:0.0503255 191:0.0630859 192:0.0479492 193:0.0215169 194:0.0252279 195:0.0190104 196:0.0231771 197:0.0178711 198:0.0187174 199:0.0135417 200:0.0180013 201:0.0172201 202:0.0238932 203:0.015332 204:0.0242839 205:0.0174154 206:0.0177734 207:0.0164062 208:0.0256836 209:0.0377279 210:0.0546224 211:0.0327474 212:0.044043 213:0.0314779 214:0.0326172 215:0.0246745 216:0.0291341 217:0.0179036 218:0.0194987 219:0.0195312 220:0.0208984 221:0.0179036 222:0.0188477 223:0.0133789 224:0.0223958 225:0.0228516 226:0.0325846 227:0.0228841 228:0.0354818 229:0.0427409 230:0.0468099 231:0.0452799 232:0.0522786 233:0.0245443 234:0.0352214 235:0.0468099 236:0.0445638 237:0.0724284 238:0.0614583 239:0.0884766 240:0.0767578 241:0.0396484 242:0.0527669 243:0.0486328 244:0.105892 245:0.064681 246:0.0769206 247:0.0625651 248:0.0742513 249:0.0216797 250:0.0289062 251:0.0405599 252:0.0522135 253:0.0340495 254:0.0383789 255:0.046224 256:0.0463867 
3817.458513944338 1:0.0181966 2:0.0236654 3:0.0258789 4:0.0343099 5:0.0369792 6:0.0191406 7:0.025651 8:0.0231445 9:0.0755534 10:0.0356771 11:0.0767904 12:0.0462891 13:0.0561523 14:0.0280924 15:0.030957 16:0.0359049 17:0.0398112 18:0.0929036 19:0.0485677 20:0.0954427 21:0.0447266 22:0.0591146 23:0.0402344 24:0.0508138 25:0.030599 26:0.039974 27:0.0310872 28:0.0321615 29:0.0355469 30:0.0303385 31:0.0185872 32:0.0255208 33:0.00566406 34:0.0154622 35:0.0107096 36:0.0120117 37:0.0157552 38:0.0151367 39:0.0145833 40:0.0129557 41:0.0116211 42:0.0192708 43:0.0131836 44:0.0151042 45:0.0260742 46:0.0265299 47:0.0256185 48:0.017806 49:0.0222982 50:0.0597331 51:0.0281576 52:0.0466797 53:0.0330729 54:0.042806 55:0.0298828 56:0.0429362 57:0.0103841 58:0.0234701 59:0.0132813 60:0.017513 61:0.024056 62:0.0233398 63:0.0163411 64:0.0169596 65:0.0295247 66:0.0437826 67:0.0407878 68:0.0589518 69:0.0321615 70:0.0302409 71:0.032194 72:0.035612 73:0.0662109 74:0.0713216 75:0.058724 76:0.082194 77:0.044694 78:0.0307943 79:0.0413086 80:0.0511393 81:0.0600911 82:0.158529 83:0.106576 84:0.141699 85:0.0366536 86:0.0883789 87:0.0510091 88:0.0760091 89:0.027832 90:0.0528646 91:0.0302734 92:0.0462891 93:0.0180664 94:0.0259115 95:0.0223633 96:0.0258138 97:0.00712891 98:0.0240234 99:0.0106771 100:0.0217122 101:0.0208984 102:0.0326497 103:0.0194336 104:0.0366211 105:0.0204427 106:0.0336589 107:0.0140299 108:0.0298177 109:0.0279622 110:0.0289062 111:0.0329427 112:0.0342448 113:0.0299154 114:0.0749023 115:0.0496419 116:0.0650065 117:0.0296549 118:0.0571289 119:0.0404297 120:0.0677734 121:0.0140951 122:0.035319 123:0.0211914 124:0.038444 125:0.0191732 126:0.0173828 127:0.028125 128:0.0228516 129:0.0254883 130:0.0338542 131:0.0251953 132:0.0220703 133:0.0276042 134:0.0238932 135:0.0181315 136:0.0164388 137:0.0242513 138:0.0294596 139:0.0181315 140:0.0198893 141:0.0245768 142:0.036263 143:0.0168294 144:0.0258789 145:0.0388346 146:0.0669596 147:0.0318359 148:0.0590169 149:0.0372396 150:0.0380534 151:0.0272461 152:0.0357096 153:0.0216471 154:0.0272461 155:0.0168294 156:0.026888 157:0.0165039 158:0.0207682 159:0.0130859 160:0.0166992 161:0.0182617 162:0.0440104 163:0.0263346 164:0.0351563 165:0.0474609 166:0.068457 167:0.0424154 168:0.0555664 169:0.0253255 170:0.0385417 171:0.0347331 172:0.0258789 173:0.0498372 174:0.10446 175:0.0520182 176:0.0552409 177:0.0578125 178:0.0992188 179:0.0606445 180:0.120605 181:0.145247 182:0.137695 183:0.128288 184:0.172917 185:0.025293 186:0.0376628 187:0.0277669 188:0.0558268 189:0.049056 190:0.0675781 191:0.0426758 192:0.0644531 193:0.0173177 194:0.0340495 195:0.0183594 196:0.0297201 197:0.00973307 198:0.0153971 199:0.00791016 200:0.0142578 201:0.0160156 202:0.0299479 203:0.0130859 204:0.0257487 205:0.0117187 206:0.0152995 207:0.0107747 208:0.0170573 209:0.0475911 210:0.0859701 211:0.0526693 212:0.0703451 213:0.0244141 214:0.0412109 215:0.0223307 216:0.0374349 217:0.0158854 218:0.0238607 219:0.0172852 220:0.0315104 221:0.0106445 222:0.0129557 223:0.00976562 224:0.0148763 225:0.011263 226:0.0260417 227:0.0174805 228:0.0449219 229:0.0224935 230:0.0414714 231:0.0297526 232:0.0682617 233:0.0164714 234:0.0217448 235:0.0287435 236:0.0313151 237:0.0598633 238:0.0473307 239:0.0565104 240:0.0488932 241:0.0351563 242:0.087207 243:0.0587565 244:0.121257 245:0.0641276 246:0.111393 247:0.0775391 248:0.155762 249:0.0144206 250:0.0291992 251:0.0213867 252:0.0592122 253:0.0249674 254:0.0403646 255:0.0295898 256:0.0526042 
13097.01583219212 1:0.0174805 2:0.0452474 3:0.0201497 4:0.0365885 5:0.0192383 6:0.0203776 7:0.0151367 8:0.0168294 9:0.0525065 10:0.0440755 11:0.0666016 12:0.0342773 13:0.0555664 14:0.0258789 15:0.0229167 16:0.0226562 17:0.0551107 18:0.20166 19:0.0468424 20:0.163379 21:0.0296549 22:0.0810872 23:0.0438151 24:0.0803385 25:0.026237 26:0.0598307 27:0.0197917 28:0.0414714 29:0.0216797 30:0.0337891 31:0.0139323 32:0.0237305 33:0.00611979 34:0.0119792 35:0.00885417 36:0.0133464 37:0.00820312 38:0.00934245 39:0.0111979 40:0.0106771 41:0.0114583 42:0.0152018 43:0.00986328 44:0.0104492 45:0.0147786 46:0.018099 47:0.0151367 48:0.013444 49:0.0173503 50:0.0680013 51:0.0279297 52:0.0640299 53:0.0305339 54:0.0595052 55:0.0324544 56:0.060612 57:0.00921224 58:0.0240234 59:0.0107747 60:0.0155924 61:0.0152018 62:0.0258789 63:0.0123698 64:0.0141927 65:0.0305339 66:0.0828776 67:0.0394857 68:0.0643555 69:0.0256836 70:0.0294922 71:0.024707 72:0.0286458 73:0.0508789 74:0.0842122 75:0.0442057 76:0.0623698 77:0.049056 78:0.0254883 79:0.0432292 80:0.0277995 81:0.100326 82:0.393424 83:0.0952148 84:0.284408 85:0.0358724 86:0.123112 87:0.0359375 88:0.0983073 89:0.0318034 90:0.100814 91:0.0326497 92:0.0623372 93:0.017513 94:0.027832 95:0.0204753 96:0.0216146 97:0.00458984 98:0.0138997 99:0.009375 100:0.0161784 101:0.0124674 102:0.0219401 103:0.0161458 104:0.0271484 105:0.00983073 106:0.0148438 107:0.010026 108:0.0143555 109:0.0217122 110:0.0178711 111:0.0302734 112:0.0211263 113:0.0209961 114:0.0910156 115:0.0291992 116:0.0864583 117:0.0183594 118:0.0638672 119:0.0248372 120:0.0738281 121:0.0078125 122:0.0223307 123:0.0151693 124:0.0229492 125:0.0171549 126:0.0181966 127:0.0316406 128:0.0154297 129:0.0178711 130:0.0189128 131:0.0173177 132:0.0164062 133:0.0132161 134:0.0168294 135:0.0154622 136:0.0189453 137:0.017513 138:0.0226562 139:0.0208659 140:0.0120117 141:0.0142578 142:0.0236003 143:0.0123698 144:0.0184245 145:0.023112 146:0.0725586 147:0.0246419 148:0.0773763 149:0.0247396 150:0.0507813 151:0.0352865 152:0.069043 153:0.00703125 154:0.0177409 155:0.00800781 156:0.0156901 157:0.00963542 158:0.0153971 159:0.00966797 160:0.017806 161:0.0252279 162:0.0348958 163:0.0431641 164:0.0317708 165:0.0344076 166:0.0431966 167:0.0415365 168:0.0401042 169:0.0445638 170:0.0445312 171:0.0641927 172:0.0260742 173:0.0646484 174:0.065332 175:0.0749023 176:0.0469401 177:0.0433919 178:0.130632 179:0.0515625 180:0.148828 181:0.0832031 182:0.139095 183:0.0834961 184:0.189062 185:0.0141602 186:0.0336263 187:0.0252604 188:0.0316732 189:0.0282227 190:0.0455729 191:0.0364583 192:0.041862 193:0.0119466 194:0.0236979 195:0.0152018 196:0.0166992 197:0.00846354 198:0.016569 199:0.0129232 200:0.0175781 201:0.00875651 202:0.0141602 203:0.0125 204:0.0163737 205:0.0130534 206:0.0149089 207:0.0119792 208:0.0163411 209:0.0341797 210:0.107292 211:0.0336589 212:0.0815755 213:0.0222005 214:0.0608398 215:0.0259115 216:0.0555013 217:0.00989583 218:0.0166341 219:0.0112956 220:0.0182617 221:0.00996094 222:0.0144206 223:0.0121419 224:0.0173177 225:0.0127604 226:0.0262044 227:0.0218424 228:0.0228516 229:0.0161458 230:0.0366862 231:0.024707 232:0.036556 233:0.0192057 234:0.0238932 235:0.0453451 236:0.0223958 237:0.0583659 238:0.0444336 239:0.0651042 240:0.0395182 241:0.0380859 242:0.12526 243:0.0458984 244:0.139616 245:0.0432943 246:0.144173 247:0.0498047 248:0.148372 249:0.0136393 250:0.0307292 251:0.0260742 252:0.0345378 253:0.0220052 254:0.0369466 255:0.0336589 256:0.0334961 
1237.708252657815 1:0.0239583 2:0.0284505 3:0.0266276 4:0.0293294 5:0.0389648 6:0.0184896 7:0.0219727 8:0.0174479 9:0.0879883 10:0.0446289 11:0.0746745 12:0.0430664 13:0.0635091 14:0.0298177 15:0.0372721 16:0.0291667 17:0.0323242 18:0.108887 19:0.0427734 20:0.114648 21:0.0308919 22:0.06875 23:0.0405924 24:0.0647786 25:0.0458659 26:0.0461914 27:0.0337565 28:0.0322591 29:0.0371094 30:0.0314128 31:0.0196615 32:0.0232096 33:0.00761719 34:0.0117187 35:0.0119792 36:0.0125 37:0.0174805 38:0.0114909 39:0.0160807 40:0.0101563 41:0.0158529 42:0.0180664 43:0.0207357 44:0.0151042 45:0.0239258 46:0.0213216 47:0.0304362 48:0.0169596 49:0.0181966 50:0.0478841 51:0.0285156 52:0.0462565 53:0.0285156 54:0.044401 55:0.0264648 56:0.0324544 57:0.0134766 58:0.0216146 59:0.0178711 60:0.0156576 61:0.0231445 62:0.0379557 63:0.0151693 64:0.0124674 65:0.0299154 66:0.0507487 67:0.0371094 68:0.0523763 69:0.0560547 70:0.0303385 71:0.0364909 72:0.0399414 73:0.0826172 74:0.0711263 75:0.0601563 76:0.0889974 77:0.0780273 78:0.0330729 79:0.0560872 80:0.0444661 81:0.0523438 82:0.168359 83:0.086556 84:0.164258 85:0.0353516 86:0.0956706 87:0.0431315 88:0.0952474 89:0.0291992 90:0.0481445 91:0.0359375 92:0.0502604 93:0.022168 94:0.0258789 95:0.0255859 96:0.0280924 97:0.00764974 98:0.016569 99:0.0128581 100:0.0213542 101:0.0352539 102:0.0324219 103:0.0328125 104:0.0571615 105:0.0217773 106:0.0264974 107:0.0182292 108:0.0223307 109:0.0348633 110:0.0288086 111:0.0475911 112:0.0336263 113:0.0178385 114:0.0656576 115:0.027181 116:0.0607096 117:0.0221354 118:0.0409505 119:0.0235352 120:0.0454427 121:0.0119141 122:0.0267253 123:0.0180664 124:0.0306315 125:0.0208984 126:0.0170898 127:0.0291992 128:0.0143555 129:0.0231771 130:0.0301107 131:0.0264323 132:0.0152344 133:0.0270508 134:0.0193685 135:0.0210612 136:0.017806 137:0.0300781 138:0.0264323 139:0.0166992 140:0.0183594 141:0.0229818 142:0.0288737 143:0.0185872 144:0.0252604 145:0.0250977 146:0.055957 147:0.0212565 148:0.0484375 149:0.0243815 150:0.0308268 151:0.0301432 152:0.0391602 153:0.047526 154:0.0295573 155:0.0208333 156:0.0298828 157:0.0171549 158:0.0175456 159:0.0101563 160:0.0166667 161:0.0234049 162:0.0374674 163:0.0299805 164:0.0276367 165:0.0512695 166:0.0655273 167:0.0654622 168:0.0670898 169:0.0391927 170:0.0399414 171:0.0514648 172:0.0265299 173:0.0606445 174:0.089388 175:0.0889648 176:0.0681315 177:0.0426432 178:0.100065 179:0.0525391 180:0.119629 181:0.108984 182:0.12168 183:0.125618 184:0.164551 185:0.0263672 186:0.0320964 187:0.0343424 188:0.047168 189:0.0513346 190:0.0573893 191:0.0572917 192:0.0642904 193:0.0178385 194:0.0233073 195:0.0196615 196:0.0181315 197:0.0133464 198:0.0154948 199:0.0125651 200:0.0143229 201:0.0219076 202:0.0290039 203:0.0146159 204:0.0203125 205:0.0163086 206:0.0195638 207:0.0149089 208:0.0169271 209:0.0370768 210:0.0717448 211:0.0372721 212:0.0558268 213:0.0231445 214:0.0386393 215:0.0206055 216:0.0364583 217:0.0171224 218:0.0208984 219:0.0176758 220:0.0223307 221:0.0139648 222:0.0150716 223:0.0138672 224:0.0174154 225:0.0116862 226:0.0202474 227:0.0189453 228:0.024349 229:0.0304688 230:0.0531576 231:0.0362956 232:0.0556966 233:0.027832 234:0.028418 235:0.036263 236:0.0229167 237:0.0653971 238:0.0503581 239:0.0629883 240:0.0451823 241:0.0330078 242:0.0857096 243:0.0493815 244:0.111882 245:0.0569987 246:0.115072 247:0.0664062 248:0.149935 249:0.0152344 250:0.0281576 251:0.0277669 252:0.0398763 253:0.0275391 254:0.0405599 255:0.0388997 256:0.0500651 
4100.277957613142 1:0.0569661 2:0.0336263 3:0.0315755 4:0.0275716 5:0.0441081 6:0.0164062 7:0.0217773 8:0.0121094 9:0.0846354 10:0.0541341 11:0.094987 12:0.0442708 13:0.0612305 14:0.0323568 15:0.0481771 16:0.0280924 17:0.0373372 18:0.150033 19:0.0390299 20:0.143327 21:0.0296549 22:0.0806966 23:0.0222656 24:0.0701497 25:0.0423828 26:0.0406901 27:0.0360026 28:0.0361328 29:0.0395833 30:0.0257161 31:0.0182943 32:0.0153971 33:0.00791016 34:0.0116862 35:0.0109049 36:0.0101563 37:0.0127279 38:0.0104492 39:0.0135091 40:0.0116536 41:0.0148112 42:0.0164062 43:0.0177409 44:0.0107747 45:0.0232747 46:0.0198568 47:0.0361979 48:0.0140951 49:0.0132161 50:0.0397461 51:0.018457 52:0.0374349 53:0.0221029 54:0.0288737 55:0.0199219 56:0.0238281 57:0.0129557 58:0.0195638 59:0.0132813 60:0.0108398 61:0.0174479 62:0.0225911 63:0.0137044 64:0.00963542 65:0.0327148 66:0.0434896 67:0.0387695 68:0.0407227 69:0.0337891 70:0.032194 71:0.0323568 72:0.0247396 73:0.093099 74:0.0867839 75:0.0811849 76:0.0785807 77:0.0543294 78:0.0370768 79:0.0613281 80:0.0458333 81:0.0559896 82:0.293229 83:0.083724 84:0.280892 85:0.0311198 86:0.111719 87:0.0317057 88:0.0971029 89:0.041276 90:0.0537109 91:0.0450521 92:0.0502604 93:0.0265299 94:0.0323242 95:0.0352539 96:0.028776 97:0.00843099 98:0.0108398 99:0.0109701 100:0.0161784 101:0.0126302 102:0.0192057 103:0.0203125 104:0.0220703 105:0.0238932 106:0.0273437 107:0.0165365 108:0.0194987 109:0.0372396 110:0.0333008 111:0.0460612 112:0.0286458 113:0.0139323 114:0.0617188 115:0.0205404 116:0.0614258 117:0.0181315 118:0.0429036 119:0.0188151 120:0.0430664 121:0.0135417 122:0.019694 123:0.0201172 124:0.021875 125:0.0207357 126:0.0236328 127:0.0389323 128:0.014388 129:0.0254232 130:0.0374023 131:0.0308919 132:0.0194661 133:0.0195964 134:0.00986328 135:0.0162109 136:0.0135417 137:0.0243815 138:0.0361003 139:0.0174805 140:0.0167318 141:0.0242187 142:0.025944 143:0.0263672 144:0.0212565 145:0.0206706 146:0.0538737 147:0.0203451 148:0.0388997 149:0.0220378 150:0.0282552 151:0.0227214 152:0.0261393 153:0.0177409 154:0.0203125 155:0.0123698 156:0.0236654 157:0.0160807 158:0.0149414 159:0.00963542 160:0.0153971 161:0.0233073 162:0.0301758 163:0.0349935 164:0.0205729 165:0.0533529 166:0.0537109 167:0.0627604 168:0.0529622 169:0.0414388 170:0.0443685 171:0.0696289 172:0.0280273 173:0.083138 174:0.097168 175:0.106706 176:0.0744792 177:0.0403646 178:0.0875977 179:0.043457 180:0.115104 181:0.111589 182:0.137858 183:0.114648 184:0.212402 185:0.0220052 186:0.0292969 187:0.0266602 188:0.0341146 189:0.0496745 190:0.0597005 191:0.0625651 192:0.0574219 193:0.0139974 194:0.017806 195:0.0292318 196:0.0195312 197:0.0103841 198:0.0125977 199:0.0136719 200:0.0110352 201:0.0179036 202:0.0196615 203:0.0145833 204:0.016569 205:0.0163086 206:0.0152344 207:0.0201497 208:0.0141927 209:0.0230794 210:0.0713216 211:0.0240885 212:0.0555339 213:0.0183594 214:0.033138 215:0.015332 216:0.0298503 217:0.0126302 218:0.0154297 219:0.0157552 220:0.0150716 221:0.0115234 222:0.0107422 223:0.0093099 224:0.0106771 225:0.0129557 226:0.0230794 227:0.020931 228:0.0278646 229:0.0330729 230:0.040332 231:0.0417969 232:0.0522135 233:0.034082 234:0.027832 235:0.0484049 236:0.0286784 237:0.0840169 238:0.0576172 239:0.101823 240:0.0588867 241:0.0318034 242:0.0618815 243:0.0390951 244:0.0949544 245:0.0618815 246:0.116081 247:0.0659505 248:0.159831 249:0.013444 250:0.0222656 251:0.0249023 252:0.0289388 253:0.028776 254:0.0336263 255:0.0349935 256:0.0373372 
6710.95620750616 1:0.024349 2:0.0579102 3:0.0259766 4:0.0393555 5:0.0208984 6:0.028418 7:0.0149089 8:0.0145508 9:0.130143 10:0.047168 11:0.107585 12:0.0338542 13:0.057487 14:0.0298828 15:0.0381185 16:0.0155599 17:0.0492839 18:0.192643 19:0.0541992 20:0.167253 21:0.0318034 22:0.104167 23:0.0264648 24:0.0662109 25:0.0342448 26:0.0563802 27:0.0382161 28:0.0426107 29:0.0251302 30:0.0452474 31:0.0140951 32:0.0189453 33:0.00641276 34:0.0146159 35:0.0102539 36:0.0112305 37:0.0120443 38:0.0111003 39:0.010319 40:0.00924479 41:0.0245443 42:0.011263 43:0.0210286 44:0.00833333 45:0.026237 46:0.0133464 47:0.030599 48:0.0101563 49:0.0120443 50:0.0539062 51:0.0164062 52:0.0461914 53:0.021875 54:0.0496094 55:0.0169596 56:0.035026 57:0.00953776 58:0.0205729 59:0.0101888 60:0.0129232 61:0.0177409 62:0.0354167 63:0.00989583 64:0.0130534 65:0.0339844 66:0.0591797 67:0.0375 68:0.0624349 69:0.0373047 70:0.0358724 71:0.0230794 72:0.0344401 73:0.141048 74:0.0847656 75:0.0803711 76:0.0570312 77:0.0712565 78:0.0351563 79:0.0573893 80:0.0263346 81:0.0813802 82:0.256152 83:0.113867 84:0.236947 85:0.0409831 86:0.132812 87:0.0373372 88:0.0999674 89:0.0336263 90:0.0723633 91:0.0340495 92:0.0722005 93:0.0246419 94:0.046582 95:0.0242187 96:0.0277018 97:0.0054362 98:0.0125326 99:0.00755208 100:0.0195964 101:0.0291667 102:0.0417643 103:0.0177083 104:0.0554687 105:0.0200195 106:0.0138672 107:0.0158529 108:0.0123698 109:0.025651 110:0.0202148 111:0.0315755 112:0.0166992 113:0.0136719 114:0.0595703 115:0.021224 116:0.0802409 117:0.0198242 118:0.063444 119:0.0201823 120:0.0857096 121:0.0093099 122:0.0223633 123:0.00976562 124:0.0185872 125:0.0172526 126:0.0181315 127:0.0283529 128:0.0170573 129:0.0181315 130:0.0203451 131:0.0164714 132:0.0161133 133:0.0124349 134:0.0147135 135:0.014974 136:0.0146159 137:0.0294271 138:0.0260091 139:0.0217122 140:0.0146159 141:0.0256836 142:0.0195638 143:0.0256836 144:0.0109049 145:0.0272135 146:0.094987 147:0.0214518 148:0.0788737 149:0.020638 150:0.0437174 151:0.0253255 152:0.0572591 153:0.0200846 154:0.0308268 155:0.0219401 156:0.0328451 157:0.0115885 158:0.0164388 159:0.0093099 160:0.0155273 161:0.022526 162:0.0352539 163:0.0405273 164:0.0289062 165:0.0311523 166:0.0386719 167:0.0303385 168:0.0311198 169:0.0616862 170:0.0297201 171:0.0917969 172:0.0166016 173:0.0806315 174:0.0703451 175:0.0926758 176:0.0363932 177:0.030013 178:0.138053 179:0.0346029 180:0.165658 181:0.0609701 182:0.127148 183:0.0658529 184:0.191406 185:0.0122721 186:0.0280599 187:0.0185547 188:0.0316732 189:0.0294596 190:0.0416016 191:0.0278971 192:0.0314128 193:0.0104818 194:0.0171224 195:0.0162435 196:0.0164388 197:0.00843099 198:0.0147135 199:0.0135742 200:0.013151 201:0.0176432 202:0.0148763 203:0.0209635 204:0.0136719 205:0.0145508 206:0.010612 207:0.0229492 208:0.00953776 209:0.0239258 210:0.0770833 211:0.0279948 212:0.0717448 213:0.0148438 214:0.0422526 215:0.0120443 216:0.0430339 217:0.00826823 218:0.0130208 219:0.00973307 220:0.0161784 221:0.0123047 222:0.0149089 223:0.0119141 224:0.0130859 225:0.010319 226:0.0151367 227:0.025293 228:0.0193034 229:0.0217773 230:0.0311849 231:0.0238281 232:0.0318685 233:0.0377604 234:0.0144531 235:0.0657552 236:0.0179688 237:0.0697591 238:0.0309896 239:0.0792643 240:0.0303711 241:0.0211914 242:0.108757 243:0.0380859 244:0.121745 245:0.0383789 246:0.145313 247:0.0356445 248:0.170475 249:0.0100911 250:0.0174479 251:0.0253255 252:0.026237 253:0.0313477 254:0.0334961 255:0.0422852 256:0.0321615 
2420.936965345887 1:0.0257487 2:0.0315755 3:0.0351563 4:0.0388021 5:0.0277018 6:0.022526 7:0.0327148 8:0.0297852 9:0.0778646 10:0.0510417 11:0.0805664 12:0.041862 13:0.0503581 14:0.0359701 15:0.0404622 16:0.0395182 17:0.0345378 18:0.118229 19:0.0625326 20:0.104036 21:0.0378255 22:0.0880208 23:0.0372721 24:0.0392253 25:0.0339193 26:0.0533529 27:0.0338867 28:0.0311849 29:0.038444 30:0.0393229 31:0.0261068 32:0.0266927 33:0.011263 34:0.0168294 35:0.0198568 36:0.0175456 37:0.020931 38:0.0213867 39:0.0256836 40:0.0147461 41:0.0162435 42:0.0248047 43:0.0270508 44:0.016569 45:0.0306641 46:0.0280924 47:0.0474609 48:0.0252604 49:0.0166016 50:0.0297852 51:0.0282227 52:0.0260091 53:0.0375651 54:0.0307943 55:0.0328125 56:0.0197266 57:0.0225586 58:0.0316406 59:0.0269531 60:0.0194661 61:0.0354167 62:0.0297526 63:0.0274089 64:0.0157227 65:0.0432292 66:0.057194 67:0.0482747 68:0.0496094 69:0.0348633 70:0.0356771 71:0.0441732 72:0.0401693 73:0.105013 74:0.0808268 75:0.0742513 76:0.062793 77:0.0592122 78:0.0285156 79:0.0637044 80:0.0448893 81:0.0563151 82:0.137012 83:0.0814128 84:0.115853 85:0.0420247 86:0.116634 87:0.0436198 88:0.0733073 89:0.0436849 90:0.0496094 91:0.0476562 92:0.0510417 93:0.0280924 94:0.0426432 95:0.0367187 96:0.037793 97:0.0124349 98:0.0226888 99:0.0181315 100:0.024707 101:0.0239909 102:0.0313802 103:0.0290039 104:0.0366862 105:0.0234049 106:0.0373372 107:0.0263997 108:0.0335612 109:0.0386393 110:0.0255208 111:0.0539714 112:0.0277018 113:0.0222331 114:0.0514648 115:0.0367839 116:0.0385417 117:0.0263346 118:0.0404622 119:0.0286133 120:0.0325195 121:0.0175456 122:0.0328125 123:0.0283203 124:0.0355143 125:0.0160482 126:0.0244792 127:0.0303385 128:0.0222656 129:0.0253255 130:0.0301758 131:0.0274089 132:0.0213867 133:0.0224609 134:0.0238932 135:0.0328776 136:0.0315104 137:0.0277344 138:0.032487 139:0.0243164 140:0.0181315 141:0.0279622 142:0.0318034 143:0.0321289 144:0.0393555 145:0.0242839 146:0.0315755 147:0.026888 148:0.0320638 149:0.0273763 150:0.0207031 151:0.0397135 152:0.0382812 153:0.026888 154:0.0253255 155:0.0214844 156:0.0222656 157:0.0213542 158:0.0246745 159:0.0201172 160:0.0277344 161:0.0278971 162:0.046875 163:0.0454753 164:0.0236979 165:0.0499674 166:0.0489909 167:0.0485352 168:0.0338867 169:0.068099 170:0.0556966 171:0.078418 172:0.0214193 173:0.0875 174:0.0816081 175:0.114453 176:0.0504557 177:0.037207 178:0.0638672 179:0.0438151 180:0.0766276 181:0.0766927 182:0.083724 183:0.0822266 184:0.124642 185:0.0257487 186:0.0307617 187:0.0358398 188:0.0331055 189:0.0383138 190:0.041569 191:0.0479167 192:0.0361003 193:0.0336589 194:0.0339844 195:0.0269531 196:0.0182292 197:0.0199219 198:0.0227539 199:0.0161784 200:0.0201823 201:0.0288086 202:0.0348633 203:0.0242839 204:0.0223633 205:0.0244141 206:0.0226562 207:0.0219727 208:0.0256836 209:0.0520833 210:0.0390625 211:0.0324544 212:0.0313802 213:0.032194 214:0.0283529 215:0.0249674 216:0.0281901 217:0.0291016 218:0.0260091 219:0.0279948 220:0.0261719 221:0.0212565 222:0.0194661 223:0.0187826 224:0.0230794 225:0.0158529 226:0.0289714 227:0.0296549 228:0.0234375 229:0.0300781 230:0.0472331 231:0.0325195 232:0.0410482 233:0.0395182 234:0.0357096 235:0.0762695 236:0.025293 237:0.0967122 238:0.0495768 239:0.0902669 240:0.0410156 241:0.0313802 242:0.0541992 243:0.0382487 244:0.0579102 245:0.0428385 246:0.0960937 247:0.0460937 248:0.0929362 249:0.0180339 250:0.0320312 251:0.0362956 252:0.0403971 253:0.0275716 254:0.0364909 255:0.0266602 256:0.034668 
1268.320107195976 1:0.0209961 2:0.0510091 3:0.0265625 4:0.0466471 5:0.0237305 6:0.0263021 7:0.0198568 8:0.0212891 9:0.0803385 10:0.0369792 11:0.0791667 12:0.0362956 13:0.0547526 14:0.0306966 15:0.0310872 16:0.0219727 17:0.0408529 18:0.136654 19:0.0585612 20:0.129818 21:0.0365234 22:0.0999674 23:0.0373372 24:0.0730143 25:0.0263997 26:0.0458008 27:0.0259115 28:0.0386068 29:0.0262695 30:0.0491211 31:0.0180339 32:0.0250977 33:0.00719401 34:0.0137695 35:0.0158854 36:0.0144857 37:0.0202799 38:0.0169922 39:0.0157878 40:0.0147135 41:0.0135742 42:0.0176432 43:0.0190755 44:0.0144531 45:0.0241862 46:0.0247721 47:0.0213867 48:0.0195312 49:0.0223958 50:0.048763 51:0.0323568 52:0.0529622 53:0.0427734 54:0.0487305 55:0.0323242 56:0.0444661 57:0.0129557 58:0.0262044 59:0.0157552 60:0.0197266 61:0.0276367 62:0.0330078 63:0.0170898 64:0.0186849 65:0.0260091 66:0.058138 67:0.0445312 68:0.068099 69:0.0254883 70:0.030957 71:0.0275391 72:0.0420898 73:0.0833659 74:0.0587891 75:0.0641602 76:0.0756836 77:0.0607422 78:0.0235352 79:0.0436523 80:0.0321615 81:0.0664062 82:0.258659 83:0.123242 84:0.222786 85:0.0347005 86:0.125098 87:0.0464518 88:0.0952799 89:0.0272135 90:0.067806 91:0.0397786 92:0.0597982 93:0.0246745 94:0.0458659 95:0.0341797 96:0.0291341 97:0.00745443 98:0.019987 99:0.0124674 100:0.0274414 101:0.0232422 102:0.0383789 103:0.0258464 104:0.05 105:0.0177734 106:0.0189453 107:0.0169271 108:0.031543 109:0.0302409 110:0.025944 111:0.0405599 112:0.0331706 113:0.0212565 114:0.0801107 115:0.0382161 116:0.0757161 117:0.0315755 118:0.0670247 119:0.0325521 120:0.0734375 121:0.0123698 122:0.0273437 123:0.0222656 124:0.0380208 125:0.0185547 126:0.0321615 127:0.0342448 128:0.0226888 129:0.0229167 130:0.0323242 131:0.0205729 132:0.0213216 133:0.0304036 134:0.021875 135:0.0205729 136:0.0259766 137:0.0242839 138:0.0342122 139:0.0250977 140:0.0224284 141:0.0222005 142:0.0290039 143:0.0173828 144:0.0240234 145:0.0463216 146:0.0909831 147:0.0276042 148:0.062207 149:0.0368164 150:0.0388346 151:0.039388 152:0.055599 153:0.0235352 154:0.0333984 155:0.0249349 156:0.036263 157:0.0167643 158:0.0202799 159:0.0145508 160:0.0228841 161:0.0202148 162:0.0309896 163:0.0295573 164:0.0224609 165:0.0488932 166:0.0370768 167:0.0370117 168:0.0325195 169:0.0395182 170:0.0424805 171:0.0527669 172:0.0246419 173:0.0797526 174:0.078418 175:0.0820964 176:0.0530924 177:0.0564779 178:0.087793 179:0.0416341 180:0.0812174 181:0.0758138 182:0.0787435 183:0.072526 184:0.115951 185:0.0215169 186:0.0333008 187:0.0230794 188:0.0302409 189:0.0401367 190:0.0373047 191:0.0330078 192:0.0306966 193:0.016276 194:0.0300456 195:0.0182617 196:0.0233398 197:0.0148438 198:0.0197266 199:0.0176758 200:0.0189128 201:0.0141927 202:0.0205729 203:0.0143555 204:0.0238607 205:0.015625 206:0.0155273 207:0.0155599 208:0.018099 209:0.036263 210:0.0894206 211:0.0431641 212:0.0638672 213:0.025293 214:0.0488932 215:0.0234049 216:0.0442383 217:0.0127604 218:0.0229167 219:0.0177734 220:0.0274414 221:0.0142253 222:0.0160807 223:0.0147135 224:0.0200846 225:0.0157227 226:0.024707 227:0.0236328 228:0.0208008 229:0.0291016 230:0.0356771 231:0.0351888 232:0.0348958 233:0.0193034 234:0.026237 235:0.0457031 236:0.0276367 237:0.0624674 238:0.0504883 239:0.0635417 240:0.0457031 241:0.0274089 242:0.0792643 243:0.0419922 244:0.0769857 245:0.0429036 246:0.0802083 247:0.0421875 248:0.0875 249:0.0157227 250:0.0284505 251:0.0297852 252:0.0331706 253:0.0287435 254:0.03125 255:0.03125 256:0.0303711 
1518.341471900813 1:0.0248372 2:0.0325846 3:0.035612 4:0.0338867 5:0.0399089 6:0.0205404 7:0.0241211 8:0.0188477 9:0.0636719 10:0.0377604 11:0.0706055 12:0.0372721 13:0.0453776 14:0.0374023 15:0.0341471 16:0.0297201 17:0.0217448 18:0.0678711 19:0.0436523 20:0.0646159 21:0.0282878 22:0.0491862 23:0.0315755 24:0.0397135 25:0.0255534 26:0.0295898 27:0.0341146 28:0.0249349 29:0.0359701 30:0.0361328 31:0.0249349 32:0.0203451 33:0.0119466 34:0.0173503 35:0.0206055 36:0.0147461 37:0.0217122 38:0.0177409 39:0.0230143 40:0.0125977 41:0.0177734 42:0.0280273 43:0.0201497 44:0.0186198 45:0.0317383 46:0.0384115 47:0.0401693 48:0.0270182 49:0.0197917 50:0.0316406 51:0.0261393 52:0.0249349 53:0.0413086 54:0.0314128 55:0.0343424 56:0.0269531 57:0.0171224 58:0.026237 59:0.0205729 60:0.017806 61:0.0360677 62:0.0317708 63:0.0288411 64:0.016569 65:0.0267578 66:0.0285807 67:0.0497396 68:0.0494141 69:0.0389323 70:0.0257813 71:0.0370443 72:0.031901 73:0.0668294 74:0.0550781 75:0.0522461 76:0.077832 77:0.0421224 78:0.0303385 79:0.0395508 80:0.0500651 81:0.0352214 82:0.101725 83:0.0945312 84:0.103027 85:0.0383789 86:0.0692708 87:0.0445638 88:0.0582357 89:0.0296549 90:0.0385417 91:0.0370443 92:0.0426432 93:0.0307943 94:0.0323893 95:0.0323893 96:0.0275716 97:0.0119466 98:0.0167318 99:0.0181966 100:0.0198242 101:0.0224609 102:0.0239909 103:0.0332031 104:0.0329753 105:0.0317057 106:0.0440755 107:0.0227865 108:0.0382812 109:0.0375326 110:0.0376953 111:0.0460286 112:0.0415039 113:0.0242187 114:0.0464193 115:0.0352539 116:0.042806 117:0.0251302 118:0.0325521 119:0.0323893 120:0.0374674 121:0.0215169 122:0.040625 123:0.0310221 124:0.0377604 125:0.0297852 126:0.0296875 127:0.0419271 128:0.0254232 129:0.0339518 130:0.0429688 131:0.0321289 132:0.0291992 133:0.0347331 134:0.0243815 135:0.0266927 136:0.0229818 137:0.0285807 138:0.0403646 139:0.0236979 140:0.0258464 141:0.0288411 142:0.0428385 143:0.0295247 144:0.0363932 145:0.0299479 146:0.0455404 147:0.0324544 148:0.0389323 149:0.0365234 150:0.024349 151:0.0290365 152:0.0307943 153:0.0321615 154:0.0230794 155:0.0255859 156:0.0264323 157:0.0251953 158:0.0223307 159:0.0176432 160:0.0236979 161:0.0274089 162:0.0341797 163:0.0297852 164:0.0200195 165:0.0601237 166:0.0534505 167:0.0610352 168:0.0454102 169:0.0319987 170:0.0507487 171:0.0431641 172:0.0324219 173:0.0871745 174:0.103939 175:0.109277 176:0.0647135 177:0.0458659 178:0.0920898 179:0.0459961 180:0.115853 181:0.133138 182:0.137956 183:0.112272 184:0.278971 185:0.0241862 186:0.0317383 187:0.0333333 188:0.0383464 189:0.0476888 190:0.0461589 191:0.0551758 192:0.0452799 193:0.0287435 194:0.0294271 195:0.0257487 196:0.0269531 197:0.018457 198:0.0170573 199:0.0159505 200:0.0142578 201:0.0256185 202:0.0347982 203:0.0219076 204:0.0346354 205:0.0241862 206:0.0253581 207:0.0236654 208:0.0272461 209:0.0423177 210:0.0479818 211:0.0422201 212:0.0414388 213:0.0261068 214:0.0291992 215:0.0210938 216:0.0241862 217:0.0266276 218:0.0223633 219:0.0248372 220:0.0281576 221:0.0204427 222:0.0183919 223:0.0158529 224:0.0191732 225:0.0161458 226:0.0234049 227:0.025293 228:0.0236654 229:0.0281576 230:0.0441406 231:0.0391927 232:0.0382161 233:0.0265951 234:0.0336914 235:0.0375 236:0.0351237 237:0.0754883 238:0.0507487 239:0.0965495 240:0.0520182 241:0.0299805 242:0.0744466 243:0.038444 244:0.104622 245:0.0568359 246:0.125781 247:0.0536784 248:0.170768 249:0.0175781 250:0.0230794 251:0.0324544 252:0.0459635 253:0.0282552 254:0.0343099 255:0.0380208 256:0.0409505 
7733.669160960911 1:0.0625651 2:0.0669596 3:0.036849 4:0.0591471 5:0.0488607 6:0.0372721 7:0.0204427 8:0.0222656 9:0.0673177 10:0.0545573 11:0.0602539 12:0.0493164 13:0.0539714 14:0.0386068 15:0.0295247 16:0.0257813 17:0.0844727 18:0.144206 19:0.0614583 20:0.117773 21:0.0772135 22:0.0770833 23:0.0288086 24:0.0436523 25:0.0606445 26:0.0732096 27:0.0466471 28:0.0668945 29:0.0495768 30:0.0468099 31:0.0178385 32:0.0273437 33:0.0105143 34:0.0173503 35:0.0148112 36:0.0164062 37:0.0166667 38:0.0165365 39:0.0124349 40:0.0129557 41:0.0146484 42:0.0139648 43:0.0180339 44:0.0127604 45:0.0257813 46:0.0241536 47:0.0236654 48:0.0140951 49:0.0183594 50:0.037793 51:0.0224284 52:0.0365885 53:0.036849 54:0.036849 55:0.0191406 56:0.0268555 57:0.0157227 58:0.0234375 59:0.0166341 60:0.0172852 61:0.0237956 62:0.0262695 63:0.013444 64:0.0130859 65:0.0369792 66:0.077474 67:0.0512695 68:0.118066 69:0.0484375 70:0.0529948 71:0.0334635 72:0.0549154 73:0.0431641 74:0.0544922 75:0.0486003 76:0.0891602 77:0.0517904 78:0.0442708 79:0.0408203 80:0.0400065 81:0.0963867 82:0.175618 83:0.117839 84:0.227734 85:0.0641276 86:0.102507 87:0.044694 88:0.0867839 89:0.0447591 90:0.0827799 91:0.0568034 92:0.136979 93:0.0467122 94:0.0568359 95:0.036849 96:0.047819 97:0.00742188 98:0.0139323 99:0.0148112 100:0.0270833 101:0.0230469 102:0.0261068 103:0.0168294 104:0.0382161 105:0.0127604 106:0.0148763 107:0.01875 108:0.0176432 109:0.0352865 110:0.0250326 111:0.0313477 112:0.0204753 113:0.021582 114:0.0403971 115:0.0342773 116:0.0646484 117:0.0240885 118:0.0386393 119:0.025944 120:0.047168 121:0.0114909 122:0.0229818 123:0.0217122 124:0.0301107 125:0.0224609 126:0.0323242 127:0.0402018 128:0.0258464 129:0.0267253 130:0.0385742 131:0.0219076 132:0.0238281 133:0.0220378 134:0.0190104 135:0.0138346 136:0.0189779 137:0.0200195 138:0.0236328 139:0.0194987 140:0.0157227 141:0.0260417 142:0.0248372 143:0.0175781 144:0.0180013 145:0.0339518 146:0.0716797 147:0.0208333 148:0.049056 149:0.0279948 150:0.0307292 151:0.0236328 152:0.0356445 153:0.0196289 154:0.0279297 155:0.0141927 156:0.027474 157:0.0154948 158:0.0167969 159:0.00950521 160:0.0154622 161:0.0244466 162:0.0378906 163:0.0408854 164:0.0257161 165:0.0446289 166:0.0527669 167:0.039681 168:0.0307617 169:0.041569 170:0.0335612 171:0.0629557 172:0.0205404 173:0.119922 174:0.071582 175:0.147493 176:0.0450846 177:0.0258464 178:0.0889323 179:0.034082 180:0.0938802 181:0.0554687 182:0.0906576 183:0.0495117 184:0.095638 185:0.017806 186:0.0257161 187:0.0209961 188:0.0302083 189:0.0391927 190:0.0408203 191:0.038737 192:0.0315104 193:0.017806 194:0.0267578 195:0.0181966 196:0.0246745 197:0.0115885 198:0.015918 199:0.0135091 200:0.013444 201:0.0133138 202:0.0149414 203:0.0141276 204:0.0151367 205:0.0197591 206:0.0141602 207:0.0255534 208:0.0158203 209:0.0369466 210:0.0565755 211:0.0413737 212:0.0620117 213:0.0194336 214:0.0305013 215:0.0176432 216:0.0286784 217:0.0128906 218:0.0157227 219:0.0186198 220:0.0254557 221:0.0177734 222:0.0168294 223:0.0154622 224:0.0145182 225:0.00979818 226:0.0154297 227:0.0235677 228:0.0236328 229:0.0255534 230:0.0319336 231:0.0232096 232:0.028418 233:0.0249349 234:0.0163737 235:0.0510417 236:0.0167969 237:0.102637 238:0.0371094 239:0.127279 240:0.0413411 241:0.0163411 242:0.0563477 243:0.0401367 244:0.127507 245:0.0358073 246:0.0934896 247:0.038737 248:0.0913411 249:0.0104492 250:0.0184896 251:0.0258138 252:0.0270182 253:0.027181 254:0.0395508 255:0.0389323 256:0.034668 
2356.99169940268 1:0.0521159 2:0.0349609 3:0.0227214 4:0.0305013 5:0.0281576 6:0.0185221 7:0.0188477 8:0.0152344 9:0.100879 10:0.0397135 11:0.108952 12:0.0350911 13:0.0597331 14:0.0189453 15:0.0249349 16:0.0149089 17:0.0449544 18:0.149837 19:0.0486654 20:0.139974 21:0.0271159 22:0.0513997 23:0.0226562 24:0.0464844 25:0.0811523 26:0.0722656 27:0.0614583 28:0.0698893 29:0.0221029 30:0.0200521 31:0.0127279 32:0.0179036 33:0.00654297 34:0.0125 35:0.0101237 36:0.0105143 37:0.0118164 38:0.00934245 39:0.0111654 40:0.00826823 41:0.00712891 42:0.0112956 43:0.0116211 44:0.0077474 45:0.0171875 46:0.0147135 47:0.022168 48:0.0105794 49:0.0106771 50:0.0477214 51:0.016569 52:0.050944 53:0.0257813 54:0.0503581 55:0.0223958 56:0.041862 57:0.00908203 58:0.0198242 59:0.0113281 60:0.0140951 61:0.0153971 62:0.0212891 63:0.0126302 64:0.0112305 65:0.0357096 66:0.0503906 67:0.0283529 68:0.0574544 69:0.0668945 70:0.0507487 71:0.047819 72:0.0568685 73:0.0639974 74:0.0591797 75:0.0679036 76:0.0578776 77:0.0674154 78:0.024707 79:0.0575195 80:0.0288737 81:0.0460612 82:0.249121 83:0.0677083 84:0.233008 85:0.0281901 86:0.101302 87:0.03125 88:0.0919922 89:0.0391276 90:0.0668945 91:0.0369141 92:0.0579427 93:0.0208008 94:0.0234701 95:0.0272135 96:0.022526 97:0.00608724 98:0.0191406 99:0.00891927 100:0.0179036 101:0.0370768 102:0.0461914 103:0.0349935 104:0.0598958 105:0.00983073 106:0.0130208 107:0.0139648 108:0.00999349 109:0.0237305 110:0.0240234 111:0.0418945 112:0.0230469 113:0.0144531 114:0.0766602 115:0.0264323 116:0.0943359 117:0.0242187 118:0.0722656 119:0.0303711 120:0.0703451 121:0.0078125 122:0.0195312 123:0.0178385 124:0.0156901 125:0.0205729 126:0.0349935 127:0.0449219 128:0.0199544 129:0.0282552 130:0.0364258 131:0.0236003 132:0.0205729 133:0.0135091 134:0.0142904 135:0.019987 136:0.0139974 137:0.0191732 138:0.0264974 139:0.0157227 140:0.0163737 141:0.0179362 142:0.0195312 143:0.0169922 144:0.0185547 145:0.0265625 146:0.109831 147:0.0314779 148:0.0855143 149:0.0135417 150:0.0423828 151:0.0335612 152:0.0583659 153:0.035612 154:0.0448242 155:0.0311849 156:0.0446289 157:0.0111003 158:0.0125977 159:0.00960286 160:0.0135417 161:0.0309896 162:0.0503906 163:0.0504557 164:0.0301758 165:0.0505534 166:0.049707 167:0.0623047 168:0.0385091 169:0.0450521 170:0.0408854 171:0.0630534 172:0.0222982 173:0.134473 174:0.0941081 175:0.151074 176:0.0691732 177:0.0208659 178:0.0992513 179:0.0374023 180:0.111263 181:0.0570964 182:0.112826 183:0.0828125 184:0.175033 185:0.0167643 186:0.0222005 187:0.0250651 188:0.0234701 189:0.0448242 190:0.0471029 191:0.0585286 192:0.0401042 193:0.0135091 194:0.0159505 195:0.0145833 196:0.0115885 197:0.00693359 198:0.0102539 199:0.0110677 200:0.0100911 201:0.0115885 202:0.0134766 203:0.0106445 204:0.0093099 205:0.0166341 206:0.0102214 207:0.0170247 208:0.0094401 209:0.0226562 210:0.0925781 211:0.0326497 212:0.0825195 213:0.0138672 214:0.0420247 215:0.0166992 216:0.0496745 217:0.00852865 218:0.015625 219:0.0111979 220:0.0151042 221:0.0121094 222:0.0130859 223:0.0130208 224:0.0122721 225:0.0110026 226:0.0117187 227:0.0257161 228:0.0152669 229:0.0256836 230:0.0264974 231:0.0342448 232:0.0336914 233:0.0186523 234:0.0152018 235:0.0535482 236:0.019694 237:0.0769206 238:0.0405924 239:0.102799 240:0.0543294 241:0.0216797 242:0.109408 243:0.0423828 244:0.114746 245:0.0383789 246:0.113086 247:0.0507813 248:0.135872 249:0.0105469 250:0.0180013 251:0.0288086 252:0.0227865 253:0.0316406 254:0.045638 255:0.0588867 256:0.0402018 
9462.177875603802 1:0.034375 2:0.0533529 3:0.0299805 4:0.0418945 5:0.027832 6:0.0285482 7:0.019401 8:0.0195964 9:0.0692057 10:0.0603841 11:0.0657227 12:0.0411458 13:0.0468424 14:0.0399414 15:0.0202474 16:0.0239583 17:0.0630859 18:0.145638 19:0.0533529 20:0.126335 21:0.0502604 22:0.0813477 23:0.0272135 24:0.0692383 25:0.0346029 26:0.0559896 27:0.0269531 28:0.0458333 29:0.03125 30:0.0390951 31:0.013444 32:0.0219727 33:0.00595703 34:0.0142578 35:0.00973307 36:0.0119466 37:0.00927734 38:0.0116862 39:0.00615234 40:0.00904948 41:0.00768229 42:0.0139648 43:0.00830078 44:0.00800781 45:0.0141927 46:0.014974 47:0.0131836 48:0.00869141 49:0.0162435 50:0.0573893 51:0.0213867 52:0.0557617 53:0.0258464 54:0.0548177 55:0.0164062 56:0.0515951 57:0.00800781 58:0.0230469 59:0.00908203 60:0.0147461 61:0.0150716 62:0.0205729 63:0.00960286 64:0.0109701 65:0.0469727 66:0.062207 67:0.0498372 68:0.0779622 69:0.0312826 70:0.0341146 71:0.0293945 72:0.0386393 73:0.0724284 74:0.0703776 75:0.0682617 76:0.0802734 77:0.0427734 78:0.0367513 79:0.039974 80:0.035319 81:0.0791341 82:0.205339 83:0.0934896 84:0.194108 85:0.0562174 86:0.107259 87:0.0414714 88:0.090625 89:0.0477539 90:0.0710612 91:0.0505208 92:0.0740234 93:0.0333984 94:0.0440104 95:0.0241862 96:0.0335286 97:0.00680339 98:0.0131185 99:0.00742188 100:0.0190104 101:0.0117513 102:0.0207682 103:0.00875651 104:0.0245443 105:0.00999349 106:0.0158203 107:0.0120768 108:0.0135091 109:0.0235677 110:0.0239909 111:0.0347982 112:0.017806 113:0.0172852 114:0.0655273 115:0.0312174 116:0.0883138 117:0.0200521 118:0.059082 119:0.0233398 120:0.0630859 121:0.0101563 122:0.0214844 123:0.0160482 124:0.0217122 125:0.0157227 126:0.0196289 127:0.0248698 128:0.0172526 129:0.0193034 130:0.0258464 131:0.0238607 132:0.0171224 133:0.0176432 134:0.0149089 135:0.0127279 136:0.0131836 137:0.0129883 138:0.022819 139:0.0161784 140:0.0113281 141:0.0144531 142:0.0197266 143:0.0108073 144:0.0130859 145:0.0235677 146:0.0728841 147:0.021875 148:0.0537109 149:0.0193685 150:0.048112 151:0.016569 152:0.0578451 153:0.00813802 154:0.0184245 155:0.00989583 156:0.0174805 157:0.00882161 158:0.0177409 159:0.00660807 160:0.0140299 161:0.0287109 162:0.0447917 163:0.0492513 164:0.0348958 165:0.0461589 166:0.0535482 167:0.0623047 168:0.0548177 169:0.029362 170:0.0393229 171:0.0501628 172:0.0194661 173:0.0892578 174:0.0940755 175:0.0825846 176:0.0602539 177:0.0351888 178:0.129785 179:0.0495117 180:0.143392 181:0.0645508 182:0.180208 183:0.0920573 184:0.238802 185:0.0119792 186:0.024707 187:0.0193034 188:0.0291341 189:0.042806 190:0.0617513 191:0.0530273 192:0.0575521 193:0.0121094 194:0.0181315 195:0.0120443 196:0.0155273 197:0.00722656 198:0.0109701 199:0.00611979 200:0.0104167 201:0.00764974 202:0.0146159 203:0.00885417 204:0.0112956 205:0.00963542 206:0.00888672 207:0.00878906 208:0.0101563 209:0.0380208 210:0.0829427 211:0.030599 212:0.0748372 213:0.0194661 214:0.0563477 215:0.0174154 216:0.0517253 217:0.0109701 218:0.01875 219:0.0129883 220:0.0218099 221:0.0117513 222:0.0172201 223:0.0106771 224:0.0166341 225:0.0093099 226:0.0176758 227:0.0281901 228:0.0188802 229:0.0208659 230:0.0289388 231:0.0333333 232:0.0335612 233:0.0108073 234:0.0126628 235:0.0536784 236:0.0161133 237:0.0820313 238:0.0401693 239:0.100879 240:0.046582 241:0.0321289 242:0.120313 243:0.0507487 244:0.143652 245:0.0536784 246:0.155208 247:0.0740234 248:0.201497 249:0.0106771 250:0.0208659 251:0.0260091 252:0.0281901 253:0.0379232 254:0.0433268 255:0.0553385 256:0.047526 
